{"learner":{"attributes":{"best_iteration":"391","best_score":"1.34104635783909","scikit_learn":"{\"_estimator_type\": \"regressor\"}"},"feature_names":["C","Si","Mn","P","S","Ni","Cr","Cu","Mo","Fe","Carbon_Equiv","A3_Temp_C","Delta_HT_A3","Hollomon_Jaffe","C_x_Cr","Cooling_Rate_Est","Total_Alloy","HT_Temp_C","Soaking_Time_min","Tempering_Temp_C","Tempering_Time_min","Process_Quench_Temper","Process_Normalizing","Process_Annealing","Process_Stress_Relief","Cooling_Medium_Water","Cooling_Medium_Oil","Cooling_Medium_Polymer","Cooling_Medium_Air","Cooling_Medium_Furnace","Cooling_Medium_Salt Bath"],"feature_types":["float","float","float","float","float","float","float","float","float","float","float","float","float","float","float","float","float","float","float","float","float","float","float","float","float","float","float","float","float","float","float"],"gradient_booster":{"model":{"cats":{"enc":[],"feature_segments":[],"sorted_idx":[]},"gbtree_model_param":{"num_parallel_tree":"1","num_trees":"392"},"iteration_indptr":[0,1,2,3,4,5,6,7,8,9,10,11,12,13,14,15,16,17,18,19,20,21,22,23,24,25,26,27,28,29,30,31,32,33,34,35,36,37,38,39,40,41,42,43,44,45,46,47,48,49,50,51,52,53,54,55,56,57,58,59,60,61,62,63,64,65,66,67,68,69,70,71,72,73,74,75,76,77,78,79,80,81,82,83,84,85,86,87,88,89,90,91,92,93,94,95,96,97,98,99,100,101,102,103,104,105,106,107,108,109,110,111,112,113,114,115,116,117,118,119,120,121,122,123,124,125,126,127,128,129,130,131,132,133,134,135,136,137,138,139,140,141,142,143,144,145,146,147,148,149,150,151,152,153,154,155,156,157,158,159,160,161,162,163,164,165,166,167,168,169,170,171,172,173,174,175,176,177,178,179,180,181,182,183,184,185,186,187,188,189,190,191,192,193,194,195,196,197,198,199,200,201,202,203,204,205,206,207,208,209,210,211,212,213,214,215,216,217,218,219,220,221,222,223,224,225,226,227,228,229,230,231,232,233,234,235,236,237,238,239,240,241,242,243,244,245,246,247,248,249,250,251,252,253,254,255,256,257,258,259,260,261,262,263,264,265,266,267,268,269,270,271,272,273,274,275,276,277,278,279,280,281,282,283,284,285,286,287,288,289,290,291,292,293,294,295,296,297,298,299,300,301,302,303,304,305,306,307,308,309,310,311,312,313,314,315,316,317,318,319,320,321,322,323,324,325,326,327,328,329,330,331,332,333,334,335,336,337,338,339,340,341,342,343,344,345,346,347,348,349,350,351,352,353,354,355,356,357,358,359,360,361,362,363,364,365,366,367,368,369,370,371,372,373,374,375,376,377,378,379,380,381,382,383,384,385,386,387,388,389,390,391,392],"tree_info":[0,0,0,0,0,0,0,0,0,0,0,0,0,0,0,0,0,0,0,0,0,0,0,0,0,0,0,0,0,0,0,0,0,0,0,0,0,0,0,0,0,0,0,0,0,0,0,0,0,0,0,0,0,0,0,0,0,0,0,0,0,0,0,0,0,0,0,0,0,0,0,0,0,0,0,0,0,0,0,0,0,0,0,0,0,0,0,0,0,0,0,0,0,0,0,0,0,0,0,0,0,0,0,0,0,0,0,0,0,0,0,0,0,0,0,0,0,0,0,0,0,0,0,0,0,0,0,0,0,0,0,0,0,0,0,0,0,0,0,0,0,0,0,0,0,0,0,0,0,0,0,0,0,0,0,0,0,0,0,0,0,0,0,0,0,0,0,0,0,0,0,0,0,0,0,0,0,0,0,0,0,0,0,0,0,0,0,0,0,0,0,0,0,0,0,0,0,0,0,0,0,0,0,0,0,0,0,0,0,0,0,0,0,0,0,0,0,0,0,0,0,0,0,0,0,0,0,0,0,0,0,0,0,0,0,0,0,0,0,0,0,0,0,0,0,0,0,0,0,0,0,0,0,0,0,0,0,0,0,0,0,0,0,0,0,0,0,0,0,0,0,0,0,0,0,0,0,0,0,0,0,0,0,0,0,0,0,0,0,0,0,0,0,0,0,0,0,0,0,0,0,0,0,0,0,0,0,0,0,0,0,0,0,0,0,0,0,0,0,0,0,0,0,0,0,0,0,0,0,0,0,0,0,0,0,0,0,0,0,0,0,0,0,0,0,0,0,0,0,0,0,0,0,0,0,0,0,0,0,0,0,0,0,0,0,0,0,0,0,0,0,0,0,0,0,0,0,0,0,0,0,0,0,0,0,0,0,0,0,0,0,0],"trees":[{"base_weights":[7.76837E-2,6.6663604E0,-8.838992E0,1.5389659E-1,3.3949912E0,-1.3254865E1,-7.688638E0,4.7004852E-2,2.1344089E-4,-1.263597E-1,-1.8730979E-1,-9.8875634E-2,-1.36161E-1],"categories":[],"categories_nodes":[],"categories_segments":[],"categories_sizes":[],"default_left":[0,0,0,0,0,0,0,0,0,0,0,0,0],"id":0,"left_children":[1,3,5,-1,7,9,11,-1,-1,-1,-1,-1,-1],"loss_changes":[2.0738428E4,3.2057275E3,7.619717E2,0E0,4.7233276E1,8.6893555E1,8.9791016E1,0E0,0E0,0E0,0E0,0E0,0E0],"parents":[2147483647,0,0,1,1,2,2,4,4,5,5,6,6],"right_children":[2,4,6,-1,8,10,12,-1,-1,-1,-1,-1,-1],"split_conditions":[7.6548076E3,2E0,1.0580706E4,1.5389659E-1,9.293057E-1,7.063367E-1,1.0556983E0,4.7004852E-2,2.1344089E-4,-1.263597E-1,-1.8730979E-1,-9.8875634E-2,-1.36161E-1],"split_indices":[13,15,13,0,14,10,10,0,0,0,0,0,0],"split_type":[0,0,0,0,0,0,0,0,0,0,0,0,0],"sum_hessian":[3.53E2,2.03E2,1.5E2,8.2E1,1.21E2,3.1E1,1.19E2,1.17E2,4E0,5E0,2.6E1,1.06E2,1.3E1],"tree_param":{"num_deleted":"0","num_feature":"31","num_nodes":"13","size_leaf_vector":"1"}},{"base_weights":[1.939715E-2,6.5329404E0,-8.826699E0,1.1415747E1,3.5008755E0,-1.2475137E1,-7.6539865E0,1.5542781E-1,1.4018185E-1,4.7994662E-2,1.3309784E-2,-1.2676995E-1,-1.8046172E-1,-9.6271716E-2,-1.3106528E-1],"categories":[],"categories_nodes":[],"categories_segments":[],"categories_sizes":[],"default_left":[0,0,0,0,0,0,0,0,0,0,0,0,0,0,0],"id":1,"left_children":[1,3,5,7,9,11,13,-1,-1,-1,-1,-1,-1,-1,-1],"loss_changes":[2.0109182E4,2.9758018E3,6.3322754E2,1.40078125E1,2.5974976E1,1.0853613E2,1.1093115E2,0E0,0E0,0E0,0E0,0E0,0E0,0E0,0E0],"parents":[2147483647,0,0,1,1,2,2,3,3,4,4,5,5,6,6],"right_children":[2,4,6,8,10,12,14,-1,-1,-1,-1,-1,-1,-1,-1],"split_conditions":[7.6548076E3,1E0,1.0676838E4,9.61883E1,8.5475993E-1,7.063367E-1,1.0461034E0,1.5542781E-1,1.4018185E-1,4.7994662E-2,1.3309784E-2,-1.2676995E-1,-1.8046172E-1,-9.6271716E-2,-1.3106528E-1],"split_indices":[13,28,13,9,14,10,10,0,0,0,0,0,0,0,0],"split_type":[0,0,0,0,0,0,0,0,0,0,0,0,0,0,0],"sum_hessian":[3.49E2,2.01E2,1.48E2,7.7E1,1.24E2,3.6E1,1.12E2,6.4E1,1.3E1,1.2E2,4E0,9E0,2.7E1,9.2E1,2E1],"tree_param":{"num_deleted":"0","num_feature":"31","num_nodes":"15","size_leaf_vector":"1"}},{"base_weights":[-1.2062152E-1,6.148222E0,-8.579267E0,1.118779E1,3.3705072E0,-7.35601E0,-9.560892E0,1.5107249E-1,1.2883091E-1,4.659679E-2,3.2370146E-5,-1.13425896E-1,-9.031858E-2,-1.2349006E-1,-1.6423975E-1],"categories":[],"categories_nodes":[],"categories_segments":[],"categories_sizes":[],"default_left":[0,0,0,0,0,0,0,0,0,0,0,0,0,0,0],"id":2,"left_children":[1,3,5,7,9,11,13,-1,-1,-1,-1,-1,-1,-1,-1],"loss_changes":[1.818789E4,2.7577012E3,1.7531445E2,1.0405273E1,4.6851685E1,4.4260498E1,7.40957E1,0E0,0E0,0E0,0E0,0E0,0E0,0E0,0E0],"parents":[2147483647,0,0,1,1,2,2,3,3,4,4,5,5,6,6],"right_children":[2,4,6,8,10,12,14,-1,-1,-1,-1,-1,-1,-1,-1],"split_conditions":[1.5E1,2E0,3.079E-1,5.639E-1,9.293057E-1,1.4905E0,1.1586484E0,1.5107249E-1,1.2883091E-1,4.659679E-2,3.2370146E-5,-1.13425896E-1,-9.031858E-2,-1.2349006E-1,-1.6423975E-1],"split_indices":[15,15,0,0,14,5,10,0,0,0,0,0,0,0,0],"split_type":[0,0,0,0,0,0,0,0,0,0,0,0,0,0,0],"sum_hessian":[3.43E2,1.97E2,1.46E2,7E1,1.27E2,6.5E1,8.1E1,6.6E1,4E0,1.23E2,4E0,2.3E1,4.2E1,7.2E1,9E0],"tree_param":{"num_deleted":"0","num_feature":"31","num_nodes":"15","size_leaf_vector":"1"}},{"base_weights":[-1.3142075E-1,6.073239E0,-8.513875E0,3.3313358E0,1.4720193E-1,-1.2529023E1,-7.3470793E0,4.64388E-2,1.6421858E-2,-1.8901965E-1,-1.4083178E-1,-1.16112046E-1,-8.9843914E-2],"categories":[],"categories_nodes":[],"categories_segments":[],"categories_sizes":[],"default_left":[0,0,0,0,0,0,0,0,0,0,0,0,0],"id":3,"left_children":[1,3,5,7,-1,9,11,-1,-1,-1,-1,-1,-1],"loss_changes":[1.8463646E4,2.7522178E3,7.074131E2,3.7749634E1,0E0,1.0856641E2,9.875098E1,0E0,0E0,0E0,0E0,0E0,0E0],"parents":[2147483647,0,0,1,1,2,2,3,3,5,5,6,6],"right_children":[2,4,6,8,-1,10,12,-1,-1,-1,-1,-1,-1],"split_conditions":[7.6548076E3,1E0,1.0613656E4,1.154185E0,1.4720193E-1,8.272E2,1.3228867E4,4.64388E-2,1.6421858E-2,-1.8901965E-1,-1.4083178E-1,-1.16112046E-1,-8.9843914E-2],"split_indices":[13,23,13,10,0,17,13,0,0,0,0,0,0],"split_type":[0,0,0,0,0,0,0,0,0,0,0,0,0],"sum_hessian":[3.55E2,2.04E2,1.51E2,1.31E2,7.3E1,3.4E1,1.17E2,1.23E2,8E0,1.9E1,1.5E1,3.8E1,7.9E1],"tree_param":{"num_deleted":"0","num_feature":"31","num_nodes":"13","size_leaf_vector":"1"}},{"base_weights":[-1.3092168E-1,6.114907E0,-8.485214E0,1.0662957E1,3.2591546E0,-1.2111422E1,-7.1608605E0,1.3914376E-1,1.5003495E-1,4.5198932E-2,3.0827252E-2,-1.479504E-1,-1.7638704E-1,-1.047074E-1,-8.264396E-2],"categories":[],"categories_nodes":[],"categories_segments":[],"categories_sizes":[],"default_left":[0,0,0,0,0,0,0,0,0,0,0,0,0,0,0],"id":4,"left_children":[1,3,5,7,9,11,13,-1,-1,-1,-1,-1,-1,-1,-1],"loss_changes":[1.914987E4,2.727502E3,7.539746E2,1.1910156E1,1.4378296E1,4.7358887E1,7.493994E1,0E0,0E0,0E0,0E0,0E0,0E0,0E0,0E0],"parents":[2147483647,0,0,1,1,2,2,3,3,4,4,5,5,6,6],"right_children":[2,4,6,8,10,12,14,-1,-1,-1,-1,-1,-1,-1,-1],"split_conditions":[7.6548076E3,2E0,1.0676838E4,5.2262947E1,1.5116E0,9.507E-1,1.4605512E4,1.3914376E-1,1.5003495E-1,4.5198932E-2,3.0827252E-2,-1.479504E-1,-1.7638704E-1,-1.047074E-1,-8.264396E-2],"split_indices":[13,15,13,12,6,2,13,0,0,0,0,0,0,0,0],"split_type":[0,0,0,0,0,0,0,0,0,0,0,0,0,0,0],"sum_hessian":[3.67E2,2.1E2,1.57E2,8.1E1,1.29E2,4.2E1,1.15E2,5.4E1,2.7E1,1.15E2,1.4E1,2.1E1,2.1E1,6.9E1,4.6E1],"tree_param":{"num_deleted":"0","num_feature":"31","num_nodes":"15","size_leaf_vector":"1"}},{"base_weights":[-1.1061995E-1,5.928391E0,-8.38485E0,3.0759242E0,6.8612733E0,-6.831993E0,-9.489102E0,4.89193E-2,3.673319E-2,9.930878E-2,7.891798E-2,-1.0632419E-1,-8.610888E-2,-1.1084511E-1,-1.38374E-1],"categories":[],"categories_nodes":[],"categories_segments":[],"categories_sizes":[],"default_left":[0,0,0,0,0,0,0,0,0,0,0,0,0,0,0],"id":5,"left_children":[1,3,5,7,9,11,13,-1,-1,-1,-1,-1,-1,-1,-1],"loss_changes":[1.8238377E4,5.614746E2,2.640713E2,9.987366E0,8.544336E1,2.8456543E1,9.210205E1,0E0,0E0,0E0,0E0,0E0,0E0,0E0,0E0],"parents":[2147483647,0,0,1,1,2,2,3,3,4,4,5,5,6,6],"right_children":[2,4,6,8,10,12,14,-1,-1,-1,-1,-1,-1,-1,-1],"split_conditions":[3.02E1,2.0440765E1,3.079E-1,7.739E-1,1.2794E0,1.2177E0,6.829E-1,4.89193E-2,3.673319E-2,9.930878E-2,7.891798E-2,-1.0632419E-1,-8.610888E-2,-1.1084511E-1,-1.38374E-1],"split_indices":[20,12,0,6,2,5,6,0,0,0,0,0,0,0,0],"split_type":[0,0,0,0,0,0,0,0,0,0,0,0,0,0,0],"sum_hessian":[3.65E2,2.11E2,1.54E2,5.2E1,1.59E2,6.4E1,9E1,1.9E1,3.3E1,1.01E2,5.8E1,1.7E1,4.7E1,3.7E1,5.3E1],"tree_param":{"num_deleted":"0","num_feature":"31","num_nodes":"15","size_leaf_vector":"1"}},{"base_weights":[-2.242053E-1,5.79775E0,-8.239916E0,1.0720726E1,3.1439583E0,-1.1979254E1,-6.854976E0,1.4746144E-1,1.3665943E-1,4.4394005E-2,1.4989363E-2,-1.3283545E-1,-1.8077211E-1,-8.784158E-2,-1.3517836E-1],"categories":[],"categories_nodes":[],"categories_segments":[],"categories_sizes":[],"default_left":[0,0,0,0,0,0,0,0,0,0,0,0,0,0,0],"id":6,"left_children":[1,3,5,7,9,11,13,-1,-1,-1,-1,-1,-1,-1,-1],"loss_changes":[1.6653238E4,2.5737173E3,7.6645605E2,1.0375E1,4.4458984E1,1.252876E2,1.0311133E2,0E0,0E0,0E0,0E0,0E0,0E0,0E0,0E0],"parents":[2147483647,0,0,1,1,2,2,3,3,4,4,5,5,6,6],"right_children":[2,4,6,8,10,12,14,-1,-1,-1,-1,-1,-1,-1,-1],"split_conditions":[1.5E1,2E0,3.083E2,2.988E-1,1.1252725E0,8.561625E-1,1.0745667E0,1.4746144E-1,1.3665943E-1,4.4394005E-2,1.4989363E-2,-1.3283545E-1,-1.8077211E-1,-8.784158E-2,-1.3517836E-1],"split_indices":[15,15,19,7,10,10,10,0,0,0,0,0,0,0,0],"split_type":[0,0,0,0,0,0,0,0,0,0,0,0,0,0,0],"sum_hessian":[3.45E2,1.97E2,1.48E2,6.9E1,1.28E2,4E1,1.08E2,4.4E1,2.5E1,1.18E2,1E1,1.7E1,2.3E1,9.9E1,9E0],"tree_param":{"num_deleted":"0","num_feature":"31","num_nodes":"15","size_leaf_vector":"1"}},{"base_weights":[1.871079E-1,6.130903E0,-8.101858E0,1.0400424E1,4.319835E-2,-1.1750997E1,-6.9183536E0,1.2865344E-1,1.4199063E-1,-1.1800705E-1,-1.685815E-1,-8.138856E-2,-1.053952E-1],"categories":[],"categories_nodes":[],"categories_segments":[],"categories_sizes":[],"default_left":[0,0,0,0,0,0,0,0,0,0,0,0,0],"id":7,"left_children":[1,3,5,7,-1,9,11,-1,-1,-1,-1,-1,-1],"loss_changes":[1.7342305E4,2.5423213E3,6.348594E2,1.3412109E1,0E0,8.876904E1,8.884863E1,0E0,0E0,0E0,0E0,0E0,0E0],"parents":[2147483647,0,0,1,1,2,2,3,3,5,5,6,6],"right_children":[2,4,6,8,-1,10,12,-1,-1,-1,-1,-1,-1],"split_conditions":[7.6548076E3,1E0,3.083E2,4.0222E0,4.319835E-2,2.743E-1,3.106E-1,1.2865344E-1,1.4199063E-1,-1.1800705E-1,-1.685815E-1,-8.138856E-2,-1.053952E-1],"split_indices":[13,28,19,16,0,0,0,0,0,0,0,0,0],"split_type":[0,0,0,0,0,0,0,0,0,0,0,0,0],"sum_hessian":[3.52E2,2.05E2,1.47E2,8.3E1,1.22E2,3.6E1,1.11E2,1.7E1,6.6E1,8E0,2.8E1,5.9E1,5.2E1],"tree_param":{"num_deleted":"0","num_feature":"31","num_nodes":"13","size_leaf_vector":"1"}},{"base_weights":[1.5016721E-1,6.0779467E0,-7.947257E0,3.1175163E0,1.4036927E-1,-6.700194E0,-9.313902E0,4.2993743E-2,2.7355926E-2,-8.610028E-2,-1.18220605E-1,-1.2071911E-1,-1.789959E-1],"categories":[],"categories_nodes":[],"categories_segments":[],"categories_sizes":[],"default_left":[0,0,0,0,0,0,0,0,0,0,0,0,0],"id":8,"left_children":[1,3,5,7,-1,9,11,-1,-1,-1,-1,-1,-1],"loss_changes":[1.7375908E4,2.725754E3,2.6075684E2,1.2548584E1,0E0,4.5964844E1,8.822754E1,0E0,0E0,0E0,0E0,0E0,0E0],"parents":[2147483647,0,0,1,1,2,2,3,3,5,5,6,6],"right_children":[2,4,6,8,-1,10,12,-1,-1,-1,-1,-1,-1],"split_conditions":[3.02E1,1E0,8.747825E-1,1.1120783E0,1.4036927E-1,9.63495E1,9.60606E1,4.2993743E-2,2.7355926E-2,-8.610028E-2,-1.18220605E-1,-1.2071911E-1,-1.789959E-1],"split_indices":[20,23,10,10,0,9,9,0,0,0,0,0,0],"split_type":[0,0,0,0,0,0,0,0,0,0,0,0,0],"sum_hessian":[3.62E2,2.09E2,1.53E2,1.25E2,8.4E1,8E1,7.3E1,1.15E2,1E1,7.1E1,9E0,6.8E1,5E0],"tree_param":{"num_deleted":"0","num_feature":"31","num_nodes":"13","size_leaf_vector":"1"}},{"base_weights":[2.9758066E-1,5.746516E0,-7.802189E0,3.0773706E0,1.006799E1,-1.1575378E1,-6.8024545E0,4.2538606E-2,-2.7980404E-3,1.285026E-1,1.3849561E-1,-1.1938596E-1,-1.7194615E-1,-8.521244E-2,-1.17920175E-1],"categories":[],"categories_nodes":[],"categories_segments":[],"categories_sizes":[],"default_left":[0,0,0,0,0,0,0,0,0,0,0,0,0,0,0],"id":9,"left_children":[1,3,5,7,9,11,13,-1,-1,-1,-1,-1,-1,-1,-1],"loss_changes":[1.6241725E4,2.5376216E3,5.582842E2,4.4509277E1,1.0894531E1,1.04382324E2,1.0281641E2,0E0,0E0,0E0,0E0,0E0,0E0,0E0,0E0],"parents":[2147483647,0,0,1,1,2,2,3,3,4,4,5,5,6,6],"right_children":[2,4,6,8,10,12,14,-1,-1,-1,-1,-1,-1,-1,-1],"split_conditions":[1.513E2,1E0,3.083E2,9.293057E-1,1.4578E0,2.743E-1,1.0436733E0,4.2538606E-2,-2.7980404E-3,1.285026E-1,1.3849561E-1,-1.1938596E-1,-1.7194615E-1,-8.521244E-2,-1.17920175E-1],"split_indices":[19,29,19,14,5,0,10,0,0,0,0,0,0,0,0],"split_type":[0,0,0,0,0,0,0,0,0,0,0,0,0,0,0],"sum_hessian":[3.68E2,2.2E2,1.48E2,1.36E2,8.4E1,3.1E1,1.17E2,1.32E2,4E0,3.1E1,5.3E1,1E1,2.1E1,9.6E1,2.1E1],"tree_param":{"num_deleted":"0","num_feature":"31","num_nodes":"15","size_leaf_vector":"1"}},{"base_weights":[-1.3206714E-1,5.6491537E0,-7.744606E0,2.9715679E0,1.0156987E1,-1.1367401E1,-6.7012415E0,4.1107856E-2,-2.7606003E-3,1.3853702E-1,1.2739953E-1,-1.1482711E-1,-1.6288629E-1,-8.441171E-2,-1.2350095E-1],"categories":[],"categories_nodes":[],"categories_segments":[],"categories_sizes":[],"default_left":[0,0,0,0,0,0,0,0,0,0,0,0,0,0,0],"id":10,"left_children":[1,3,5,7,9,11,13,-1,-1,-1,-1,-1,-1,-1,-1],"loss_changes":[1.6415645E4,2.5588638E3,6.085625E2,4.1644653E1,9.616211E0,8.015967E1,1.251792E2,0E0,0E0,0E0,0E0,0E0,0E0,0E0,0E0],"parents":[2147483647,0,0,1,1,2,2,3,3,4,4,5,5,6,6],"right_children":[2,4,6,8,10,12,14,-1,-1,-1,-1,-1,-1,-1,-1],"split_conditions":[1.513E2,1E0,3.083E2,9.293057E-1,9.59297E1,2.313E-1,1.0556983E0,4.1107856E-2,-2.7606003E-3,1.3853702E-1,1.2739953E-1,-1.1482711E-1,-1.6288629E-1,-8.441171E-2,-1.2350095E-1],"split_indices":[19,23,19,14,9,0,10,0,0,0,0,0,0,0,0],"split_type":[0,0,0,0,0,0,0,0,0,0,0,0,0,0,0],"sum_hessian":[3.73E2,2.12E2,1.61E2,1.33E2,7.9E1,3.6E1,1.25E2,1.29E2,4E0,6.1E1,1.8E1,8E0,2.8E1,1.08E2,1.7E1],"tree_param":{"num_deleted":"0","num_feature":"31","num_nodes":"15","size_leaf_vector":"1"}},{"base_weights":[3.8590446E-1,5.637762E0,-7.705847E0,2.9470499E0,9.856534E0,-1.1453994E1,-6.634948E0,4.0832046E-2,-2.72362E-3,1.223393E-1,1.3434857E-1,-1.05262995E-1,-1.6298653E-1,-1.067231E-1,-7.989873E-2],"categories":[],"categories_nodes":[],"categories_segments":[],"categories_sizes":[],"default_left":[0,0,0,0,0,0,0,0,0,0,0,0,0,0,0],"id":11,"left_children":[1,3,5,7,9,11,13,-1,-1,-1,-1,-1,-1,-1,-1],"loss_changes":[1.4576377E4,2.3611123E3,5.418745E2,4.0992676E1,1.0329102E1,7.74375E1,9.3646484E1,0E0,0E0,0E0,0E0,0E0,0E0,0E0,0E0],"parents":[2147483647,0,0,1,1,2,2,3,3,4,4,5,5,6,6],"right_children":[2,4,6,8,10,12,14,-1,-1,-1,-1,-1,-1,-1,-1],"split_conditions":[7.6548076E3,1E0,1.0580706E4,9.293057E-1,3.8802E0,6.32305E-1,1.3228867E4,4.0832046E-2,-2.72362E-3,1.223393E-1,1.3434857E-1,-1.05262995E-1,-1.6298653E-1,-1.067231E-1,-7.989873E-2],"split_indices":[13,23,13,14,16,10,13,0,0,0,0,0,0,0,0],"split_type":[0,0,0,0,0,0,0,0,0,0,0,0,0,0,0],"sum_hessian":[3.43E2,2.08E2,1.35E2,1.27E2,8.1E1,3E1,1.05E2,1.23E2,4E0,1.6E1,6.5E1,5E0,2.5E1,3.5E1,7E1],"tree_param":{"num_deleted":"0","num_feature":"31","num_nodes":"15","size_leaf_vector":"1"}},{"base_weights":[-3.4315428E-1,5.4770184E0,-7.481102E0,2.905671E0,9.774339E0,-1.1047307E1,-6.3995476E0,4.1351233E-2,1.6492995E-2,1.226759E-1,1.3597795E-1,-1.1666914E-1,-1.579656E-1,-8.0430344E-2,-1.1816353E-1],"categories":[],"categories_nodes":[],"categories_segments":[],"categories_sizes":[],"default_left":[0,0,0,0,0,0,0,0,0,0,0,0,0,0,0],"id":12,"left_children":[1,3,5,7,9,11,13,-1,-1,-1,-1,-1,-1,-1,-1],"loss_changes":[1.4706605E4,2.1547314E3,6.132705E2,3.7291626E1,1.7035156E1,6.4785645E1,1.1619336E2,0E0,0E0,0E0,0E0,0E0,0E0,0E0,0E0],"parents":[2147483647,0,0,1,1,2,2,3,3,4,4,5,5,6,6],"right_children":[2,4,6,8,10,12,14,-1,-1,-1,-1,-1,-1,-1,-1],"split_conditions":[7.6548076E3,1E0,3.083E2,1.1230466E0,1.4617E0,7.742892E-1,1.0556983E0,4.1351233E-2,1.6492995E-2,1.226759E-1,1.3597795E-1,-1.1666914E-1,-1.579656E-1,-8.0430344E-2,-1.1816353E-1],"split_indices":[13,23,19,10,5,10,10,0,0,0,0,0,0,0,0],"split_type":[0,0,0,0,0,0,0,0,0,0,0,0,0,0,0],"sum_hessian":[3.54E2,1.95E2,1.59E2,1.22E2,7.3E1,3.7E1,1.22E2,1.1E2,1.2E1,2.8E1,4.5E1,9E0,2.8E1,1.05E2,1.7E1],"tree_param":{"num_deleted":"0","num_feature":"31","num_nodes":"15","size_leaf_vector":"1"}},{"base_weights":[-2.6431328E-2,5.395019E0,-7.45723E0,9.537808E0,2.8821793E0,-1.097898E1,-6.4419513E0,1.2965642E-1,1.116402E-1,4.041592E-2,2.1868825E-2,-1.2187894E-1,-1.665486E-1,-8.128134E-2,-1.1579313E-1],"categories":[],"categories_nodes":[],"categories_segments":[],"categories_sizes":[],"default_left":[0,0,0,0,0,0,0,0,0,0,0,0,0,0,0],"id":13,"left_children":[1,3,5,7,9,11,13,-1,-1,-1,-1,-1,-1,-1,-1],"loss_changes":[1.36568545E4,2.0403926E3,5.113042E2,1.2917969E1,2.0759705E1,8.7645996E1,9.0973145E1,0E0,0E0,0E0,0E0,0E0,0E0,0E0,0E0],"parents":[2147483647,0,0,1,1,2,2,3,3,4,4,5,5,6,6],"right_children":[2,4,6,8,10,12,14,-1,-1,-1,-1,-1,-1,-1,-1],"split_conditions":[1.5E1,2E0,3.083E2,8.1691473E2,1.1120783E0,8.561625E-1,4.881E-1,1.2965642E-1,1.116402E-1,4.041592E-2,2.1868825E-2,-1.2187894E-1,-1.665486E-1,-8.128134E-2,-1.1579313E-1],"split_indices":[15,15,19,11,10,10,0,0,0,0,0,0,0,0,0],"split_type":[0,0,0,0,0,0,0,0,0,0,0,0,0,0,0],"sum_hessian":[3.39E2,1.96E2,1.43E2,7.4E1,1.22E2,3.2E1,1.11E2,6.6E1,8E0,1.1E2,1.2E1,1.4E1,1.8E1,9.5E1,1.6E1],"tree_param":{"num_deleted":"0","num_feature":"31","num_nodes":"15","size_leaf_vector":"1"}},{"base_weights":[-1.2975602E-1,5.573373E0,-7.478754E0,9.565996E0,3.883091E-2,-1.1116544E1,-6.361889E0,1.23968415E-1,1.3665107E-1,-1.1065569E-1,-1.6016369E-1,-7.9929374E-2,-1.173686E-1],"categories":[],"categories_nodes":[],"categories_segments":[],"categories_sizes":[],"default_left":[0,0,0,0,0,0,0,0,0,0,0,0,0],"id":14,"left_children":[1,3,5,7,-1,9,11,-1,-1,-1,-1,-1,-1],"loss_changes":[1.4292089E4,2.0493257E3,6.05376E2,1.5146973E1,0E0,8.4370605E1,1.0753516E2,0E0,0E0,0E0,0E0,0E0,0E0],"parents":[2147483647,0,0,1,1,2,2,3,3,5,5,6,6],"right_children":[2,4,6,8,-1,10,12,-1,-1,-1,-1,-1,-1],"split_conditions":[1.5E1,2E0,3.024E2,5.406413E1,3.883091E-2,7.742892E-1,1.0540276E0,1.23968415E-1,1.3665107E-1,-1.1065569E-1,-1.6016369E-1,-7.9929374E-2,-1.173686E-1],"split_indices":[15,15,19,12,0,10,10,0,0,0,0,0,0],"split_type":[0,0,0,0,0,0,0,0,0,0,0,0,0],"sum_hessian":[3.41E2,1.92E2,1.49E2,7.7E1,1.15E2,3.5E1,1.14E2,5.2E1,2.5E1,8E0,2.7E1,9.8E1,1.6E1],"tree_param":{"num_deleted":"0","num_feature":"31","num_nodes":"13","size_leaf_vector":"1"}},{"base_weights":[-3.7184522E-1,5.536003E0,-7.300803E0,2.932122E0,6.3918247E0,-6.3958855E0,-8.551719E0,4.2298224E-2,2.1900963E-2,6.0867205E-2,1.2398543E-1,-8.9764535E-2,-6.822117E-2,-1.4108965E-1,-1.08221665E-1],"categories":[],"categories_nodes":[],"categories_segments":[],"categories_sizes":[],"default_left":[0,0,0,0,0,0,0,0,0,0,0,0,0,0,0],"id":15,"left_children":[1,3,5,7,9,11,13,-1,-1,-1,-1,-1,-1,-1,-1],"loss_changes":[1.4409204E4,4.2340625E2,1.8337988E2,1.382486E1,7.570718E2,3.767383E1,6.335742E1,0E0,0E0,0E0,0E0,0E0,0E0,0E0,0E0],"parents":[2147483647,0,0,1,1,2,2,3,3,4,4,5,5,6,6],"right_children":[2,4,6,8,10,12,14,-1,-1,-1,-1,-1,-1,-1,-1],"split_conditions":[3.02E1,2.0235996E1,3.042571E-1,5.1937073E-1,5.92E1,2.9475E0,6.62E1,4.2298224E-2,2.1900963E-2,6.0867205E-2,1.2398543E-1,-8.9764535E-2,-6.822117E-2,-1.4108965E-1,-1.08221665E-1],"split_indices":[20,12,14,14,18,5,20,0,0,0,0,0,0,0,0],"split_type":[0,0,0,0,0,0,0,0,0,0,0,0,0,0,0],"sum_hessian":[3.52E2,1.9E2,1.62E2,4.7E1,1.43E2,9.4E1,6.8E1,4E1,7E0,8.7E1,5.6E1,7.6E1,1.8E1,1.3E1,5.5E1],"tree_param":{"num_deleted":"0","num_feature":"31","num_nodes":"15","size_leaf_vector":"1"}},{"base_weights":[5.795027E-2,5.1381955E0,-7.0470304E0,9.259757E0,2.7395818E0,-1.0806466E1,-6.0027423E0,1.003199E-1,1.2539856E-1,3.824148E-2,2.360894E-2,-1.1073512E-1,-1.5318587E-1,-8.950234E-2,-6.7597024E-2],"categories":[],"categories_nodes":[],"categories_segments":[],"categories_sizes":[],"default_left":[0,0,0,0,0,0,0,0,0,0,0,0,0,0,0],"id":16,"left_children":[1,3,5,7,9,11,13,-1,-1,-1,-1,-1,-1,-1,-1],"loss_changes":[1.1947459E4,1.9080039E3,5.417788E2,1.3241699E1,1.3870972E1,4.8246582E1,7.02561E1,0E0,0E0,0E0,0E0,0E0,0E0,0E0,0E0],"parents":[2147483647,0,0,1,1,2,2,3,3,4,4,5,5,6,6],"right_children":[2,4,6,8,10,12,14,-1,-1,-1,-1,-1,-1,-1,-1],"split_conditions":[7.6548076E3,2E0,3.029E2,2.2720432E1,5.619E-1,2.743E-1,1.4689668E4,1.003199E-1,1.2539856E-1,3.824148E-2,2.360894E-2,-1.1073512E-1,-1.5318587E-1,-8.950234E-2,-6.7597024E-2],"split_indices":[13,15,19,12,0,0,13,0,0,0,0,0,0,0,0],"split_type":[0,0,0,0,0,0,0,0,0,0,0,0,0,0,0],"sum_hessian":[3.31E2,1.93E2,1.38E2,7.1E1,1.22E2,3E1,1.08E2,4E0,6.7E1,1.09E2,1.3E1,6E0,2.4E1,6.3E1,4.5E1],"tree_param":{"num_deleted":"0","num_feature":"31","num_nodes":"15","size_leaf_vector":"1"}},{"base_weights":[1.4901696E-1,5.331251E0,-7.0914097E0,1.23246886E-1,2.7924302E0,-1.0835962E1,-6.1218376E0,3.8455676E-2,6.748779E-3,-1.5985838E-1,-1.2416972E-1,-7.725686E-2,-1.1496026E-1],"categories":[],"categories_nodes":[],"categories_segments":[],"categories_sizes":[],"default_left":[0,0,0,0,0,0,0,0,0,0,0,0,0],"id":17,"left_children":[1,3,5,-1,7,9,11,-1,-1,-1,-1,-1,-1],"loss_changes":[1.2682295E4,1.9372378E3,5.119165E2,0E0,2.1675781E1,4.997461E1,9.712988E1,0E0,0E0,0E0,0E0,0E0,0E0],"parents":[2147483647,0,0,1,1,2,2,4,4,5,5,6,6],"right_children":[2,4,6,-1,8,10,12,-1,-1,-1,-1,-1,-1],"split_conditions":[7.6548076E3,1E0,1.0676838E4,1.23246886E-1,8.725794E-1,8.272E2,1.0556983E0,3.8455676E-2,6.748779E-3,-1.5985838E-1,-1.2416972E-1,-7.725686E-2,-1.1496026E-1],"split_indices":[13,28,13,0,14,17,10,0,0,0,0,0,0],"split_type":[0,0,0,0,0,0,0,0,0,0,0,0,0],"sum_hessian":[3.38E2,1.97E2,1.41E2,7.8E1,1.19E2,2.9E1,1.12E2,1.15E2,4E0,1.7E1,1.2E1,9.8E1,1.4E1],"tree_param":{"num_deleted":"0","num_feature":"31","num_nodes":"13","size_leaf_vector":"1"}},{"base_weights":[-1.434552E-1,5.1028724E0,-6.8507853E0,9.028904E0,3.5943896E-2,-1.0241184E1,-5.8140516E0,1.1434289E-1,1.2463846E-1,-1.5439522E-1,-1.18898906E-1,-8.610194E-2,-6.529665E-2],"categories":[],"categories_nodes":[],"categories_segments":[],"categories_sizes":[],"default_left":[0,0,0,0,0,0,0,0,0,0,0,0,0],"id":18,"left_children":[1,3,5,7,-1,9,11,-1,-1,-1,-1,-1,-1],"loss_changes":[1.2667986E4,1.9179604E3,5.5536035E2,1.0534668E1,0E0,6.4960205E1,6.991699E1,0E0,0E0,0E0,0E0,0E0,0E0],"parents":[2147483647,0,0,1,1,2,2,3,3,5,5,6,6],"right_children":[2,4,6,8,-1,10,12,-1,-1,-1,-1,-1,-1],"split_conditions":[1.5E1,2E0,3.083E2,1.4578E0,3.5943896E-2,8.255E2,5.298E2,1.1434289E-1,1.2463846E-1,-1.5439522E-1,-1.18898906E-1,-8.610194E-2,-6.529665E-2],"split_indices":[15,15,19,5,0,17,19,0,0,0,0,0,0],"split_type":[0,0,0,0,0,0,0,0,0,0,0,0,0],"sum_hessian":[3.6E2,2.02E2,1.58E2,7.7E1,1.25E2,3.7E1,1.21E2,2.8E1,4.9E1,1.9E1,1.8E1,7.3E1,4.8E1],"tree_param":{"num_deleted":"0","num_feature":"31","num_nodes":"13","size_leaf_vector":"1"}},{"base_weights":[5.4308448E-2,5.2056375E0,-6.825891E0,1.197227E-1,2.7151425E0,-9.99544E0,-5.826484E0,4.0572062E-2,3.2348868E-2,-1.5256341E-1,-1.1159782E-1,-9.2302226E-2,-6.931855E-2],"categories":[],"categories_nodes":[],"categories_segments":[],"categories_sizes":[],"default_left":[0,0,0,0,0,0,0,0,0,0,0,0,0],"id":19,"left_children":[1,3,5,-1,7,9,11,-1,-1,-1,-1,-1,-1],"loss_changes":[1.208578E4,1.8142505E3,4.6247998E2,0E0,1.1024963E1,8.130176E1,7.692554E1,0E0,0E0,0E0,0E0,0E0,0E0],"parents":[2147483647,0,0,1,1,2,2,4,4,5,5,6,6],"right_children":[2,4,6,-1,8,10,12,-1,-1,-1,-1,-1,-1],"split_conditions":[1.5E1,2E0,3.083E2,1.197227E-1,8.285E-1,7.787266E2,4.745E2,4.0572062E-2,3.2348868E-2,-1.5256341E-1,-1.1159782E-1,-9.2302226E-2,-6.931855E-2],"split_indices":[15,15,19,0,6,11,19,0,0,0,0,0,0],"split_type":[0,0,0,0,0,0,0,0,0,0,0,0,0],"sum_hessian":[3.41E2,1.95E2,1.46E2,7.8E1,1.17E2,3.5E1,1.11E2,5.7E1,6E1,1.9E1,1.6E1,4.2E1,6.9E1],"tree_param":{"num_deleted":"0","num_feature":"31","num_nodes":"13","size_leaf_vector":"1"}},{"base_weights":[5.2576892E-2,4.974699E0,-6.838394E0,8.79775E0,2.6691945E0,-5.872842E0,-8.002736E0,1.1501076E-1,1.2502505E-1,1.0420339E-2,3.653727E-2,-7.624555E-2,-9.8023385E-2,-8.137134E-2,-1.13839045E-1],"categories":[],"categories_nodes":[],"categories_segments":[],"categories_sizes":[],"default_left":[0,0,0,0,0,0,0,0,0,0,0,0,0,0,0],"id":20,"left_children":[1,3,5,7,9,11,13,-1,-1,-1,-1,-1,-1,-1,-1],"loss_changes":[1.2210552E4,1.8509536E3,1.6863574E2,8.878906E0,1.4753479E1,2.1195312E1,6.536865E1,0E0,0E0,0E0,0E0,0E0,0E0,0E0,0E0],"parents":[2147483647,0,0,1,1,2,2,3,3,4,4,5,5,6,6],"right_children":[2,4,6,8,10,12,14,-1,-1,-1,-1,-1,-1,-1,-1],"split_conditions":[1.5E1,2E0,3.822E-1,4.345E-1,9.29377E1,7.048E-1,2.5E1,1.1501076E-1,1.2502505E-1,1.0420339E-2,3.653727E-2,-7.624555E-2,-9.8023385E-2,-8.137134E-2,-1.13839045E-1],"split_indices":[15,15,0,8,9,1,15,0,0,0,0,0,0,0,0],"split_type":[0,0,0,0,0,0,0,0,0,0,0,0,0,0,0],"sum_hessian":[3.6E2,2.1E2,1.5E2,7.9E1,1.31E2,8.2E1,6.8E1,5.7E1,2.2E1,4E0,1.27E2,7.3E1,9E0,1.4E1,5.4E1],"tree_param":{"num_deleted":"0","num_feature":"31","num_nodes":"15","size_leaf_vector":"1"}},{"base_weights":[-8.538031E-2,4.9221735E0,-6.5657444E0,8.694283E0,2.5723355E0,-9.824774E0,-5.6695113E0,1.1887811E-1,1.0639395E-1,3.581817E-2,-6.1279926E-3,-1.1239799E-1,-1.4957756E-1,-7.153312E-2,-9.919709E-2],"categories":[],"categories_nodes":[],"categories_segments":[],"categories_sizes":[],"default_left":[0,0,0,0,0,0,0,0,0,0,0,0,0,0,0],"id":21,"left_children":[1,3,5,7,9,11,13,-1,-1,-1,-1,-1,-1,-1,-1],"loss_changes":[1.1390221E4,1.7550415E3,4.4688965E2,1.0466309E1,3.7968445E1,6.3550537E1,6.826196E1,0E0,0E0,0E0,0E0,0E0,0E0,0E0,0E0],"parents":[2147483647,0,0,1,1,2,2,3,3,4,4,5,5,6,6],"right_children":[2,4,6,8,10,12,14,-1,-1,-1,-1,-1,-1,-1,-1],"split_conditions":[7.6548076E3,2E0,3.083E2,9.58568E1,8.7798107E-1,3.129462E-1,5.497896E-1,1.1887811E-1,1.0639395E-1,3.581817E-2,-6.1279926E-3,-1.1239799E-1,-1.4957756E-1,-7.153312E-2,-9.919709E-2],"split_indices":[13,15,19,9,14,14,14,0,0,0,0,0,0,0,0],"split_type":[0,0,0,0,0,0,0,0,0,0,0,0,0,0,0],"sum_hessian":[3.51E2,1.98E2,1.53E2,7.6E1,1.22E2,3.3E1,1.2E2,6.1E1,1.5E1,1.18E2,4E0,1.6E1,1.7E1,1.01E2,1.9E1],"tree_param":{"num_deleted":"0","num_feature":"31","num_nodes":"15","size_leaf_vector":"1"}},{"base_weights":[-1.7437357E-2,4.8626885E0,-6.6781497E0,1.1380316E-1,2.5751522E0,-9.895476E0,-5.526996E0,3.5502624E-2,3.8200559E-3,-1.5208024E-1,-1.1389448E-1,-8.872742E-2,-6.512826E-2],"categories":[],"categories_nodes":[],"categories_segments":[],"categories_sizes":[],"default_left":[0,0,0,0,0,0,0,0,0,0,0,0,0],"id":22,"left_children":[1,3,5,-1,7,9,11,-1,-1,-1,-1,-1,-1],"loss_changes":[1.137679E4,1.6804072E3,5.481382E2,0E0,2.1672852E1,7.924609E1,7.94541E1,0E0,0E0,0E0,0E0,0E0,0E0],"parents":[2147483647,0,0,1,1,2,2,4,4,5,5,6,6],"right_children":[2,4,6,-1,8,10,12,-1,-1,-1,-1,-1,-1],"split_conditions":[1.5E1,2E0,3.029E2,1.1380316E-1,8.725794E-1,8.272E2,4.661E2,3.5502624E-2,3.8200559E-3,-1.5208024E-1,-1.1389448E-1,-8.872742E-2,-6.512826E-2],"split_indices":[15,15,19,0,14,17,19,0,0,0,0,0,0],"split_type":[0,0,0,0,0,0,0,0,0,0,0,0,0],"sum_hessian":[3.5E2,2.02E2,1.48E2,7.8E1,1.24E2,3.9E1,1.09E2,1.2E2,4E0,1.9E1,2E1,4.1E1,6.8E1],"tree_param":{"num_deleted":"0","num_feature":"31","num_nodes":"13","size_leaf_vector":"1"}},{"base_weights":[-1.4997227E-1,4.675884E0,-6.5948253E0,8.301548E0,2.4836216E0,-9.89132E0,-5.5611787E0,1.12614386E-1,9.364934E-2,3.4514304E-2,-6.0970904E-3,-1.1441536E-1,-1.4776492E-1,-7.056497E-2,-1.0341727E-1],"categories":[],"categories_nodes":[],"categories_segments":[],"categories_sizes":[],"default_left":[0,0,0,0,0,0,0,0,0,0,0,0,0,0,0],"id":23,"left_children":[1,3,5,7,9,11,13,-1,-1,-1,-1,-1,-1,-1,-1],"loss_changes":[1.12589E4,1.6453208E3,5.2814844E2,1.1110352E1,3.5655945E1,5.7005127E1,7.427905E1,0E0,0E0,0E0,0E0,0E0,0E0,0E0,0E0],"parents":[2147483647,0,0,1,1,2,2,3,3,4,4,5,5,6,6],"right_children":[2,4,6,8,10,12,14,-1,-1,-1,-1,-1,-1,-1,-1],"split_conditions":[7.6548076E3,2E0,3.083E2,5.639E-1,9.293057E-1,9.1254586E-1,1.0556983E0,1.12614386E-1,9.364934E-2,3.4514304E-2,-6.0970904E-3,-1.1441536E-1,-1.4776492E-1,-7.056497E-2,-1.0341727E-1],"split_indices":[13,15,19,0,14,10,10,0,0,0,0,0,0,0,0],"split_type":[0,0,0,0,0,0,0,0,0,0,0,0,0,0,0],"sum_hessian":[3.62E2,2.07E2,1.55E2,7.8E1,1.29E2,3.7E1,1.18E2,7.2E1,6E0,1.25E2,4E0,1.7E1,2E1,1.04E2,1.4E1],"tree_param":{"num_deleted":"0","num_feature":"31","num_nodes":"15","size_leaf_vector":"1"}},{"base_weights":[1.0252372E-1,4.7630706E0,-6.4843826E0,8.31989E0,2.4745746E0,-8.705696E0,-5.0839896E0,1.13253035E-1,9.403938E-2,3.466154E-2,1.8239416E-2,-8.606674E-2,-1.3142605E-1,-8.4059745E-2,-6.1432738E-2],"categories":[],"categories_nodes":[],"categories_segments":[],"categories_sizes":[],"default_left":[0,0,0,0,0,0,0,0,0,0,0,0,0,0,0],"id":24,"left_children":[1,3,5,7,9,11,13,-1,-1,-1,-1,-1,-1,-1,-1],"loss_changes":[1.111289E4,1.7256309E3,4.6660645E2,1.4884766E1,1.6371643E1,1.4661572E2,5.447534E1,0E0,0E0,0E0,0E0,0E0,0E0,0E0,0E0],"parents":[2147483647,0,0,1,1,2,2,3,3,4,4,5,5,6,6],"right_children":[2,4,6,8,10,12,14,-1,-1,-1,-1,-1,-1,-1,-1],"split_conditions":[7.6548076E3,1E0,1.1777025E4,8.1691473E2,5.619E-1,2.743E-1,7.45473E2,1.13253035E-1,9.403938E-2,3.466154E-2,1.8239416E-2,-8.606674E-2,-1.3142605E-1,-8.4059745E-2,-6.1432738E-2],"split_indices":[13,28,13,11,0,0,11,0,0,0,0,0,0,0,0],"split_type":[0,0,0,0,0,0,0,0,0,0,0,0,0,0,0],"sum_hessian":[3.62E2,2.12E2,1.5E2,8.3E1,1.29E2,5.8E1,9.2E1,7.5E1,8E0,1.17E2,1.2E1,1.9E1,3.9E1,2.7E1,6.5E1],"tree_param":{"num_deleted":"0","num_feature":"31","num_nodes":"15","size_leaf_vector":"1"}},{"base_weights":[-1.0446318E-1,4.7437153E0,-6.3464932E0,8.116749E0,2.4676037E0,-5.096456E0,-7.4221063E0,8.983196E-2,1.0988938E-1,3.4361575E-2,-6.259671E-3,-7.81207E-2,-6.071219E-2,-1.3490833E-1,-9.573611E-2],"categories":[],"categories_nodes":[],"categories_segments":[],"categories_sizes":[],"default_left":[0,0,0,0,0,0,0,0,0,0,0,0,0,0,0],"id":25,"left_children":[1,3,5,7,9,11,13,-1,-1,-1,-1,-1,-1,-1,-1],"loss_changes":[1.1076066E4,1.5815444E3,2.151289E2,1.0543945E1,3.5617554E1,3.0700684E1,6.2101074E1,0E0,0E0,0E0,0E0,0E0,0E0,0E0,0E0],"parents":[2147483647,0,0,1,1,2,2,3,3,4,4,5,5,6,6],"right_children":[2,4,6,8,10,12,14,-1,-1,-1,-1,-1,-1,-1,-1],"split_conditions":[1.5E1,2E0,3.106E-1,1.118E-1,9.293057E-1,1.5224E0,5.9E-3,8.983196E-2,1.0988938E-1,3.4361575E-2,-6.259671E-3,-7.81207E-2,-6.071219E-2,-1.3490833E-1,-9.573611E-2],"split_indices":[15,15,0,0,14,5,4,0,0,0,0,0,0,0,0],"split_type":[0,0,0,0,0,0,0,0,0,0,0,0,0,0,0],"sum_hessian":[3.66E2,2.06E2,1.6E2,8.3E1,1.23E2,7.4E1,8.6E1,5E0,7.8E1,1.19E2,4E0,3.2E1,4.2E1,8E0,7.8E1],"tree_param":{"num_deleted":"0","num_feature":"31","num_nodes":"15","size_leaf_vector":"1"}},{"base_weights":[1.6965793E-2,4.642784E0,-6.319772E0,8.042248E0,2.3764749E0,-9.496284E0,-5.318169E0,1.0072764E-1,1.11638896E-1,3.356904E-2,3.5917894E-3,-9.397316E-2,-1.369837E-1,-6.6583335E-2,-1.03257254E-1],"categories":[],"categories_nodes":[],"categories_segments":[],"categories_sizes":[],"default_left":[0,0,0,0,0,0,0,0,0,0,0,0,0,0,0],"id":26,"left_children":[1,3,5,7,9,11,13,-1,-1,-1,-1,-1,-1,-1,-1],"loss_changes":[1.0142158E4,1.5408477E3,4.6451416E2,1.2276367E1,3.303961E1,6.3678223E1,9.178003E1,0E0,0E0,0E0,0E0,0E0,0E0,0E0,0E0],"parents":[2147483647,0,0,1,1,2,2,3,3,4,4,5,5,6,6],"right_children":[2,4,6,8,10,12,14,-1,-1,-1,-1,-1,-1,-1,-1],"split_conditions":[1.5E1,2E0,3.083E2,1.4578E0,1.154185E0,2.313E-1,1.0556983E0,1.0072764E-1,1.11638896E-1,3.356904E-2,3.5917894E-3,-9.397316E-2,-1.369837E-1,-6.6583335E-2,-1.03257254E-1],"split_indices":[15,15,19,5,10,0,10,0,0,0,0,0,0,0,0],"split_type":[0,0,0,0,0,0,0,0,0,0,0,0,0,0,0],"sum_hessian":[3.46E2,2E2,1.46E2,8E1,1.2E2,3.5E1,1.11E2,2.9E1,5.1E1,1.13E2,7E0,8E0,2.7E1,9.7E1,1.4E1],"tree_param":{"num_deleted":"0","num_feature":"31","num_nodes":"15","size_leaf_vector":"1"}},{"base_weights":[-9.178685E-2,4.59978E0,-6.256987E0,1.0937637E-1,2.4078612E0,-9.391334E0,-5.212205E0,3.3412497E-2,-3.7945681E-3,-1.4107426E-1,-1.07866175E-1,-8.265393E-2,-6.1455693E-2],"categories":[],"categories_nodes":[],"categories_segments":[],"categories_sizes":[],"default_left":[0,0,0,0,0,0,0,0,0,0,0,0,0],"id":27,"left_children":[1,3,5,-1,7,9,11,-1,-1,-1,-1,-1,-1],"loss_changes":[1.0441727E4,1.6036587E3,5.10854E2,0E0,2.9913574E1,5.9617188E1,6.996582E1,0E0,0E0,0E0,0E0,0E0,0E0],"parents":[2147483647,0,0,1,1,2,2,4,4,5,5,6,6],"right_children":[2,4,6,-1,8,10,12,-1,-1,-1,-1,-1,-1],"split_conditions":[1.513E2,1E0,3.083E2,1.0937637E-1,8.8165545E-1,8.272E2,4.661E2,3.3412497E-2,-3.7945681E-3,-1.4107426E-1,-1.07866175E-1,-8.265393E-2,-6.1455693E-2],"split_indices":[19,28,19,0,14,17,19,0,0,0,0,0,0],"split_type":[0,0,0,0,0,0,0,0,0,0,0,0,0],"sum_hessian":[3.61E2,2.05E2,1.56E2,7.8E1,1.27E2,3.9E1,1.17E2,1.23E2,4E0,2.1E1,1.8E1,4.6E1,7.1E1],"tree_param":{"num_deleted":"0","num_feature":"31","num_nodes":"13","size_leaf_vector":"1"}},{"base_weights":[7.081357E-2,4.509922E0,-6.156269E0,7.90108E0,2.2862117E0,-9.488349E0,-5.086335E0,9.876755E-2,1.08986914E-1,3.1858712E-2,-6.173145E-3,-1.182652E-1,-1.5241463E-1,-7.825197E-2,-6.069554E-2],"categories":[],"categories_nodes":[],"categories_segments":[],"categories_sizes":[],"default_left":[0,0,0,0,0,0,0,0,0,0,0,0,0,0,0],"id":28,"left_children":[1,3,5,7,9,11,13,-1,-1,-1,-1,-1,-1,-1,-1],"loss_changes":[9.564372E3,1.5232725E3,5.133755E2,1.0012207E1,3.121283E1,4.3488037E1,4.5708984E1,0E0,0E0,0E0,0E0,0E0,0E0,0E0,0E0],"parents":[2147483647,0,0,1,1,2,2,3,3,4,4,5,5,6,6],"right_children":[2,4,6,8,10,12,14,-1,-1,-1,-1,-1,-1,-1,-1],"split_conditions":[1.5E1,2E0,3.029E2,1.4578E0,9.293057E-1,4.892E-1,4.661E2,9.876755E-2,1.08986914E-1,3.1858712E-2,-6.173145E-3,-1.182652E-1,-1.5241463E-1,-7.825197E-2,-6.069554E-2],"split_indices":[15,15,19,5,14,0,19,0,0,0,0,0,0,0,0],"split_type":[0,0,0,0,0,0,0,0,0,0,0,0,0,0,0],"sum_hessian":[3.46E2,2.02E2,1.44E2,8E1,1.22E2,3.5E1,1.09E2,2.5E1,5.5E1,1.18E2,4E0,2.6E1,9E0,4.6E1,6.3E1],"tree_param":{"num_deleted":"0","num_feature":"31","num_nodes":"15","size_leaf_vector":"1"}},{"base_weights":[-1.1935208E-2,4.5291924E0,-6.066772E0,7.794948E0,2.3607304E0,-9.166034E0,-5.103136E0,1.0561777E-1,8.494276E-2,3.285584E-2,-6.0905013E-3,-1.4093874E-1,-1.0130959E-1,-7.669727E-2,-5.5511132E-2],"categories":[],"categories_nodes":[],"categories_segments":[],"categories_sizes":[],"default_left":[0,0,0,0,0,0,0,0,0,0,0,0,0,0,0],"id":29,"left_children":[1,3,5,7,9,11,13,-1,-1,-1,-1,-1,-1,-1,-1],"loss_changes":[1.0008466E4,1.4729863E3,4.6590283E2,1.1203125E1,3.2758545E1,8.04939E1,7.119409E1,0E0,0E0,0E0,0E0,0E0,0E0,0E0,0E0],"parents":[2147483647,0,0,1,1,2,2,3,3,4,4,5,5,6,6],"right_children":[2,4,6,8,10,12,14,-1,-1,-1,-1,-1,-1,-1,-1],"split_conditions":[7.6548076E3,2E0,1.0443051E4,7.584E-1,9.293057E-1,8.272E2,1.4605512E4,1.0561777E-1,8.494276E-2,3.285584E-2,-6.0905013E-3,-1.4093874E-1,-1.0130959E-1,-7.669727E-2,-5.5511132E-2],"split_indices":[13,15,13,1,14,17,13,0,0,0,0,0,0,0,0],"split_type":[0,0,0,0,0,0,0,0,0,0,0,0,0,0,0],"sum_hessian":[3.64E2,2.08E2,1.56E2,8.3E1,1.25E2,3.7E1,1.19E2,7.8E1,5E0,1.21E2,4E0,2E1,1.7E1,7.2E1,4.7E1],"tree_param":{"num_deleted":"0","num_feature":"31","num_nodes":"15","size_leaf_vector":"1"}},{"base_weights":[-1.3799882E-1,4.482304E0,-5.9133773E0,7.6477847E0,2.2825632E0,-9.090639E0,-4.9909463E0,9.316413E-2,1.0499991E-1,3.2294594E-2,3.103442E-3,-9.2066966E-2,-1.301939E-1,-7.399285E-2,-5.508838E-2],"categories":[],"categories_nodes":[],"categories_segments":[],"categories_sizes":[],"default_left":[0,0,0,0,0,0,0,0,0,0,0,0,0,0,0],"id":30,"left_children":[1,3,5,7,9,11,13,-1,-1,-1,-1,-1,-1,-1,-1],"loss_changes":[9.606239E3,1.3926472E3,4.689287E2,1.0977051E1,3.129663E1,5.045044E1,5.8177002E1,0E0,0E0,0E0,0E0,0E0,0E0,0E0,0E0],"parents":[2147483647,0,0,1,1,2,2,3,3,4,4,5,5,6,6],"right_children":[2,4,6,8,10,12,14,-1,-1,-1,-1,-1,-1,-1,-1],"split_conditions":[7.6548076E3,2E0,3.029E2,4.0222E0,1.154185E0,7.742892E-1,1.4689668E4,9.316413E-2,1.0499991E-1,3.2294594E-2,3.103442E-3,-9.2066966E-2,-1.301939E-1,-7.399285E-2,-5.508838E-2],"split_indices":[13,15,19,16,10,10,13,0,0,0,0,0,0,0,0],"split_type":[0,0,0,0,0,0,0,0,0,0,0,0,0,0,0],"sum_hessian":[3.6E2,2E2,1.6E2,8.2E1,1.18E2,3.6E1,1.24E2,1.8E1,6.4E1,1.11E2,7E0,8E0,2.8E1,7.7E1,4.7E1],"tree_param":{"num_deleted":"0","num_feature":"31","num_nodes":"15","size_leaf_vector":"1"}},{"base_weights":[1.520114E-1,4.3806257E0,-5.867891E0,2.3012686E0,7.43703E0,-8.797529E0,-5.030851E0,3.208156E-2,1.4890609E-2,7.239451E-2,1.0095633E-1,-8.072904E-2,-1.281755E-1,-6.302519E-2,-1.0349982E-1],"categories":[],"categories_nodes":[],"categories_segments":[],"categories_sizes":[],"default_left":[0,0,0,0,0,0,0,0,0,0,0,0,0,0,0],"id":31,"left_children":[1,3,5,7,9,11,13,-1,-1,-1,-1,-1,-1,-1,-1],"loss_changes":[8.88409E3,1.3028484E3,3.5312012E2,1.3740906E1,1.7323242E1,6.866748E1,9.790039E1,0E0,0E0,0E0,0E0,0E0,0E0,0E0,0E0],"parents":[2147483647,0,0,1,1,2,2,3,3,4,4,5,5,6,6],"right_children":[2,4,6,8,10,12,14,-1,-1,-1,-1,-1,-1,-1,-1],"split_conditions":[7.6548076E3,1E0,1.0580706E4,1.1252725E0,1.118E-1,7.063367E-1,1.0540276E0,3.208156E-2,1.4890609E-2,7.239451E-2,1.0095633E-1,-8.072904E-2,-1.281755E-1,-6.302519E-2,-1.0349982E-1],"split_indices":[13,23,13,10,0,10,10,0,0,0,0,0,0,0,0],"split_type":[0,0,0,0,0,0,0,0,0,0,0,0,0,0,0],"sum_hessian":[3.49E2,2.05E2,1.44E2,1.22E2,8.3E1,3.2E1,1.12E2,1.13E2,9E0,4E0,7.9E1,7E0,2.5E1,1E2,1.2E1],"tree_param":{"num_deleted":"0","num_feature":"31","num_nodes":"15","size_leaf_vector":"1"}},{"base_weights":[-1.00949235E-1,4.2412534E0,-5.794698E0,5.541708E0,2.2405536E0,-8.612401E0,-5.006696E0,9.040313E-2,3.148991E-2,6.9769435E-3,3.1244932E-2,-1.2204366E-1,-7.7652715E-2,-7.537306E-2,-5.3992685E-2],"categories":[],"categories_nodes":[],"categories_segments":[],"categories_sizes":[],"default_left":[0,0,0,0,0,0,0,0,0,0,0,0,0,0,0],"id":32,"left_children":[1,3,5,7,9,11,13,-1,-1,-1,-1,-1,-1,-1,-1],"loss_changes":[8.62847E3,5.151599E2,3.3527344E2,4.6316284E2,1.246579E1,4.662964E1,7.156421E1,0E0,0E0,0E0,0E0,0E0,0E0,0E0,0E0],"parents":[2147483647,0,0,1,1,2,2,3,3,4,4,5,5,6,6],"right_children":[2,4,6,8,10,12,14,-1,-1,-1,-1,-1,-1,-1,-1],"split_conditions":[7.6548076E3,1E0,1.0580706E4,1.245E2,9.30064E1,7.904937E2,1.4689668E4,9.040313E-2,3.148991E-2,6.9769435E-3,3.1244932E-2,-1.2204366E-1,-7.7652715E-2,-7.537306E-2,-5.3992685E-2],"split_indices":[13,22,13,18,9,11,13,0,0,0,0,0,0,0,0],"split_type":[0,0,0,0,0,0,0,0,0,0,0,0,0,0,0],"sum_hessian":[3.49E2,1.98E2,1.51E2,1.2E2,7.8E1,3.3E1,1.18E2,8.7E1,3.3E1,4E0,7.4E1,2.8E1,5E0,7.2E1,4.6E1],"tree_param":{"num_deleted":"0","num_feature":"31","num_nodes":"15","size_leaf_vector":"1"}},{"base_weights":[-6.0988534E-2,4.376805E0,-5.5941863E0,2.2648113E0,7.3387465E0,-4.533188E0,-6.4167585E0,1.2013864E-2,3.1879958E-2,9.971203E-2,7.9920575E-2,-4.6328582E-2,-6.468974E-2,-1.2672287E-1,-8.243541E-2],"categories":[],"categories_nodes":[],"categories_segments":[],"categories_sizes":[],"default_left":[0,0,0,0,0,0,0,0,0,0,0,0,0,0,0],"id":33,"left_children":[1,3,5,7,9,11,13,-1,-1,-1,-1,-1,-1,-1,-1],"loss_changes":[8.717092E3,1.2323533E3,1.3789404E2,1.8261292E1,1.2149902E1,2.2074585E1,7.0556885E1,0E0,0E0,0E0,0E0,0E0,0E0,0E0,0E0],"parents":[2147483647,0,0,1,1,2,2,3,3,4,4,5,5,6,6],"right_children":[2,4,6,8,10,12,14,-1,-1,-1,-1,-1,-1,-1,-1],"split_conditions":[3.02E1,1E0,3.079E-1,9.32308E1,5.639E-1,8.6E-3,5.9E-3,1.2013864E-2,3.1879958E-2,9.971203E-2,7.9920575E-2,-4.6328582E-2,-6.468974E-2,-1.2672287E-1,-8.243541E-2],"split_indices":[20,23,0,9,0,4,4,0,0,0,0,0,0,0,0],"split_type":[0,0,0,0,0,0,0,0,0,0,0,0,0,0,0],"sum_hessian":[3.55E2,1.97E2,1.58E2,1.15E2,8.2E1,6.9E1,8.9E1,9E0,1.06E2,7.6E1,6E0,1.5E1,5.4E1,7E0,8.2E1],"tree_param":{"num_deleted":"0","num_feature":"31","num_nodes":"15","size_leaf_vector":"1"}},{"base_weights":[-6.3569926E-2,3.9777331E0,-5.592297E0,1.0036396E-1,2.1646838E0,-8.802136E0,-4.6752E0,3.0071685E-2,-5.260462E-3,-1.3340047E-1,-1.0576988E-1,-7.226902E-2,-5.5860452E-2],"categories":[],"categories_nodes":[],"categories_segments":[],"categories_sizes":[],"default_left":[0,0,0,0,0,0,0,0,0,0,0,0,0],"id":34,"left_children":[1,3,5,-1,7,9,11,-1,-1,-1,-1,-1,-1],"loss_changes":[7.6190527E3,1.2564758E3,4.2389746E2,0E0,2.6994934E1,3.353418E1,4.0708008E1,0E0,0E0,0E0,0E0,0E0,0E0],"parents":[2147483647,0,0,1,1,2,2,4,4,5,5,6,6],"right_children":[2,4,6,-1,8,10,12,-1,-1,-1,-1,-1,-1],"split_conditions":[1.5E1,2E0,3.083E2,1.0036396E-1,8.8165545E-1,2.202E2,4.745E2,3.0071685E-2,-5.260462E-3,-1.3340047E-1,-1.0576988E-1,-7.226902E-2,-5.5860452E-2],"split_indices":[15,15,19,0,14,19,19,0,0,0,0,0,0],"split_type":[0,0,0,0,0,0,0,0,0,0,0,0,0],"sum_hessian":[3.41E2,1.97E2,1.44E2,6.7E1,1.3E2,3.2E1,1.12E2,1.26E2,4E0,1.4E1,1.8E1,4.6E1,6.6E1],"tree_param":{"num_deleted":"0","num_feature":"31","num_nodes":"13","size_leaf_vector":"1"}},{"base_weights":[-5.0882738E-2,4.1283755E0,-5.4892764E0,2.1931274E0,7.16598E0,-8.339337E0,-4.7246256E0,3.0742882E-2,1.5214841E-2,7.6069385E-2,9.701089E-2,-7.5177826E-2,-1.233363E-1,-5.9910007E-2,-9.42626E-2],"categories":[],"categories_nodes":[],"categories_segments":[],"categories_sizes":[],"default_left":[0,0,0,0,0,0,0,0,0,0,0,0,0,0,0],"id":35,"left_children":[1,3,5,7,9,11,13,-1,-1,-1,-1,-1,-1,-1,-1],"loss_changes":[8.1595127E3,1.1933391E3,3.399712E2,1.3481506E1,9.288574E0,7.840015E1,7.128076E1,0E0,0E0,0E0,0E0,0E0,0E0,0E0,0E0],"parents":[2147483647,0,0,1,1,2,2,3,3,4,4,5,5,6,6],"right_children":[2,4,6,8,10,12,14,-1,-1,-1,-1,-1,-1,-1,-1],"split_conditions":[7.6548076E3,1E0,1.0580706E4,1.1252725E0,1.118E-1,7.063367E-1,1.0745667E0,3.0742882E-2,1.5214841E-2,7.6069385E-2,9.701089E-2,-7.5177826E-2,-1.233363E-1,-5.9910007E-2,-9.42626E-2],"split_indices":[13,29,13,10,0,10,10,0,0,0,0,0,0,0,0],"split_type":[0,0,0,0,0,0,0,0,0,0,0,0,0,0,0],"sum_hessian":[3.59E2,2.03E2,1.56E2,1.24E2,7.9E1,3.3E1,1.23E2,1.13E2,1.1E1,4E0,7.5E1,8E0,2.5E1,1.11E2,1.2E1],"tree_param":{"num_deleted":"0","num_feature":"31","num_nodes":"15","size_leaf_vector":"1"}},{"base_weights":[-1.0487117E-1,4.029575E0,-5.5535784E0,2.139288E0,7.0888553E0,-7.727028E0,-4.3436165E0,2.9669536E-2,4.453563E-3,8.983403E-2,1.0087327E-1,-7.3684715E-2,-1.1600102E-1,-5.451992E-2,-8.394287E-2],"categories":[],"categories_nodes":[],"categories_segments":[],"categories_sizes":[],"default_left":[0,0,0,0,0,0,0,0,0,0,0,0,0,0,0],"id":36,"left_children":[1,3,5,7,9,11,13,-1,-1,-1,-1,-1,-1,-1,-1],"loss_changes":[7.8845854E3,1.150801E3,3.9709814E2,1.7011963E1,1.2833984E1,1.1245581E2,5.0775757E1,0E0,0E0,0E0,0E0,0E0,0E0,0E0,0E0],"parents":[2147483647,0,0,1,1,2,2,3,3,4,4,5,5,6,6],"right_children":[2,4,6,8,10,12,14,-1,-1,-1,-1,-1,-1,-1,-1],"split_conditions":[1.513E2,1E0,3.693E2,1.154185E0,2.117E0,2.393E-1,1.0556983E0,2.9669536E-2,4.453563E-3,8.983403E-2,1.0087327E-1,-7.3684715E-2,-1.1600102E-1,-5.451992E-2,-8.394287E-2],"split_indices":[19,23,19,10,5,0,10,0,0,0,0,0,0,0,0],"split_type":[0,0,0,0,0,0,0,0,0,0,0,0,0,0,0],"sum_hessian":[3.5E2,1.99E2,1.51E2,1.23E2,7.6E1,5.4E1,9.7E1,1.18E2,5E0,4.1E1,3.5E1,1.6E1,3.8E1,8.5E1,1.2E1],"tree_param":{"num_deleted":"0","num_feature":"31","num_nodes":"15","size_leaf_vector":"1"}},{"base_weights":[-5.5862054E-2,4.095152E0,-5.331667E0,2.102595E0,6.9486904E0,-7.9525585E0,-4.595218E0,2.905625E-2,2.8675445E-3,9.4817564E-2,7.6831065E-2,-7.9247534E-2,-1.1783061E-1,-5.6567658E-2,-8.515303E-2],"categories":[],"categories_nodes":[],"categories_segments":[],"categories_sizes":[],"default_left":[0,0,0,0,0,0,0,0,0,0,0,0,0,0,0],"id":37,"left_children":[1,3,5,7,9,11,13,-1,-1,-1,-1,-1,-1,-1,-1],"loss_changes":[7.7087793E3,1.1201101E3,2.9917334E2,1.4774231E1,1.30095215E1,5.861133E1,7.910034E1,0E0,0E0,0E0,0E0,0E0,0E0,0E0,0E0],"parents":[2147483647,0,0,1,1,2,2,3,3,4,4,5,5,6,6],"right_children":[2,4,6,8,10,12,14,-1,-1,-1,-1,-1,-1,-1,-1],"split_conditions":[1.513E2,1E0,3.083E2,8.725794E-1,1.09E2,2.743E-1,1.0412009E0,2.905625E-2,2.8675445E-3,9.4817564E-2,7.6831065E-2,-7.9247534E-2,-1.1783061E-1,-5.6567658E-2,-8.515303E-2],"split_indices":[19,23,19,14,18,0,10,0,0,0,0,0,0,0,0],"split_type":[0,0,0,0,0,0,0,0,0,0,0,0,0,0,0],"sum_hessian":[3.52E2,1.97E2,1.55E2,1.16E2,8.1E1,3.4E1,1.21E2,1.12E2,4E0,7.3E1,8E0,1E1,2.4E1,1E2,2.1E1],"tree_param":{"num_deleted":"0","num_feature":"31","num_nodes":"15","size_leaf_vector":"1"}},{"base_weights":[-4.242806E-2,3.9312747E0,-5.410874E0,2.1083179E0,6.756858E0,-7.3703623E0,-4.381648E0,2.8971117E-2,5.9907464E-3,8.658417E-2,9.6953124E-2,-7.2245814E-2,-1.1268557E-1,-7.4569955E-2,-5.3857002E-2],"categories":[],"categories_nodes":[],"categories_segments":[],"categories_sizes":[],"default_left":[0,0,0,0,0,0,0,0,0,0,0,0,0,0,0],"id":38,"left_children":[1,3,5,7,9,11,13,-1,-1,-1,-1,-1,-1,-1,-1],"loss_changes":[7.573076E3,1.0507871E3,3.045298E2,1.1402222E1,1.1244141E1,1.0735474E2,4.225183E1,0E0,0E0,0E0,0E0,0E0,0E0,0E0,0E0],"parents":[2147483647,0,0,1,1,2,2,3,3,4,4,5,5,6,6],"right_children":[2,4,6,8,10,12,14,-1,-1,-1,-1,-1,-1,-1,-1],"split_conditions":[1.513E2,1E0,3.693E2,8.725794E-1,5.2262947E1,2.743E-1,7.421846E2,2.8971117E-2,5.9907464E-3,8.658417E-2,9.6953124E-2,-7.2245814E-2,-1.1268557E-1,-7.4569955E-2,-5.3857002E-2],"split_indices":[19,29,19,14,12,0,11,0,0,0,0,0,0,0,0],"split_type":[0,0,0,0,0,0,0,0,0,0,0,0,0,0,0],"sum_hessian":[3.55E2,2.04E2,1.51E2,1.24E2,8E1,5.2E1,9.9E1,1.2E2,4E0,5E1,3E1,1.8E1,3.4E1,2.3E1,7.6E1],"tree_param":{"num_deleted":"0","num_feature":"31","num_nodes":"15","size_leaf_vector":"1"}},{"base_weights":[5.225436E-3,3.9268818E0,-5.170294E0,6.8119826E0,2.0281403E0,-7.234749E0,-4.073552E0,9.355483E-2,8.227338E-2,2.8309638E-2,1.144148E-2,-7.0178166E-2,-1.0907397E-1,-4.345464E-2,-5.844841E-2],"categories":[],"categories_nodes":[],"categories_segments":[],"categories_sizes":[],"default_left":[0,0,0,0,0,0,0,0,0,0,0,0,0,0,0],"id":39,"left_children":[1,3,5,7,9,11,13,-1,-1,-1,-1,-1,-1,-1,-1],"loss_changes":[6.921144E3,1.0627437E3,3.328335E2,8.998291E0,1.1828278E1,9.265723E1,2.3184814E1,0E0,0E0,0E0,0E0,0E0,0E0,0E0,0E0],"parents":[2147483647,0,0,1,1,2,2,3,3,4,4,5,5,6,6],"right_children":[2,4,6,8,10,12,14,-1,-1,-1,-1,-1,-1,-1,-1],"split_conditions":[7.6548076E3,1E0,1.2035189E4,9.59112E1,1.1252725E0,2.387E-1,2.025E-1,9.355483E-2,8.227338E-2,2.8309638E-2,1.144148E-2,-7.0178166E-2,-1.0907397E-1,-4.345464E-2,-5.844841E-2],"split_indices":[13,28,13,9,10,0,0,0,0,0,0,0,0,0,0],"split_type":[0,0,0,0,0,0,0,0,0,0,0,0,0,0,0],"sum_hessian":[3.41E2,1.94E2,1.47E2,7.7E1,1.17E2,5.1E1,9.6E1,6.1E1,1.6E1,1.09E2,8E0,1.6E1,3.5E1,2.5E1,7.1E1],"tree_param":{"num_deleted":"0","num_feature":"31","num_nodes":"15","size_leaf_vector":"1"}},{"base_weights":[-6.967039E-3,3.852873E0,-5.179153E0,1.9852586E0,8.9411825E-2,-8.276117E0,-4.339298E0,2.7737817E-2,-7.223036E-3,-1.1674024E-1,-8.513905E-2,-7.339164E-2,-5.3120047E-2],"categories":[],"categories_nodes":[],"categories_segments":[],"categories_sizes":[],"default_left":[0,0,0,0,0,0,0,0,0,0,0,0,0],"id":40,"left_children":[1,3,5,7,-1,9,11,-1,-1,-1,-1,-1,-1],"loss_changes":[7.007297E3,1.0603906E3,3.9015015E2,2.6368195E1,0E0,2.7154297E1,5.0134766E1,0E0,0E0,0E0,0E0,0E0,0E0],"parents":[2147483647,0,0,1,1,2,2,3,3,5,5,6,6],"right_children":[2,4,6,8,-1,10,12,-1,-1,-1,-1,-1,-1],"split_conditions":[1.513E2,1E0,3.029E2,8.8165545E-1,8.9411825E-2,7.9075836E2,7.45473E2,2.7737817E-2,-7.223036E-3,-1.1674024E-1,-8.513905E-2,-7.339164E-2,-5.3120047E-2],"split_indices":[19,29,19,14,0,11,11,0,0,0,0,0,0],"split_type":[0,0,0,0,0,0,0,0,0,0,0,0,0],"sum_hessian":[3.51E2,2.01E2,1.5E2,1.21E2,8E1,3.2E1,1.18E2,1.17E2,4E0,2.6E1,6E0,2.9E1,8.9E1],"tree_param":{"num_deleted":"0","num_feature":"31","num_nodes":"13","size_leaf_vector":"1"}},{"base_weights":[-2.5770622E-1,3.7130234E0,-5.0274243E0,6.6029034E0,1.9743967E0,-7.6785045E0,-4.359595E0,9.040885E-2,7.398309E-2,2.7423372E-2,3.149946E-3,-8.3647236E-2,-1.1693537E-1,-5.4258335E-2,-8.2633495E-2],"categories":[],"categories_nodes":[],"categories_segments":[],"categories_sizes":[],"default_left":[0,0,0,0,0,0,0,0,0,0,0,0,0,0,0],"id":41,"left_children":[1,3,5,7,9,11,13,-1,-1,-1,-1,-1,-1,-1,-1],"loss_changes":[6.8370728E3,9.898113E2,2.9035693E2,1.1896973E1,1.5763947E1,4.9819824E1,7.295117E1,0E0,0E0,0E0,0E0,0E0,0E0,0E0,0E0],"parents":[2147483647,0,0,1,1,2,2,3,3,4,4,5,5,6,6],"right_children":[2,4,6,8,10,12,14,-1,-1,-1,-1,-1,-1,-1,-1],"split_conditions":[7.6548076E3,2E0,3.083E2,8.1502155E2,8.7798107E-1,2.595972E-1,1.0556983E0,9.040885E-2,7.398309E-2,2.7423372E-2,3.149946E-3,-8.3647236E-2,-1.1693537E-1,-5.4258335E-2,-8.2633495E-2],"split_indices":[13,15,19,11,14,14,10,0,0,0,0,0,0,0,0],"split_type":[0,0,0,0,0,0,0,0,0,0,0,0,0,0,0],"sum_hessian":[3.61E2,1.97E2,1.64E2,7.4E1,1.23E2,3.3E1,1.31E2,6.5E1,9E0,1.18E2,5E0,1.4E1,1.9E1,1.12E2,1.9E1],"tree_param":{"num_deleted":"0","num_feature":"31","num_nodes":"15","size_leaf_vector":"1"}},{"base_weights":[1.03485174E-1,3.7281394E0,-5.151047E0,6.5031047E0,1.8923931E0,-4.309953E0,-6.180445E0,8.014783E-2,9.078575E-2,2.722179E-2,1.2821241E-2,-7.052049E-2,-5.3845387E-2,-9.166915E-2,-6.869684E-2],"categories":[],"categories_nodes":[],"categories_segments":[],"categories_sizes":[],"default_left":[0,0,0,0,0,0,0,0,0,0,0,0,0,0,0],"id":42,"left_children":[1,3,5,7,9,11,13,-1,-1,-1,-1,-1,-1,-1,-1],"loss_changes":[6.9517397E3,1.1003325E3,1.2900708E2,1.2330322E1,1.7092224E1,2.2639893E1,4.6832764E1,0E0,0E0,0E0,0E0,0E0,0E0,0E0,0E0],"parents":[2147483647,0,0,1,1,2,2,3,3,4,4,5,5,6,6],"right_children":[2,4,6,8,10,12,14,-1,-1,-1,-1,-1,-1,-1,-1],"split_conditions":[1.5E1,2E0,8.765492E-1,1.4617E0,1.1120783E0,4.795E-1,1.3794E0,8.014783E-2,9.078575E-2,2.722179E-2,1.2821241E-2,-7.052049E-2,-5.3845387E-2,-9.166915E-2,-6.869684E-2],"split_indices":[15,15,10,5,10,2,2,0,0,0,0,0,0,0,0],"split_type":[0,0,0,0,0,0,0,0,0,0,0,0,0,0,0],"sum_hessian":[3.65E2,2.16E2,1.49E2,8.6E1,1.3E2,8.2E1,6.7E1,3E1,5.6E1,1.13E2,1.7E1,1.9E1,6.3E1,4.1E1,2.6E1],"tree_param":{"num_deleted":"0","num_feature":"31","num_nodes":"15","size_leaf_vector":"1"}},{"base_weights":[-1.135778E-1,3.5559287E0,-5.056178E0,1.9045571E0,6.3836193E0,-4.0798883E0,-5.8738213E0,2.6597787E-2,-7.660709E-3,6.942352E-2,8.8632636E-2,-5.6989953E-2,-4.116899E-2,-7.417359E-2,-1.01713985E-1],"categories":[],"categories_nodes":[],"categories_segments":[],"categories_sizes":[],"default_left":[0,0,0,0,0,0,0,0,0,0,0,0,0,0,0],"id":43,"left_children":[1,3,5,7,9,11,13,-1,-1,-1,-1,-1,-1,-1,-1],"loss_changes":[6.257232E3,9.2457446E2,1.1734375E2,2.5347107E1,2.0637695E1,1.1877441E1,4.606006E1,0E0,0E0,0E0,0E0,0E0,0E0,0E0,0E0],"parents":[2147483647,0,0,1,1,2,2,3,3,4,4,5,5,6,6],"right_children":[2,4,6,8,10,12,14,-1,-1,-1,-1,-1,-1,-1,-1],"split_conditions":[3.02E1,1E0,2.3511492E-1,8.7798107E-1,1.763E-1,3.1936E0,5.342E-1,2.6597787E-2,-7.660709E-3,6.942352E-2,8.8632636E-2,-5.6989953E-2,-4.116899E-2,-7.417359E-2,-1.01713985E-1],"split_indices":[20,29,14,14,0,5,0,0,0,0,0,0,0,0,0],"split_type":[0,0,0,0,0,0,0,0,0,0,0,0,0,0,0],"sum_hessian":[3.45E2,1.98E2,1.47E2,1.25E2,7.3E1,6.7E1,8E1,1.21E2,4E0,1.2E1,6.1E1,5.7E1,1E1,6.7E1,1.3E1],"tree_param":{"num_deleted":"0","num_feature":"31","num_nodes":"15","size_leaf_vector":"1"}},{"base_weights":[7.953174E-2,3.5141494E0,-4.9345083E0,1.7649082E0,6.429551E0,-6.9656467E0,-3.8738031E0,2.466272E-2,-7.558145E-3,6.852494E-2,8.734463E-2,-6.579761E-2,-1.088348E-1,-4.892831E-2,-7.539628E-2],"categories":[],"categories_nodes":[],"categories_segments":[],"categories_sizes":[],"default_left":[0,0,0,0,0,0,0,0,0,0,0,0,0,0,0],"id":44,"left_children":[1,3,5,7,9,11,13,-1,-1,-1,-1,-1,-1,-1,-1],"loss_changes":[5.8035815E3,1.01994824E3,2.951582E2,2.242154E1,9.218994E0,1.1210278E2,3.4733154E1,0E0,0E0,0E0,0E0,0E0,0E0,0E0,0E0],"parents":[2147483647,0,0,1,1,2,2,3,3,4,4,5,5,6,6],"right_children":[2,4,6,8,10,12,14,-1,-1,-1,-1,-1,-1,-1,-1],"split_conditions":[1.513E2,1E0,3.749E2,9.293057E-1,1.118E-1,2.387E-1,1.0540276E0,2.466272E-2,-7.558145E-3,6.852494E-2,8.734463E-2,-6.579761E-2,-1.088348E-1,-4.892831E-2,-7.539628E-2],"split_indices":[19,23,19,14,0,0,10,0,0,0,0,0,0,0,0],"split_type":[0,0,0,0,0,0,0,0,0,0,0,0,0,0,0],"sum_hessian":[3.37E2,2E2,1.37E2,1.25E2,7.5E1,4.7E1,9E1,1.21E2,4E0,5E0,7E1,1.7E1,3E1,8E1,1E1],"tree_param":{"num_deleted":"0","num_feature":"31","num_nodes":"15","size_leaf_vector":"1"}},{"base_weights":[-1.1409946E-1,3.4595397E0,-4.8789515E0,6.2088494E0,1.8979315E0,-7.747361E0,-4.112394E0,8.649158E-2,7.2472304E-2,2.7293364E-2,1.0502603E-2,-6.410389E-2,-1.11356504E-1,-5.1344715E-2,-7.830851E-2],"categories":[],"categories_nodes":[],"categories_segments":[],"categories_sizes":[],"default_left":[0,0,0,0,0,0,0,0,0,0,0,0,0,0,0],"id":45,"left_children":[1,3,5,7,9,11,13,-1,-1,-1,-1,-1,-1,-1,-1],"loss_changes":[5.8405566E3,8.4149585E2,3.2322363E2,1.4173828E1,1.954956E1,5.222632E1,5.5934326E1,0E0,0E0,0E0,0E0,0E0,0E0,0E0,0E0],"parents":[2147483647,0,0,1,1,2,2,3,3,4,4,5,5,6,6],"right_children":[2,4,6,8,10,12,14,-1,-1,-1,-1,-1,-1,-1,-1],"split_conditions":[7.6548076E3,1E0,1.0443051E4,9.59297E1,1.1120783E0,7.063367E-1,1.0540276E0,8.649158E-2,7.2472304E-2,2.7293364E-2,1.0502603E-2,-6.410389E-2,-1.11356504E-1,-5.1344715E-2,-7.830851E-2],"split_indices":[13,28,13,9,10,10,10,0,0,0,0,0,0,0,0],"split_type":[0,0,0,0,0,0,0,0,0,0,0,0,0,0,0],"sum_hessian":[3.43E2,1.96E2,1.47E2,7.1E1,1.25E2,3.1E1,1.16E2,5.4E1,1.7E1,1.11E2,1.4E1,5E0,2.6E1,1E2,1.6E1],"tree_param":{"num_deleted":"0","num_feature":"31","num_nodes":"15","size_leaf_vector":"1"}},{"base_weights":[2.4104612E-2,3.54655E0,-4.748241E0,1.7548202E0,8.419616E-2,-7.295253E0,-4.0856037E0,2.5543652E-2,1.18605625E-2,-7.503726E-2,-1.0522958E-1,-5.074853E-2,-7.7785425E-2],"categories":[],"categories_nodes":[],"categories_segments":[],"categories_sizes":[],"default_left":[0,0,0,0,0,0,0,0,0,0,0,0,0],"id":46,"left_children":[1,3,5,7,-1,9,11,-1,-1,-1,-1,-1,-1],"loss_changes":[6.1357695E3,1.0315496E3,2.616006E2,1.687323E1,0E0,3.0506958E1,6.2650635E1,0E0,0E0,0E0,0E0,0E0,0E0],"parents":[2147483647,0,0,1,1,2,2,3,3,5,5,6,6],"right_children":[2,4,6,8,-1,10,12,-1,-1,-1,-1,-1,-1],"split_conditions":[1.513E2,1E0,3.083E2,1.0859767E0,8.419616E-2,7.742892E-1,1.0540276E0,2.5543652E-2,1.18605625E-2,-7.503726E-2,-1.0522958E-1,-5.074853E-2,-7.7785425E-2],"split_indices":[19,23,19,10,0,10,10,0,0,0,0,0,0],"split_type":[0,0,0,0,0,0,0,0,0,0,0,0,0],"sum_hessian":[3.65E2,2.1E2,1.55E2,1.27E2,8.3E1,3.2E1,1.23E2,1.08E2,1.9E1,8E0,2.4E1,1.05E2,1.8E1],"tree_param":{"num_deleted":"0","num_feature":"31","num_nodes":"13","size_leaf_vector":"1"}},{"base_weights":[1.6998415E-1,3.6153123E0,-4.705038E0,6.250511E0,1.9003415E0,-6.3485837E0,-3.8319042E0,7.69572E-2,8.681987E-2,2.7483702E-2,1.0359197E-2,-5.776115E-2,-9.6357815E-2,-4.87049E-2,-7.3696375E-2],"categories":[],"categories_nodes":[],"categories_segments":[],"categories_sizes":[],"default_left":[0,0,0,0,0,0,0,0,0,0,0,0,0,0,0],"id":47,"left_children":[1,3,5,7,9,11,13,-1,-1,-1,-1,-1,-1,-1,-1],"loss_changes":[5.9625977E3,9.4001196E2,2.1095044E2,9.633789E0,2.1614044E1,8.7979004E1,3.1208008E1,0E0,0E0,0E0,0E0,0E0,0E0,0E0,0E0],"parents":[2147483647,0,0,1,1,2,2,3,3,4,4,5,5,6,6],"right_children":[2,4,6,8,10,12,14,-1,-1,-1,-1,-1,-1,-1,-1],"split_conditions":[7.6548076E3,2E0,1.1777025E4,1.3703E0,1.1120783E0,7.636025E-1,1.0745667E0,7.69572E-2,8.681987E-2,2.7483702E-2,1.0359197E-2,-5.776115E-2,-9.6357815E-2,-4.87049E-2,-7.3696375E-2],"split_indices":[13,15,13,5,10,10,10,0,0,0,0,0,0,0,0],"split_type":[0,0,0,0,0,0,0,0,0,0,0,0,0,0,0],"sum_hessian":[3.55E2,2.08E2,1.47E2,8.2E1,1.26E2,5.1E1,9.6E1,2.6E1,5.6E1,1.11E2,1.5E1,1.5E1,3.6E1,8.6E1,1E1],"tree_param":{"num_deleted":"0","num_feature":"31","num_nodes":"15","size_leaf_vector":"1"}},{"base_weights":[5.713136E-2,3.4268515E0,-4.637237E0,2.5133451E-2,5.996228E0,-6.341456E0,-3.5333683E0,8.33825E-2,6.7703195E-2,-5.9319127E-2,-9.983865E-2,-4.4333126E-2,-7.0537254E-2],"categories":[],"categories_nodes":[],"categories_segments":[],"categories_sizes":[],"default_left":[0,0,0,0,0,0,0,0,0,0,0,0,0],"id":48,"left_children":[1,3,5,-1,7,9,11,-1,-1,-1,-1,-1,-1],"loss_changes":[5.489092E3,8.043589E2,2.727788E2,0E0,1.650879E1,1.2145972E2,3.3947388E1,0E0,0E0,0E0,0E0,0E0,0E0],"parents":[2147483647,0,0,1,1,2,2,4,4,5,5,6,6],"right_children":[2,4,6,-1,8,10,12,-1,-1,-1,-1,-1,-1],"split_conditions":[7.6548076E3,1E0,1.2100738E4,2.5133451E-2,9.59112E1,2.743E-1,1.0556983E0,8.33825E-2,6.7703195E-2,-5.9319127E-2,-9.983865E-2,-4.4333126E-2,-7.0537254E-2],"split_indices":[13,23,13,0,9,0,10,0,0,0,0,0,0],"split_type":[0,0,0,0,0,0,0,0,0,0,0,0,0],"sum_hessian":[3.47E2,2.02E2,1.45E2,1.26E2,7.6E1,5.7E1,8.8E1,6.1E1,1.5E1,2.1E1,3.6E1,7.8E1,1E1],"tree_param":{"num_deleted":"0","num_feature":"31","num_nodes":"13","size_leaf_vector":"1"}},{"base_weights":[1.1785138E-1,3.4556487E0,-4.5328126E0,5.9694805E0,1.7663536E0,-7.169115E0,-3.846045E0,7.647206E-2,8.808994E-2,6.8326816E-3,2.4800977E-2,-1.12119325E-1,-7.879065E-2,-5.6021806E-2,-3.6081433E-2],"categories":[],"categories_nodes":[],"categories_segments":[],"categories_sizes":[],"default_left":[0,0,0,0,0,0,0,0,0,0,0,0,0,0,0],"id":49,"left_children":[1,3,5,7,9,11,13,-1,-1,-1,-1,-1,-1,-1,-1],"loss_changes":[5.5727476E3,8.875403E2,2.715791E2,1.3219727E1,1.3484528E1,4.796692E1,4.629431E1,0E0,0E0,0E0,0E0,0E0,0E0,0E0,0E0],"parents":[2147483647,0,0,1,1,2,2,3,3,4,4,5,5,6,6],"right_children":[2,4,6,8,10,12,14,-1,-1,-1,-1,-1,-1,-1,-1],"split_conditions":[7.6548076E3,2E0,3.029E2,5.2262947E1,9.32308E1,8.272E2,1.5958986E4,7.647206E-2,8.808994E-2,6.8326816E-3,2.4800977E-2,-1.12119325E-1,-7.879065E-2,-5.6021806E-2,-3.6081433E-2],"split_indices":[13,15,19,12,9,17,13,0,0,0,0,0,0,0,0],"split_type":[0,0,0,0,0,0,0,0,0,0,0,0,0,0,0],"sum_hessian":[3.59E2,2.09E2,1.5E2,8.4E1,1.25E2,3.1E1,1.19E2,5.9E1,2.5E1,8E0,1.17E2,1.6E1,1.5E1,9.2E1,2.7E1],"tree_param":{"num_deleted":"0","num_feature":"31","num_nodes":"15","size_leaf_vector":"1"}},{"base_weights":[2.5554497E-2,3.2691808E0,-4.52423E0,7.980131E-2,1.7316339E0,-6.217433E0,-3.5335262E0,2.3966273E-2,3.2141814E-3,-9.136247E-2,-5.9491176E-2,-5.429117E-2,-3.9036512E-2],"categories":[],"categories_nodes":[],"categories_segments":[],"categories_sizes":[],"default_left":[0,0,0,0,0,0,0,0,0,0,0,0,0],"id":50,"left_children":[1,3,5,-1,7,9,11,-1,-1,-1,-1,-1,-1],"loss_changes":[5.2832925E3,8.6465137E2,2.499419E2,0E0,1.1558685E1,5.912964E1,3.0281128E1,0E0,0E0,0E0,0E0,0E0,0E0],"parents":[2147483647,0,0,1,1,2,2,4,4,5,5,6,6],"right_children":[2,4,6,-1,8,10,12,-1,-1,-1,-1,-1,-1],"split_conditions":[1.5E1,2E0,3.91E2,7.980131E-2,6.8085E0,7.9075836E2,5.288E2,2.3966273E-2,3.2141814E-3,-9.136247E-2,-5.9491176E-2,-5.429117E-2,-3.9036512E-2],"split_indices":[15,15,19,0,16,11,19,0,0,0,0,0,0],"split_type":[0,0,0,0,0,0,0,0,0,0,0,0,0],"sum_hessian":[3.58E2,2.09E2,1.49E2,7.6E1,1.33E2,5.5E1,9.4E1,1.28E2,5E0,4.1E1,1.4E1,5.1E1,4.3E1],"tree_param":{"num_deleted":"0","num_feature":"31","num_nodes":"13","size_leaf_vector":"1"}},{"base_weights":[-3.481825E-2,3.2853568E0,-4.3426404E0,5.948012E0,2.2985635E-2,-3.439998E0,-5.07928E0,6.1581176E-2,8.147459E-2,-4.0043928E-2,-5.1589545E-2,-8.951973E-2,-6.5216765E-2],"categories":[],"categories_nodes":[],"categories_segments":[],"categories_sizes":[],"default_left":[0,0,0,0,0,0,0,0,0,0,0,0,0],"id":51,"left_children":[1,3,5,7,-1,9,11,-1,-1,-1,-1,-1,-1],"loss_changes":[5.191889E3,8.562637E2,1.0505762E2,1.402832E1,0E0,1.3173889E1,2.915747E1,0E0,0E0,0E0,0E0,0E0,0E0],"parents":[2147483647,0,0,1,1,2,2,3,3,5,5,6,6],"right_children":[2,4,6,8,-1,10,12,-1,-1,-1,-1,-1,-1],"split_conditions":[1E0,1E0,3.079E-1,1.29E-1,2.2985635E-2,1.77E-2,5.9E-3,6.1581176E-2,8.147459E-2,-4.0043928E-2,-5.1589545E-2,-8.951973E-2,-6.5216765E-2],"split_indices":[21,28,0,0,0,3,4,0,0,0,0,0,0],"split_type":[0,0,0,0,0,0,0,0,0,0,0,0,0],"sum_hessian":[3.63E2,2.05E2,1.58E2,7.6E1,1.29E2,7.1E1,8.7E1,7E0,6.9E1,3.4E1,3.7E1,1E1,7.7E1],"tree_param":{"num_deleted":"0","num_feature":"31","num_nodes":"13","size_leaf_vector":"1"}},{"base_weights":[-1.0270067E-1,3.3345745E0,-4.508872E0,7.614929E-2,1.7798353E0,-6.244939E0,-3.4930882E0,2.4664136E-2,7.265299E-4,-5.5924132E-2,-9.4979696E-2,-3.8986865E-2,-5.600449E-2],"categories":[],"categories_nodes":[],"categories_segments":[],"categories_sizes":[],"default_left":[0,0,0,0,0,0,0,0,0,0,0,0,0],"id":52,"left_children":[1,3,5,-1,7,9,11,-1,-1,-1,-1,-1,-1],"loss_changes":[5.149376E3,6.9860645E2,2.6275684E2,0E0,1.233963E1,9.652588E1,3.7684692E1,0E0,0E0,0E0,0E0,0E0,0E0],"parents":[2147483647,0,0,1,1,2,2,4,4,5,5,6,6],"right_children":[2,4,6,-1,8,10,12,-1,-1,-1,-1,-1,-1],"split_conditions":[1.513E2,1E0,3.693E2,7.614929E-2,8.725794E-1,2.393E-1,8.60435E-1,2.4664136E-2,7.265299E-4,-5.5924132E-2,-9.4979696E-2,-3.8986865E-2,-5.600449E-2],"split_indices":[19,28,19,0,14,0,10,0,0,0,0,0,0],"split_type":[0,0,0,0,0,0,0,0,0,0,0,0,0],"sum_hessian":[3.4E2,1.91E2,1.49E2,7.6E1,1.15E2,5.5E1,9.4E1,1.11E2,4E0,1.6E1,3.9E1,5.1E1,4.3E1],"tree_param":{"num_deleted":"0","num_feature":"31","num_nodes":"13","size_leaf_vector":"1"}},{"base_weights":[1.21129766E-1,3.3118582E0,-4.2769012E0,2.3394115E-2,7.488762E-2,-6.7789373E0,-3.6407905E0,-9.799668E-2,-5.462564E-2,-5.3346477E-2,-3.2481987E-2],"categories":[],"categories_nodes":[],"categories_segments":[],"categories_sizes":[],"default_left":[0,0,0,0,0,0,0,0,0,0,0],"id":53,"left_children":[1,3,5,-1,-1,7,9,-1,-1,-1,-1],"loss_changes":[4.939589E3,7.2810547E2,2.3555249E2,0E0,0E0,4.371643E1,4.922107E1,0E0,0E0,0E0,0E0],"parents":[2147483647,0,0,1,1,2,2,5,5,6,6],"right_children":[2,4,6,-1,-1,8,10,-1,-1,-1,-1],"split_conditions":[7.6548076E3,1E0,3.029E2,2.3394115E-2,7.488762E-2,7.9075836E2,1.5958986E4,-9.799668E-2,-5.462564E-2,-5.3346477E-2,-3.2481987E-2],"split_indices":[13,23,19,0,0,11,13,0,0,0,0],"split_type":[0,0,0,0,0,0,0,0,0,0,0],"sum_hessian":[3.52E2,2.04E2,1.48E2,1.21E2,8.3E1,3E1,1.18E2,2.5E1,5E0,9.2E1,2.6E1],"tree_param":{"num_deleted":"0","num_feature":"31","num_nodes":"11","size_leaf_vector":"1"}},{"base_weights":[5.886555E-2,3.1471722E0,-4.1952257E0,7.452969E-2,1.6352913E0,-6.004379E0,-3.326123E0,2.3302978E-2,9.450812E-3,-5.619196E-2,-9.70902E-2,-4.1298486E-2,-6.669976E-2],"categories":[],"categories_nodes":[],"categories_segments":[],"categories_sizes":[],"default_left":[0,0,0,0,0,0,0,0,0,0,0,0,0],"id":54,"left_children":[1,3,5,-1,7,9,11,-1,-1,-1,-1,-1,-1],"loss_changes":[4.71652E3,7.6070874E2,2.3742334E2,0E0,1.2500397E1,1.1043274E2,4.082251E1,0E0,0E0,0E0,0E0,0E0,0E0],"parents":[2147483647,0,0,1,1,2,2,4,4,5,5,6,6],"right_children":[2,4,6,-1,8,10,12,-1,-1,-1,-1,-1,-1],"split_conditions":[1.5E1,2E0,3.693E2,7.452969E-2,1.1120783E0,2.743E-1,1.0556983E0,2.3302978E-2,9.450812E-3,-5.619196E-2,-9.70902E-2,-4.1298486E-2,-6.669976E-2],"split_indices":[15,15,19,0,10,0,10,0,0,0,0,0,0],"split_type":[0,0,0,0,0,0,0,0,0,0,0,0,0],"sum_hessian":[3.59E2,2.08E2,1.51E2,8E1,1.28E2,4.9E1,1.02E2,1.15E2,1.3E1,2E1,2.9E1,8.9E1,1.3E1],"tree_param":{"num_deleted":"0","num_feature":"31","num_nodes":"13","size_leaf_vector":"1"}},{"base_weights":[-1.1960218E-2,3.1262841E0,-4.182522E0,5.5492425E0,1.6021651E0,-5.897302E0,-3.3667524E0,5.4075968E-2,7.539623E-2,7.1572857E-3,2.2571325E-2,-5.9640545E-2,-9.120105E-2,-5.12974E-2,-3.6742844E-2],"categories":[],"categories_nodes":[],"categories_segments":[],"categories_sizes":[],"default_left":[0,0,0,0,0,0,0,0,0,0,0,0,0,0,0],"id":55,"left_children":[1,3,5,7,9,11,13,-1,-1,-1,-1,-1,-1,-1,-1],"loss_changes":[4.633237E3,7.4596106E2,2.1262769E2,9.621338E0,1.106134E1,6.4628296E1,2.9779663E1,0E0,0E0,0E0,0E0,0E0,0E0,0E0,0E0],"parents":[2147483647,0,0,1,1,2,2,3,3,4,4,5,5,6,6],"right_children":[2,4,6,8,10,12,14,-1,-1,-1,-1,-1,-1,-1,-1],"split_conditions":[7.6548076E3,1E0,3.693E2,1.118E-1,9.32308E1,2.743E-1,1.4628407E4,5.4075968E-2,7.539623E-2,7.1572857E-3,2.2571325E-2,-5.9640545E-2,-9.120105E-2,-5.12974E-2,-3.6742844E-2],"split_indices":[13,28,19,0,9,0,13,0,0,0,0,0,0,0,0],"split_type":[0,0,0,0,0,0,0,0,0,0,0,0,0,0,0],"sum_hessian":[3.54E2,2.02E2,1.52E2,7.8E1,1.24E2,4.9E1,1.03E2,4E0,7.4E1,9E0,1.15E2,1.9E1,3E1,5.9E1,4.4E1],"tree_param":{"num_deleted":"0","num_feature":"31","num_nodes":"15","size_leaf_vector":"1"}},{"base_weights":[-6.9836415E-2,3.0945046E0,-4.209488E0,5.424805E0,1.620639E0,-3.1891932E0,-4.9416995E0,6.901388E-2,8.018425E-2,2.2650797E-2,4.0039842E-4,-6.038883E-2,-4.1123312E-2,-5.3170584E-2,-7.221858E-2],"categories":[],"categories_nodes":[],"categories_segments":[],"categories_sizes":[],"default_left":[0,0,0,0,0,0,0,0,0,0,0,0,0,0,0],"id":56,"left_children":[1,3,5,7,9,11,13,-1,-1,-1,-1,-1,-1,-1,-1],"loss_changes":[4.4144536E3,6.5599927E2,1.09072266E2,1.1285889E1,1.3217072E1,9.502686E0,3.7284668E1,0E0,0E0,0E0,0E0,0E0,0E0,0E0,0E0],"parents":[2147483647,0,0,1,1,2,2,3,3,4,4,5,5,6,6],"right_children":[2,4,6,8,10,12,14,-1,-1,-1,-1,-1,-1,-1,-1],"split_conditions":[1.5E1,2E0,2.3511492E-1,5.1744026E1,8.7798107E-1,3.3947E0,3.496E-1,6.901388E-2,8.018425E-2,2.2650797E-2,4.0039842E-4,-6.038883E-2,-4.1123312E-2,-5.3170584E-2,-7.221858E-2],"split_indices":[15,15,14,12,14,16,0,0,0,0,0,0,0,0,0],"split_type":[0,0,0,0,0,0,0,0,0,0,0,0,0,0,0],"sum_hessian":[3.37E2,1.91E2,1.46E2,7.4E1,1.17E2,6.1E1,8.5E1,5E1,2.4E1,1.12E2,5E0,5E0,5.6E1,2.7E1,5.8E1],"tree_param":{"num_deleted":"0","num_feature":"31","num_nodes":"15","size_leaf_vector":"1"}},{"base_weights":[-1.0476204E-1,2.9319108E0,-4.108528E0,5.365146E0,1.5493907E0,-5.580114E0,-3.2925994E0,4.885283E-2,7.313282E-2,2.2082001E-2,4.4458355E-3,-4.874197E-2,-8.510595E-2,-3.6442578E-2,-5.439816E-2],"categories":[],"categories_nodes":[],"categories_segments":[],"categories_sizes":[],"default_left":[0,0,0,0,0,0,0,0,0,0,0,0,0,0,0],"id":57,"left_children":[1,3,5,7,9,11,13,-1,-1,-1,-1,-1,-1,-1,-1],"loss_changes":[4.4255586E3,6.963473E2,1.8851123E2,1.2451172E1,1.6034302E1,8.429285E1,4.4404907E1,0E0,0E0,0E0,0E0,0E0,0E0,0E0,0E0],"parents":[2147483647,0,0,1,1,2,2,3,3,4,4,5,5,6,6],"right_children":[2,4,6,8,10,12,14,-1,-1,-1,-1,-1,-1,-1,-1],"split_conditions":[1.5E1,2E0,3.693E2,2.2720432E1,1.1230466E0,7.636025E-1,8.60435E-1,4.885283E-2,7.313282E-2,2.2082001E-2,4.4458355E-3,-4.874197E-2,-8.510595E-2,-3.6442578E-2,-5.439816E-2],"split_indices":[15,15,19,12,10,10,10,0,0,0,0,0,0,0,0],"split_type":[0,0,0,0,0,0,0,0,0,0,0,0,0,0,0],"sum_hessian":[3.64E2,2.07E2,1.57E2,7.5E1,1.32E2,5.6E1,1.01E2,4E0,7.1E1,1.22E2,1E1,1.6E1,4E1,5.8E1,4.3E1],"tree_param":{"num_deleted":"0","num_feature":"31","num_nodes":"15","size_leaf_vector":"1"}},{"base_weights":[7.503952E-2,3.0490055E0,-3.9654522E0,1.6958351E0,6.967208E-2,-5.700468E0,-3.079871E0,2.6796235E-2,1.8941887E-2,-6.675103E-2,-9.2821E-2,-4.554187E-2,-3.0241543E-2],"categories":[],"categories_nodes":[],"categories_segments":[],"categories_sizes":[],"default_left":[0,0,0,0,0,0,0,0,0,0,0,0,0],"id":58,"left_children":[1,3,5,7,-1,9,11,-1,-1,-1,-1,-1,-1],"loss_changes":[4.1095693E3,5.7430554E2,2.2279224E2,1.0391022E1,0E0,4.3169434E1,2.5339539E1,0E0,0E0,0E0,0E0,0E0,0E0],"parents":[2147483647,0,0,1,1,2,2,3,3,5,5,6,6],"right_children":[2,4,6,8,-1,10,12,-1,-1,-1,-1,-1,-1],"split_conditions":[7.6548076E3,1E0,1.2035189E4,8.1154585E-1,6.967208E-2,9.321125E-1,1.5942781E4,2.6796235E-2,1.8941887E-2,-6.675103E-2,-9.2821E-2,-4.554187E-2,-3.0241543E-2],"split_indices":[13,23,13,10,0,10,13,0,0,0,0,0,0],"split_type":[0,0,0,0,0,0,0,0,0,0,0,0,0],"sum_hessian":[3.42E2,1.97E2,1.45E2,1.21E2,7.6E1,4.9E1,9.6E1,5.8E1,6.3E1,3.1E1,1.8E1,6.9E1,2.7E1],"tree_param":{"num_deleted":"0","num_feature":"31","num_nodes":"13","size_leaf_vector":"1"}},{"base_weights":[-6.7663533E-3,2.9009025E0,-3.9976845E0,5.172783E0,1.5308373E0,-6.298184E0,-3.3403988E0,4.454944E-2,7.058021E-2,2.1454914E-2,-9.90024E-3,-9.608634E-2,-7.257568E-2,-5.5537846E-2,-3.8384724E-2],"categories":[],"categories_nodes":[],"categories_segments":[],"categories_sizes":[],"default_left":[0,0,0,0,0,0,0,0,0,0,0,0,0,0,0],"id":59,"left_children":[1,3,5,7,9,11,13,-1,-1,-1,-1,-1,-1,-1,-1],"loss_changes":[4.2123496E3,6.53651E2,2.3134888E2,1.4352539E1,2.1265045E1,2.6206177E1,4.5510254E1,0E0,0E0,0E0,0E0,0E0,0E0,0E0,0E0],"parents":[2147483647,0,0,1,1,2,2,3,3,4,4,5,5,6,6],"right_children":[2,4,6,8,10,12,14,-1,-1,-1,-1,-1,-1,-1,-1],"split_conditions":[1.5E1,2E0,3.029E2,1.118E-1,9.293057E-1,7.605357E2,4.66E2,4.454944E-2,7.058021E-2,2.1454914E-2,-9.90024E-3,-9.608634E-2,-7.257568E-2,-5.5537846E-2,-3.8384724E-2],"split_indices":[15,15,19,0,14,11,19,0,0,0,0,0,0,0,0],"split_type":[0,0,0,0,0,0,0,0,0,0,0,0,0,0,0],"sum_hessian":[3.63E2,2.1E2,1.53E2,7.9E1,1.31E2,3.4E1,1.19E2,4E0,7.5E1,1.27E2,4E0,1.7E1,1.7E1,4.4E1,7.5E1],"tree_param":{"num_deleted":"0","num_feature":"31","num_nodes":"15","size_leaf_vector":"1"}},{"base_weights":[-6.4669974E-2,2.8427422E0,-3.9602222E0,5.1707873E0,1.4996394E0,-5.593184E0,-3.0437644E0,6.445486E-2,7.4699014E-2,2.097843E-2,-8.2279155E-3,-4.6466608E-2,-8.555049E-2,-3.3141036E-2,-4.806479E-2],"categories":[],"categories_nodes":[],"categories_segments":[],"categories_sizes":[],"default_left":[0,0,0,0,0,0,0,0,0,0,0,0,0,0,0],"id":60,"left_children":[1,3,5,7,9,11,13,-1,-1,-1,-1,-1,-1,-1,-1],"loss_changes":[4.0546995E3,6.4099475E2,2.289707E2,1.092627E1,1.84458E1,9.2947876E1,3.0422607E1,0E0,0E0,0E0,0E0,0E0,0E0,0E0,0E0],"parents":[2147483647,0,0,1,1,2,2,3,3,4,4,5,5,6,6],"right_children":[2,4,6,8,10,12,14,-1,-1,-1,-1,-1,-1,-1,-1],"split_conditions":[7.6548076E3,2E0,1.1777025E4,4.999853E1,8.725794E-1,7.636025E-1,2.27457E-1,6.445486E-2,7.4699014E-2,2.097843E-2,-8.2279155E-3,-4.6466608E-2,-8.555049E-2,-3.3141036E-2,-4.806479E-2],"split_indices":[13,15,13,12,14,10,14,0,0,0,0,0,0,0,0],"split_type":[0,0,0,0,0,0,0,0,0,0,0,0,0,0,0],"sum_hessian":[3.58E2,2.05E2,1.53E2,7.5E1,1.3E2,5.5E1,9.8E1,4E1,3.5E1,1.26E2,4E0,1.5E1,4E1,4.8E1,5E1],"tree_param":{"num_deleted":"0","num_feature":"31","num_nodes":"15","size_leaf_vector":"1"}},{"base_weights":[-4.229408E-2,2.8231626E0,-3.8816314E0,5.0696907E0,1.4996265E0,-6.0313387E0,-3.2674294E0,5.836781E-2,7.1514435E-2,2.1031188E-2,-9.657518E-3,-9.290826E-2,-6.860778E-2,-4.906824E-2,-3.3999927E-2],"categories":[],"categories_nodes":[],"categories_segments":[],"categories_sizes":[],"default_left":[0,0,0,0,0,0,0,0,0,0,0,0,0,0,0],"id":61,"left_children":[1,3,5,7,9,11,13,-1,-1,-1,-1,-1,-1,-1,-1],"loss_changes":[3.938521E3,6.095388E2,2.0201392E2,1.4650513E1,2.0360748E1,2.7996704E1,3.441736E1,0E0,0E0,0E0,0E0,0E0,0E0,0E0,0E0],"parents":[2147483647,0,0,1,1,2,2,3,3,4,4,5,5,6,6],"right_children":[2,4,6,8,10,12,14,-1,-1,-1,-1,-1,-1,-1,-1],"split_conditions":[1.5E1,2E0,3.029E2,1.3703E0,9.293057E-1,8.272E2,5.298E2,5.836781E-2,7.1514435E-2,2.1031188E-2,-9.657518E-3,-9.290826E-2,-6.860778E-2,-4.906824E-2,-3.3999927E-2],"split_indices":[15,15,19,5,14,17,19,0,0,0,0,0,0,0,0],"split_type":[0,0,0,0,0,0,0,0,0,0,0,0,0,0,0],"sum_hessian":[3.58E2,2.05E2,1.53E2,7.6E1,1.29E2,3.4E1,1.19E2,2.1E1,5.5E1,1.25E2,4E0,1.7E1,1.7E1,7.7E1,4.2E1],"tree_param":{"num_deleted":"0","num_feature":"31","num_nodes":"15","size_leaf_vector":"1"}},{"base_weights":[1.3772702E-1,2.7763329E0,-3.7740521E0,5.025902E0,1.4401228E0,-2.996705E0,-4.498876E0,6.858833E-2,5.156585E-2,2.0176228E-2,-9.52819E-3,-3.7617303E-2,-5.9246942E-2,-7.554748E-2,-5.5318095E-2],"categories":[],"categories_nodes":[],"categories_segments":[],"categories_sizes":[],"default_left":[0,0,0,0,0,0,0,0,0,0,0,0,0,0,0],"id":62,"left_children":[1,3,5,7,9,11,13,-1,-1,-1,-1,-1,-1,-1,-1],"loss_changes":[3.6641833E3,6.3725E2,8.057202E1,8.960815E0,1.9093964E1,1.8455505E1,3.1092041E1,0E0,0E0,0E0,0E0,0E0,0E0,0E0,0E0],"parents":[2147483647,0,0,1,1,2,2,3,3,4,4,5,5,6,6],"right_children":[2,4,6,8,10,12,14,-1,-1,-1,-1,-1,-1,-1,-1],"split_conditions":[1.5E1,2E0,2.3511492E-1,7.584E-1,9.293057E-1,9.62824E1,7.15E1,6.858833E-2,5.156585E-2,2.0176228E-2,-9.52819E-3,-3.7617303E-2,-5.9246942E-2,-7.554748E-2,-5.5318095E-2],"split_indices":[15,15,14,1,14,9,20,0,0,0,0,0,0,0,0],"split_type":[0,0,0,0,0,0,0,0,0,0,0,0,0,0,0],"sum_hessian":[3.55E2,2.12E2,1.43E2,7.9E1,1.33E2,6.9E1,7.4E1,7.3E1,6E0,1.29E2,4E0,6.1E1,8E0,1.8E1,5.6E1],"tree_param":{"num_deleted":"0","num_feature":"31","num_nodes":"15","size_leaf_vector":"1"}},{"base_weights":[4.8575915E-2,2.7288387E0,-3.7562726E0,6.5693855E-2,1.4529911E0,-5.7692137E0,-3.2218635E0,2.1048171E-2,8.304121E-3,-8.161028E-2,-4.889498E-2,-3.9511148E-2,-6.6847734E-2],"categories":[],"categories_nodes":[],"categories_segments":[],"categories_sizes":[],"default_left":[0,0,0,0,0,0,0,0,0,0,0,0,0],"id":63,"left_children":[1,3,5,-1,7,9,11,-1,-1,-1,-1,-1,-1],"loss_changes":[3.5285059E3,5.639523E2,1.5383008E2,0E0,1.2682343E1,2.0695251E1,5.4223022E1,0E0,0E0,0E0,0E0,0E0,0E0],"parents":[2147483647,0,0,1,1,2,2,4,4,5,5,6,6],"right_children":[2,4,6,-1,8,10,12,-1,-1,-1,-1,-1,-1],"split_conditions":[7.6548076E3,2E0,3.029E2,6.5693855E-2,1.10812E0,8.874E2,1.0556983E0,2.1048171E-2,8.304121E-3,-8.161028E-2,-4.889498E-2,-3.9511148E-2,-6.6847734E-2],"split_indices":[13,15,19,0,10,17,10,0,0,0,0,0,0],"split_type":[0,0,0,0,0,0,0,0,0,0,0,0,0],"sum_hessian":[3.46E2,2.03E2,1.43E2,7.5E1,1.28E2,3E1,1.13E2,1.12E2,1.6E1,2.6E1,4E0,9.8E1,1.5E1],"tree_param":{"num_deleted":"0","num_feature":"31","num_nodes":"13","size_leaf_vector":"1"}},{"base_weights":[1.0403079E-2,2.75697E0,-3.7981699E0,1.4728551E0,4.811554E0,-5.3377824E0,-2.9569383E0,2.140094E-2,6.0427566E-3,6.577203E-2,3.884013E-2,-5.123282E-2,-8.278134E-2,-3.7259553E-2,-6.958917E-2],"categories":[],"categories_nodes":[],"categories_segments":[],"categories_sizes":[],"default_left":[0,0,0,0,0,0,0,0,0,0,0,0,0,0,0],"id":64,"left_children":[1,3,5,7,9,11,13,-1,-1,-1,-1,-1,-1,-1,-1],"loss_changes":[3.7448591E3,5.487709E2,1.9427563E2,1.6404358E1,1.5373535E1,6.7666016E1,3.786389E1,0E0,0E0,0E0,0E0,0E0,0E0,0E0,0E0],"parents":[2147483647,0,0,1,1,2,2,3,3,4,4,5,5,6,6],"right_children":[2,4,6,8,10,12,14,-1,-1,-1,-1,-1,-1,-1,-1],"split_conditions":[7.6548076E3,1E0,1.1777025E4,1.1120783E0,5.639E-1,2.743E-1,1.0745667E0,2.140094E-2,6.0427566E-3,6.577203E-2,3.884013E-2,-5.123282E-2,-8.278134E-2,-3.7259553E-2,-6.958917E-2],"split_indices":[13,23,13,10,0,0,10,0,0,0,0,0,0,0,0],"split_type":[0,0,0,0,0,0,0,0,0,0,0,0,0,0,0],"sum_hessian":[3.58E2,2.08E2,1.5E2,1.28E2,8E1,5.3E1,9.7E1,1.14E2,1.4E1,7.6E1,4E0,1.9E1,3.4E1,9E1,7E0],"tree_param":{"num_deleted":"0","num_feature":"31","num_nodes":"15","size_leaf_vector":"1"}},{"base_weights":[-9.381693E-3,2.721577E0,-3.7234855E0,6.436322E-2,1.8794475E-2,-5.1436543E0,-2.8530595E0,-4.500899E-2,-7.901401E-2,-4.2123653E-2,-2.7534025E-2],"categories":[],"categories_nodes":[],"categories_segments":[],"categories_sizes":[],"default_left":[0,0,0,0,0,0,0,0,0,0,0],"id":65,"left_children":[1,3,5,-1,-1,7,9,-1,-1,-1,-1],"loss_changes":[3.5906445E3,5.6065674E2,1.8542285E2,0E0,0E0,7.6944214E1,2.1702515E1,0E0,0E0,0E0,0E0],"parents":[2147483647,0,0,1,1,2,2,5,5,6,6],"right_children":[2,4,6,-1,-1,8,10,-1,-1,-1,-1],"split_conditions":[7.6548076E3,1E0,1.2035189E4,6.436322E-2,1.8794475E-2,7.636025E-1,1.5958986E4,-4.500899E-2,-7.901401E-2,-4.2123653E-2,-2.7534025E-2],"split_indices":[13,28,13,0,0,10,13,0,0,0,0],"split_type":[0,0,0,0,0,0,0,0,0,0,0],"sum_hessian":[3.54E2,2.04E2,1.5E2,7.9E1,1.25E2,5.7E1,9.3E1,1.7E1,4E1,6.8E1,2.5E1],"tree_param":{"num_deleted":"0","num_feature":"31","num_nodes":"11","size_leaf_vector":"1"}},{"base_weights":[3.6023508E-3,2.5571835E0,-3.5308244E0,4.5913577E0,1.3705819E0,-5.185479E0,-2.7359414E0,6.301822E-2,3.9284352E-2,1.975023E-2,8.21259E-3,-4.7625083E-2,-7.730697E-2,-4.3782737E-2,-2.8590672E-2],"categories":[],"categories_nodes":[],"categories_segments":[],"categories_sizes":[],"default_left":[0,0,0,0,0,0,0,0,0,0,0,0,0,0,0],"id":66,"left_children":[1,3,5,7,9,11,13,-1,-1,-1,-1,-1,-1,-1,-1],"loss_changes":[3.2491604E3,5.044745E2,1.9860364E2,1.4689575E1,1.0439835E1,4.6934082E1,3.2713257E1,0E0,0E0,0E0,0E0,0E0,0E0,0E0,0E0],"parents":[2147483647,0,0,1,1,2,2,3,3,4,4,5,5,6,6],"right_children":[2,4,6,8,10,12,14,-1,-1,-1,-1,-1,-1,-1,-1],"split_conditions":[7.6548076E3,1E0,1.1777025E4,5.639E-1,1.1120783E0,2.393E-1,1.4689668E4,6.301822E-2,3.9284352E-2,1.975023E-2,8.21259E-3,-4.7625083E-2,-7.730697E-2,-4.3782737E-2,-2.8590672E-2],"split_indices":[13,28,13,0,10,0,13,0,0,0,0,0,0,0,0],"split_type":[0,0,0,0,0,0,0,0,0,0,0,0,0,0,0],"sum_hessian":[3.6E2,2.09E2,1.51E2,7.7E1,1.32E2,4.9E1,1.02E2,7.2E1,5E0,1.16E2,1.6E1,1.3E1,3.6E1,5.4E1,4.8E1],"tree_param":{"num_deleted":"0","num_feature":"31","num_nodes":"15","size_leaf_vector":"1"}},{"base_weights":[-1.0803742E-1,2.6453311E0,-3.5625746E0,1.394553E0,6.149564E-2,-4.947664E0,-2.8438962E0,1.9330312E-2,-8.9142186E-4,-4.5056675E-2,-7.8357175E-2,-3.20481E-2,-4.5366373E-2],"categories":[],"categories_nodes":[],"categories_segments":[],"categories_sizes":[],"default_left":[0,0,0,0,0,0,0,0,0,0,0,0,0],"id":67,"left_children":[1,3,5,7,-1,9,11,-1,-1,-1,-1,-1,-1],"loss_changes":[3.452716E3,4.9202832E2,1.6026477E2,8.826614E0,0E0,7.8721436E1,2.5984497E1,0E0,0E0,0E0,0E0,0E0,0E0],"parents":[2147483647,0,0,1,1,2,2,3,3,5,5,6,6],"right_children":[2,4,6,8,-1,10,12,-1,-1,-1,-1,-1,-1],"split_conditions":[7.6548076E3,1E0,1.1777025E4,8.725794E-1,6.149564E-2,7.636025E-1,8.60435E-1,1.9330312E-2,-8.9142186E-4,-4.5056675E-2,-7.8357175E-2,-3.20481E-2,-4.5366373E-2],"split_indices":[13,23,13,14,0,10,10,0,0,0,0,0,0],"split_type":[0,0,0,0,0,0,0,0,0,0,0,0,0],"sum_hessian":[3.63E2,2.02E2,1.61E2,1.23E2,7.9E1,5.5E1,1.06E2,1.19E2,4E0,2E1,3.5E1,5.8E1,4.8E1],"tree_param":{"num_deleted":"0","num_feature":"31","num_nodes":"13","size_leaf_vector":"1"}},{"base_weights":[3.5427477E-2,2.5995579E0,-3.4796388E0,6.28382E-2,1.8545242E-2,-5.0787015E0,-2.7114615E0,-4.3406248E-2,-7.99279E-2,-4.8661243E-2,-3.3102475E-2],"categories":[],"categories_nodes":[],"categories_segments":[],"categories_sizes":[],"default_left":[0,0,0,0,0,0,0,0,0,0,0],"id":68,"left_children":[1,3,5,-1,-1,7,9,-1,-1,-1,-1],"loss_changes":[3.2266858E3,5.2630774E2,1.8548291E2,0E0,0E0,8.016675E1,2.2517029E1,0E0,0E0,0E0,0E0],"parents":[2147483647,0,0,1,1,2,2,5,5,6,6],"right_children":[2,4,6,-1,-1,8,10,-1,-1,-1,-1],"split_conditions":[7.6548076E3,1E0,1.1777025E4,6.28382E-2,1.8545242E-2,2.393E-1,7.4115247E2,-4.3406248E-2,-7.99279E-2,-4.8661243E-2,-3.3102475E-2],"split_indices":[13,28,13,0,0,0,11,0,0,0,0],"split_type":[0,0,0,0,0,0,0,0,0,0,0],"sum_hessian":[3.58E2,2.07E2,1.51E2,7.6E1,1.31E2,4.9E1,1.02E2,1.6E1,3.3E1,2.1E1,8.1E1],"tree_param":{"num_deleted":"0","num_feature":"31","num_nodes":"11","size_leaf_vector":"1"}},{"base_weights":[-6.842118E-3,2.7033994E0,-3.571992E0,1.3696332E0,6.155285E-2,-5.622332E0,-2.9887056E0,1.933791E-2,-9.379988E-3,-6.8223774E-2,-9.4102226E-2,-4.7323253E-2,-2.9293198E-2],"categories":[],"categories_nodes":[],"categories_segments":[],"categories_sizes":[],"default_left":[0,0,0,0,0,0,0,0,0,0,0,0,0],"id":69,"left_children":[1,3,5,7,-1,9,11,-1,-1,-1,-1,-1,-1],"loss_changes":[3.3335337E3,4.9502625E2,1.7819434E2,1.7760147E1,0E0,2.4449707E1,5.0691895E1,0E0,0E0,0E0,0E0,0E0,0E0],"parents":[2147483647,0,0,1,1,2,2,3,3,5,5,6,6],"right_children":[2,4,6,8,-1,10,12,-1,-1,-1,-1,-1,-1],"split_conditions":[7.6548076E3,1E0,1.0443051E4,8.8165545E-1,6.155285E-2,4.892E-1,1.4689668E4,1.933791E-2,-9.379988E-3,-6.8223774E-2,-9.4102226E-2,-4.7323253E-2,-2.9293198E-2],"split_indices":[13,23,13,14,0,0,13,0,0,0,0,0,0],"split_type":[0,0,0,0,0,0,0,0,0,0,0,0,0],"sum_hessian":[3.45E2,1.96E2,1.49E2,1.15E2,8.1E1,3.3E1,1.16E2,1.11E2,4E0,2.4E1,9E0,6.9E1,4.7E1],"tree_param":{"num_deleted":"0","num_feature":"31","num_nodes":"13","size_leaf_vector":"1"}},{"base_weights":[-1.3762125E-1,2.6345496E0,-3.4107869E0,4.556513E0,1.3909265E0,-2.6950176E0,-3.9590359E0,5.739703E-2,6.852651E-2,1.9510118E-2,-6.8478445E-3,-3.238126E-2,-4.8070107E-2,-4.740958E-2,-6.289431E-2],"categories":[],"categories_nodes":[],"categories_segments":[],"categories_sizes":[],"default_left":[0,0,0,0,0,0,0,0,0,0,0,0,0,0,0],"id":70,"left_children":[1,3,5,7,9,11,13,-1,-1,-1,-1,-1,-1,-1,-1],"loss_changes":[3.2847065E3,4.6847864E2,6.514172E1,1.1664185E1,1.4979263E1,1.7828613E1,2.9024414E1,0E0,0E0,0E0,0E0,0E0,0E0,0E0,0E0],"parents":[2147483647,0,0,1,1,2,2,3,3,4,4,5,5,6,6],"right_children":[2,4,6,8,10,12,14,-1,-1,-1,-1,-1,-1,-1,-1],"split_conditions":[1.5E1,2E0,3.063E-1,5.406413E1,1.154185E0,8.0776E-1,8E1,5.739703E-2,6.852651E-2,1.9510118E-2,-6.8478445E-3,-3.238126E-2,-4.8070107E-2,-4.740958E-2,-6.289431E-2],"split_indices":[15,15,0,12,10,10,15,0,0,0,0,0,0,0,0],"split_type":[0,0,0,0,0,0,0,0,0,0,0,0,0,0,0],"sum_hessian":[3.62E2,1.96E2,1.66E2,7.7E1,1.19E2,7.2E1,9.4E1,5.2E1,2.5E1,1.15E2,4E0,5.5E1,1.7E1,6E1,3.4E1],"tree_param":{"num_deleted":"0","num_feature":"31","num_nodes":"15","size_leaf_vector":"1"}},{"base_weights":[6.4904295E-2,2.49661E0,-3.4114072E0,5.9809558E-2,1.3664107E0,-5.655129E0,-2.8355849E0,1.9200495E-2,-9.973435E-3,-3.5151497E-2,-8.221174E-2,-4.9139913E-2,-3.252864E-2],"categories":[],"categories_nodes":[],"categories_segments":[],"categories_sizes":[],"default_left":[0,0,0,0,0,0,0,0,0,0,0,0,0],"id":71,"left_children":[1,3,5,-1,7,9,11,-1,-1,-1,-1,-1,-1],"loss_changes":[2.9164114E3,4.520265E2,1.8346191E2,0E0,1.840036E1,4.2595764E1,3.8299988E1,0E0,0E0,0E0,0E0,0E0,0E0],"parents":[2147483647,0,0,1,1,2,2,4,4,5,5,6,6],"right_children":[2,4,6,-1,8,10,12,-1,-1,-1,-1,-1,-1],"split_conditions":[7.6548076E3,2E0,1.0287308E4,5.9809558E-2,9.293057E-1,7.0623666E-1,1.3228867E4,1.9200495E-2,-9.973435E-3,-3.5151497E-2,-8.221174E-2,-4.9139913E-2,-3.252864E-2],"split_indices":[13,15,13,0,14,10,13,0,0,0,0,0,0],"split_type":[0,0,0,0,0,0,0,0,0,0,0,0,0],"sum_hessian":[3.45E2,2.03E2,1.42E2,7.4E1,1.29E2,2.9E1,1.13E2,1.25E2,4E0,4E0,2.5E1,3.7E1,7.6E1],"tree_param":{"num_deleted":"0","num_feature":"31","num_nodes":"13","size_leaf_vector":"1"}},{"base_weights":[-4.593383E-3,2.4679325E0,-3.3732023E0,1.3263767E0,4.3359327E0,-4.7425117E0,-2.681632E0,1.8692985E-2,-1.0701318E-2,5.183047E-2,6.2031362E-2,-4.429431E-2,-7.097023E-2,-3.9513238E-2,-2.5229933E-2],"categories":[],"categories_nodes":[],"categories_segments":[],"categories_sizes":[],"default_left":[0,0,0,0,0,0,0,0,0,0,0,0,0,0,0],"id":72,"left_children":[1,3,5,7,9,11,13,-1,-1,-1,-1,-1,-1,-1,-1],"loss_changes":[2.9317983E3,4.328827E2,1.4109912E2,1.8665161E1,1.0628296E1,4.000891E1,2.1264221E1,0E0,0E0,0E0,0E0,0E0,0E0,0E0,0E0],"parents":[2147483647,0,0,1,1,2,2,3,3,4,4,5,5,6,6],"right_children":[2,4,6,8,10,12,14,-1,-1,-1,-1,-1,-1,-1,-1],"split_conditions":[7.6548076E3,1E0,1.1777025E4,8.8165545E-1,1.4617E0,1.324201E-1,1.5958986E4,1.8692985E-2,-1.0701318E-2,5.183047E-2,6.2031362E-2,-4.429431E-2,-7.097023E-2,-3.9513238E-2,-2.5229933E-2],"split_indices":[13,23,13,14,5,14,13,0,0,0,0,0,0,0,0],"split_type":[0,0,0,0,0,0,0,0,0,0,0,0,0,0,0],"sum_hessian":[3.52E2,2.03E2,1.49E2,1.26E2,7.7E1,5E1,9.9E1,1.22E2,4E0,3E1,4.7E1,1.4E1,3.6E1,7.4E1,2.5E1],"tree_param":{"num_deleted":"0","num_feature":"31","num_nodes":"15","size_leaf_vector":"1"}},{"base_weights":[7.0804305E-2,2.4716146E0,-3.4153037E0,1.7444383E-2,4.3618913E0,-4.889056E0,-2.6241314E0,6.112933E-2,5.009403E-2,-4.8915036E-2,-7.613938E-2,-4.779208E-2,-3.0858455E-2],"categories":[],"categories_nodes":[],"categories_segments":[],"categories_sizes":[],"default_left":[0,0,0,0,0,0,0,0,0,0,0,0,0],"id":73,"left_children":[1,3,5,-1,7,9,11,-1,-1,-1,-1,-1,-1],"loss_changes":[2.9962754E3,4.683822E2,1.7023486E2,0E0,1.0230469E1,5.025647E1,2.8688171E1,0E0,0E0,0E0,0E0,0E0,0E0],"parents":[2147483647,0,0,1,1,2,2,4,4,5,5,6,6],"right_children":[2,4,6,-1,8,10,12,-1,-1,-1,-1,-1,-1],"split_conditions":[7.6548076E3,1E0,3.693E2,1.7444383E-2,9.58568E1,2.0028476E-1,7.421846E2,6.112933E-2,5.009403E-2,-4.8915036E-2,-7.613938E-2,-4.779208E-2,-3.0858455E-2],"split_indices":[13,29,19,0,9,14,11,0,0,0,0,0,0],"split_type":[0,0,0,0,0,0,0,0,0,0,0,0,0],"sum_hessian":[3.58E2,2.12E2,1.46E2,1.31E2,8.1E1,5.1E1,9.5E1,6.1E1,2E1,2E1,3.1E1,2.4E1,7.1E1],"tree_param":{"num_deleted":"0","num_feature":"31","num_nodes":"13","size_leaf_vector":"1"}},{"base_weights":[-6.4557284E-2,2.4584374E0,-3.2183008E0,4.239601E0,1.2961526E0,-4.5465817E0,-2.5731356E0,5.8608748E-2,4.4428304E-2,1.856407E-2,2.7136658E-3,-4.1942656E-2,-6.953347E-2,-3.216781E-2,-4.9311243E-2],"categories":[],"categories_nodes":[],"categories_segments":[],"categories_sizes":[],"default_left":[0,0,0,0,0,0,0,0,0,0,0,0,0,0,0],"id":74,"left_children":[1,3,5,7,9,11,13,-1,-1,-1,-1,-1,-1,-1,-1],"loss_changes":[2.7928643E3,4.0369287E2,1.3368604E2,9.759399E0,1.1649948E1,4.662329E1,1.9889893E1,0E0,0E0,0E0,0E0,0E0,0E0,0E0,0E0],"parents":[2147483647,0,0,1,1,2,2,3,3,4,4,5,5,6,6],"right_children":[2,4,6,8,10,12,14,-1,-1,-1,-1,-1,-1,-1,-1],"split_conditions":[1.513E2,1E0,3.693E2,1.09E2,6.6199E0,7.56805E-1,1.0556983E0,5.8608748E-2,4.4428304E-2,1.856407E-2,2.7136658E-3,-4.1942656E-2,-6.953347E-2,-3.216781E-2,-4.9311243E-2],"split_indices":[19,28,19,18,16,10,10,0,0,0,0,0,0,0,0],"split_type":[0,0,0,0,0,0,0,0,0,0,0,0,0,0,0],"sum_hessian":[3.51E2,1.95E2,1.56E2,7.7E1,1.18E2,5.1E1,1.05E2,6.7E1,1E1,1.09E2,9E0,1.6E1,3.5E1,9.1E1,1.4E1],"tree_param":{"num_deleted":"0","num_feature":"31","num_nodes":"15","size_leaf_vector":"1"}},{"base_weights":[-2.531123E-2,2.3653986E0,-3.394039E0,1.6347792E-2,5.5935487E-2,-4.777661E0,-2.5809827E0,-5.3067382E-2,-7.896492E-2,-4.6246912E-2,-2.9573983E-2],"categories":[],"categories_nodes":[],"categories_segments":[],"categories_sizes":[],"default_left":[0,0,0,0,0,0,0,0,0,0,0],"id":75,"left_children":[1,3,5,-1,-1,7,9,-1,-1,-1,-1],"loss_changes":[2.9879043E3,4.5003625E2,1.7324438E2,0E0,0E0,5.197827E1,3.1522156E1,0E0,0E0,0E0,0E0],"parents":[2147483647,0,0,1,1,2,2,5,5,6,6],"right_children":[2,4,6,-1,-1,8,10,-1,-1,-1,-1],"split_conditions":[1.513E2,1E0,3.693E2,1.6347792E-2,5.5935487E-2,9.321125E-1,7.4651263E2,-5.3067382E-2,-7.896492E-2,-4.6246912E-2,-2.9573983E-2],"split_indices":[19,23,19,0,0,10,11,0,0,0,0],"split_type":[0,0,0,0,0,0,0,0,0,0,0],"sum_hessian":[3.71E2,2.17E2,1.54E2,1.33E2,8.4E1,5.7E1,9.7E1,3.3E1,2.4E1,2.9E1,6.8E1],"tree_param":{"num_deleted":"0","num_feature":"31","num_nodes":"11","size_leaf_vector":"1"}},{"base_weights":[7.928432E-2,2.4093606E0,-3.3187437E0,5.679158E-2,1.6228706E-2,-4.789518E0,-2.462139E0,-4.441892E-2,-7.426769E-2,-2.482549E-2,-4.093229E-2],"categories":[],"categories_nodes":[],"categories_segments":[],"categories_sizes":[],"default_left":[0,0,0,0,0,0,0,0,0,0,0],"id":76,"left_children":[1,3,5,-1,-1,7,9,-1,-1,-1,-1],"loss_changes":[2.8028533E3,4.6065527E2,1.8142151E2,0E0,0E0,5.9071045E1,3.291577E1,0E0,0E0,0E0,0E0],"parents":[2147483647,0,0,1,1,2,2,5,5,6,6],"right_children":[2,4,6,-1,-1,8,10,-1,-1,-1,-1],"split_conditions":[7.6548076E3,2E0,1.1777025E4,5.679158E-2,1.6228706E-2,2.743E-1,3.4E-1,-4.441892E-2,-7.426769E-2,-2.482549E-2,-4.093229E-2],"split_indices":[13,15,13,0,0,0,0,0,0,0,0],"split_type":[0,0,0,0,0,0,0,0,0,0,0],"sum_hessian":[3.54E2,2.1E2,1.44E2,8.3E1,1.27E2,5.3E1,9.1E1,1.8E1,3.5E1,4.5E1,4.6E1],"tree_param":{"num_deleted":"0","num_feature":"31","num_nodes":"11","size_leaf_vector":"1"}},{"base_weights":[8.0551535E-2,2.4428358E0,-3.1092844E0,5.63811E-2,1.7174052E-2,-4.8832254E0,-2.6371872E0,-3.356537E-2,-7.1067184E-2,-3.258337E-2,-5.372434E-2],"categories":[],"categories_nodes":[],"categories_segments":[],"categories_sizes":[],"default_left":[0,0,0,0,0,0,0,0,0,0,0],"id":77,"left_children":[1,3,5,-1,-1,7,9,-1,-1,-1,-1],"loss_changes":[2.7805251E3,4.348484E2,1.3148328E2,0E0,0E0,3.3279358E1,3.4739807E1,0E0,0E0,0E0,0E0],"parents":[2147483647,0,0,1,1,2,2,5,5,6,6],"right_children":[2,4,6,-1,-1,8,10,-1,-1,-1,-1],"split_conditions":[7.6548076E3,2E0,1.038636E4,5.63811E-2,1.7174052E-2,7.063367E-1,5.054E-1,-3.356537E-2,-7.1067184E-2,-3.258337E-2,-5.372434E-2],"split_indices":[13,15,13,0,0,10,0,0,0,0,0],"split_type":[0,0,0,0,0,0,0,0,0,0,0],"sum_hessian":[3.69E2,2.12E2,1.57E2,8.4E1,1.28E2,3.3E1,1.24E2,5E0,2.8E1,1.08E2,1.6E1],"tree_param":{"num_deleted":"0","num_feature":"31","num_nodes":"11","size_leaf_vector":"1"}},{"base_weights":[6.9232486E-2,2.3118577E0,-3.0673063E0,4.0825934E0,1.1797478E0,-4.794223E0,-2.5492313E0,4.8272908E-2,5.786081E-2,1.669601E-2,-1.0738758E-2,-8.111303E-2,-5.0093647E-2,-3.0495578E-2,-5.4035258E-2],"categories":[],"categories_nodes":[],"categories_segments":[],"categories_sizes":[],"default_left":[0,0,0,0,0,0,0,0,0,0,0,0,0,0,0],"id":78,"left_children":[1,3,5,7,9,11,13,-1,-1,-1,-1,-1,-1,-1,-1],"loss_changes":[2.4126895E3,4.009336E2,1.2793823E2,8.887573E0,1.624205E1,4.391095E1,4.4421814E1,0E0,0E0,0E0,0E0,0E0,0E0,0E0,0E0],"parents":[2147483647,0,0,1,1,2,2,3,3,4,4,5,5,6,6],"right_children":[2,4,6,8,10,12,14,-1,-1,-1,-1,-1,-1,-1,-1],"split_conditions":[7.6548076E3,2E0,3.029E2,1.3703E0,8.8165545E-1,8.272E2,1.0459008E0,4.8272908E-2,5.786081E-2,1.669601E-2,-1.0738758E-2,-8.111303E-2,-5.0093647E-2,-3.0495578E-2,-5.4035258E-2],"split_indices":[13,15,19,5,14,17,10,0,0,0,0,0,0,0,0],"split_type":[0,0,0,0,0,0,0,0,0,0,0,0,0,0,0],"sum_hessian":[3.43E2,2E2,1.43E2,7.8E1,1.22E2,3.3E1,1.1E2,2.6E1,5.2E1,1.18E2,4E0,1.5E1,1.8E1,9.3E1,1.7E1],"tree_param":{"num_deleted":"0","num_feature":"31","num_nodes":"15","size_leaf_vector":"1"}},{"base_weights":[-1.2565775E-1,2.2168353E0,-3.06879E0,1.5808892E-2,3.9251034E0,-4.916528E0,-2.4942832E0,3.2085657E-2,5.3725835E-2,-7.77844E-2,-5.3213537E-2,-3.9346192E-2,-2.6237674E-2],"categories":[],"categories_nodes":[],"categories_segments":[],"categories_sizes":[],"default_left":[0,0,0,0,0,0,0,0,0,0,0,0,0],"id":79,"left_children":[1,3,5,-1,7,9,11,-1,-1,-1,-1,-1,-1],"loss_changes":[2.4267817E3,3.4692853E2,1.6559998E2,0E0,9.883423E0,3.1125793E1,2.8269897E1,0E0,0E0,0E0,0E0,0E0,0E0],"parents":[2147483647,0,0,1,1,2,2,4,4,5,5,6,6],"right_children":[2,4,6,-1,8,10,12,-1,-1,-1,-1,-1,-1],"split_conditions":[7.6548076E3,1E0,1.0443051E4,1.5808892E-2,2.2720432E1,8.272E2,1.4314344E4,3.2085657E-2,5.3725835E-2,-7.77844E-2,-5.3213537E-2,-3.9346192E-2,-2.6237674E-2],"split_indices":[13,23,13,0,12,17,13,0,0,0,0,0,0],"split_type":[0,0,0,0,0,0,0,0,0,0,0,0,0],"sum_hessian":[3.52E2,1.96E2,1.56E2,1.22E2,7.4E1,3.7E1,1.19E2,4E0,7E1,1.9E1,1.8E1,6.5E1,5.4E1],"tree_param":{"num_deleted":"0","num_feature":"31","num_nodes":"13","size_leaf_vector":"1"}},{"base_weights":[7.212909E-2,2.204559E0,-2.8617508E0,5.240941E-2,1.176134E0,-4.0774684E0,-2.2660494E0,1.6604729E-2,-1.0806641E-2,-3.8506877E-2,-6.3143685E-2,-2.7926192E-2,-4.518053E-2],"categories":[],"categories_nodes":[],"categories_segments":[],"categories_sizes":[],"default_left":[0,0,0,0,0,0,0,0,0,0,0,0,0],"id":80,"left_children":[1,3,5,-1,7,9,11,-1,-1,-1,-1,-1,-1],"loss_changes":[2.2147278E3,3.604278E2,1.07906494E2,0E0,1.6240128E1,3.758612E1,1.9993042E1,0E0,0E0,0E0,0E0,0E0,0E0],"parents":[2147483647,0,0,1,1,2,2,4,4,5,5,6,6],"right_children":[2,4,6,-1,8,10,12,-1,-1,-1,-1,-1,-1],"split_conditions":[7.6548076E3,2E0,3.819E2,5.240941E-2,9.293057E-1,2.357E-1,5.054E-1,1.6604729E-2,-1.0806641E-2,-3.8506877E-2,-6.3143685E-2,-2.7926192E-2,-4.518053E-2],"split_indices":[13,15,19,0,14,0,0,0,0,0,0,0,0],"split_type":[0,0,0,0,0,0,0,0,0,0,0,0,0],"sum_hessian":[3.54E2,2.05E2,1.49E2,7.7E1,1.28E2,4.9E1,1E2,1.24E2,4E0,1.7E1,3.2E1,8.6E1,1.4E1],"tree_param":{"num_deleted":"0","num_feature":"31","num_nodes":"13","size_leaf_vector":"1"}},{"base_weights":[2.7126264E-2,2.177774E0,-2.9606862E0,3.863399E0,1.4942445E-2,-2.2858179E0,-3.441627E0,3.4028526E-2,5.2909978E-2,-2.5864024E-2,-3.6365204E-2,-3.0489594E-2,-4.9596358E-2],"categories":[],"categories_nodes":[],"categories_segments":[],"categories_sizes":[],"default_left":[0,0,0,0,0,0,0,0,0,0,0,0,0],"id":81,"left_children":[1,3,5,7,-1,9,11,-1,-1,-1,-1,-1,-1],"loss_changes":[2.2875605E3,3.704917E2,4.836133E1,9.321289E0,0E0,9.444458E0,2.6588135E1,0E0,0E0,0E0,0E0,0E0,0E0],"parents":[2147483647,0,0,1,1,2,2,3,3,5,5,6,6],"right_children":[2,4,6,8,-1,10,12,-1,-1,-1,-1,-1,-1],"split_conditions":[1.5E1,2E0,3.063E-1,1.118E-1,1.4942445E-2,9.563E-1,2.5E1,3.4028526E-2,5.2909978E-2,-2.5864024E-2,-3.6365204E-2,-3.0489594E-2,-4.9596358E-2],"split_indices":[15,15,0,0,0,6,15,0,0,0,0,0,0],"split_type":[0,0,0,0,0,0,0,0,0,0,0,0,0],"sum_hessian":[3.56E2,2.07E2,1.49E2,8E1,1.27E2,6.2E1,8.7E1,5E0,7.5E1,3.4E1,2.8E1,1.6E1,7.1E1],"tree_param":{"num_deleted":"0","num_feature":"31","num_nodes":"13","size_leaf_vector":"1"}},{"base_weights":[-1.0250112E-2,2.2266638E0,-2.9310613E0,5.156796E-2,1.6175324E-2,-4.1417103E0,-2.314096E0,-4.4250824E-2,-6.8996474E-2,-2.8605625E-2,-5.3352505E-2],"categories":[],"categories_nodes":[],"categories_segments":[],"categories_sizes":[],"default_left":[0,0,0,0,0,0,0,0,0,0,0],"id":82,"left_children":[1,3,5,-1,-1,7,9,-1,-1,-1,-1],"loss_changes":[2.3651643E3,3.3925458E2,1.1726782E2,0E0,0E0,4.4852478E1,3.0873901E1,0E0,0E0,0E0,0E0],"parents":[2147483647,0,0,1,1,2,2,5,5,6,6],"right_children":[2,4,6,-1,-1,8,10,-1,-1,-1,-1],"split_conditions":[1.5E1,2E0,3.749E2,5.156796E-2,1.6175324E-2,9.321125E-1,1.0745667E0,-4.4250824E-2,-6.8996474E-2,-2.8605625E-2,-5.3352505E-2],"split_indices":[15,15,19,0,0,10,10,0,0,0,0],"split_type":[0,0,0,0,0,0,0,0,0,0,0],"sum_hessian":[3.62E2,2.05E2,1.57E2,7.9E1,1.26E2,5.3E1,1.04E2,2.9E1,2.4E1,9.4E1,1E1],"tree_param":{"num_deleted":"0","num_feature":"31","num_nodes":"11","size_leaf_vector":"1"}},{"base_weights":[2.1671994E-1,2.1795645E0,-2.7343152E0,1.5063523E-2,5.2150488E-2,-4.5307446E0,-2.2458127E0,-6.434074E-2,-4.155406E-2,-3.907192E-2,-2.6708981E-2],"categories":[],"categories_nodes":[],"categories_segments":[],"categories_sizes":[],"default_left":[0,0,0,0,0,0,0,0,0,0,0],"id":83,"left_children":[1,3,5,-1,-1,7,9,-1,-1,-1,-1],"loss_changes":[2.1026494E3,3.943247E2,1.27246216E2,0E0,0E0,1.2145081E1,1.9241333E1,0E0,0E0,0E0,0E0],"parents":[2147483647,0,0,1,1,2,2,5,5,6,6],"right_children":[2,4,6,-1,-1,8,10,-1,-1,-1,-1],"split_conditions":[1.513E2,1E0,3.029E2,1.5063523E-2,5.2150488E-2,7.55E1,7.45473E2,-6.434074E-2,-4.155406E-2,-3.907192E-2,-2.6708981E-2],"split_indices":[19,23,19,0,0,18,11,0,0,0,0],"split_type":[0,0,0,0,0,0,0,0,0,0,0],"sum_hessian":[3.63E2,2.18E2,1.45E2,1.35E2,8.3E1,3.1E1,1.14E2,2.6E1,5E0,3.1E1,8.3E1],"tree_param":{"num_deleted":"0","num_feature":"31","num_nodes":"11","size_leaf_vector":"1"}},{"base_weights":[3.4698702E-2,2.1579654E0,-2.80098E0,3.774592E0,1.5666354E-2,-4.304116E0,-2.384144E0,4.6945404E-2,5.7593253E-2,-8.9358486E-2,-5.3254753E-2,-4.3338776E-2,-2.7166508E-2],"categories":[],"categories_nodes":[],"categories_segments":[],"categories_sizes":[],"default_left":[0,0,0,0,0,0,0,0,0,0,0,0,0],"id":84,"left_children":[1,3,5,7,-1,9,11,-1,-1,-1,-1,-1,-1],"loss_changes":[2.1374202E3,3.242168E2,9.523743E1,1.0890015E1,0E0,2.555664E1,3.6041138E1,0E0,0E0,0E0,0E0,0E0,0E0],"parents":[2147483647,0,0,1,1,2,2,3,3,5,5,6,6],"right_children":[2,4,6,8,-1,10,12,-1,-1,-1,-1,-1,-1],"split_conditions":[1.513E2,1E0,3.024E2,5.2262947E1,1.5666354E-2,5.9E-3,7.4651263E2,4.6945404E-2,5.7593253E-2,-8.9358486E-2,-5.3254753E-2,-4.3338776E-2,-2.7166508E-2],"split_indices":[19,28,19,12,0,4,11,0,0,0,0,0,0],"split_type":[0,0,0,0,0,0,0,0,0,0,0,0,0],"sum_hessian":[3.55E2,2.03E2,1.52E2,7.7E1,1.26E2,3.3E1,1.19E2,5.1E1,2.6E1,4E0,2.9E1,3.5E1,8.4E1],"tree_param":{"num_deleted":"0","num_feature":"31","num_nodes":"13","size_leaf_vector":"1"}},{"base_weights":[1.859457E-2,2.140278E0,-2.7279685E0,3.714923E0,1.171266E0,-3.8389032E0,-2.1493566E0,5.2673038E-2,4.212069E-2,1.7329985E-2,3.5653969E-3,-6.1337486E-2,-4.1466303E-2,-3.219141E-2,-1.8543027E-2],"categories":[],"categories_nodes":[],"categories_segments":[],"categories_sizes":[],"default_left":[0,0,0,0,0,0,0,0,0,0,0,0,0,0,0],"id":85,"left_children":[1,3,5,7,9,11,13,-1,-1,-1,-1,-1,-1,-1,-1],"loss_changes":[1.9521581E3,2.8838574E2,9.3848755E1,8.971252E0,1.3024506E1,2.7530457E1,1.8702118E1,0E0,0E0,0E0,0E0,0E0,0E0,0E0,0E0],"parents":[2147483647,0,0,1,1,2,2,3,3,4,4,5,5,6,6],"right_children":[2,4,6,8,10,12,14,-1,-1,-1,-1,-1,-1,-1,-1],"split_conditions":[7.6548076E3,2E0,1.1777025E4,9.59297E1,1.5116E0,8.272E2,1.5958986E4,5.2673038E-2,4.212069E-2,1.7329985E-2,3.5653969E-3,-6.1337486E-2,-4.1466303E-2,-3.219141E-2,-1.8543027E-2],"split_indices":[13,15,13,9,6,17,13,0,0,0,0,0,0,0,0],"split_type":[0,0,0,0,0,0,0,0,0,0,0,0,0,0,0],"sum_hessian":[3.35E2,1.89E2,1.46E2,7.2E1,1.17E2,5E1,9.6E1,5.2E1,2E1,1.03E2,1.4E1,2.5E1,2.5E1,7.2E1,2.4E1],"tree_param":{"num_deleted":"0","num_feature":"31","num_nodes":"15","size_leaf_vector":"1"}},{"base_weights":[3.274604E-2,1.994979E0,-2.7685997E0,4.778782E-2,1.3657963E-2,-4.514858E0,-2.2843435E0,-5.2478798E-2,-8.1716605E-2,-3.543586E-2,-2.2016231E-2],"categories":[],"categories_nodes":[],"categories_segments":[],"categories_sizes":[],"default_left":[0,0,0,0,0,0,0,0,0,0,0],"id":86,"left_children":[1,3,5,-1,-1,7,9,-1,-1,-1,-1],"loss_changes":[2.0283538E3,3.3300293E2,1.2853687E2,0E0,0E0,3.1209412E1,2.758496E1,0E0,0E0,0E0,0E0],"parents":[2147483647,0,0,1,1,2,2,5,5,6,6],"right_children":[2,4,6,-1,-1,8,10,-1,-1,-1,-1],"split_conditions":[7.6548076E3,2E0,3.029E2,4.778782E-2,1.3657963E-2,7.3529205E1,1.4689668E4,-5.2478798E-2,-8.1716605E-2,-3.543586E-2,-2.2016231E-2],"split_indices":[13,15,19,0,0,12,13,0,0,0,0],"split_type":[0,0,0,0,0,0,0,0,0,0,0],"sum_hessian":[3.69E2,2.17E2,1.52E2,8.3E1,1.34E2,3.3E1,1.19E2,2.4E1,9E0,7.6E1,4.3E1],"tree_param":{"num_deleted":"0","num_feature":"31","num_nodes":"11","size_leaf_vector":"1"}},{"base_weights":[4.76384E-3,2.0764844E0,-2.7445006E0,1.095947E0,4.7265586E-2,-3.9910235E0,-2.047914E0,1.5522374E-2,-1.1187579E-2,-3.4459848E-2,-6.219824E-2,-2.5612958E-2,-5.1959097E-2],"categories":[],"categories_nodes":[],"categories_segments":[],"categories_sizes":[],"default_left":[0,0,0,0,0,0,0,0,0,0,0,0,0],"id":87,"left_children":[1,3,5,7,-1,9,11,-1,-1,-1,-1,-1,-1],"loss_changes":[2.1074119E3,3.0072015E2,1.380614E2,1.5411728E1,0E0,5.285437E1,2.5241302E1,0E0,0E0,0E0,0E0,0E0,0E0],"parents":[2147483647,0,0,1,1,2,2,3,3,5,5,6,6],"right_children":[2,4,6,8,-1,10,12,-1,-1,-1,-1,-1,-1],"split_conditions":[7.6548076E3,1E0,1.1777025E4,8.8165545E-1,4.7265586E-2,2.743E-1,1.0745667E0,1.5522374E-2,-1.1187579E-2,-3.4459848E-2,-6.219824E-2,-2.5612958E-2,-5.1959097E-2],"split_indices":[13,23,13,14,0,0,10,0,0,0,0,0,0],"split_type":[0,0,0,0,0,0,0,0,0,0,0,0,0],"sum_hessian":[3.7E2,2.11E2,1.59E2,1.26E2,8.5E1,5.7E1,1.02E2,1.22E2,4E0,1.8E1,3.9E1,9.5E1,7E0],"tree_param":{"num_deleted":"0","num_feature":"31","num_nodes":"13","size_leaf_vector":"1"}},{"base_weights":[-2.8516142E-2,2.0336614E0,-2.7052498E0,3.5220265E0,1.4608602E-2,-3.9835062E0,-2.053339E0,4.3780267E-2,5.4051615E-2,-6.860011E-2,-4.6978913E-2,-3.7867125E-2,-2.2833124E-2],"categories":[],"categories_nodes":[],"categories_segments":[],"categories_sizes":[],"default_left":[0,0,0,0,0,0,0,0,0,0,0,0,0],"id":88,"left_children":[1,3,5,7,-1,9,11,-1,-1,-1,-1,-1,-1],"loss_changes":[1.9154052E3,2.74984E2,1.2582971E2,9.872131E0,0E0,2.7608337E1,2.6965942E1,0E0,0E0,0E0,0E0,0E0,0E0],"parents":[2147483647,0,0,1,1,2,2,3,3,5,5,6,6],"right_children":[2,4,6,8,-1,10,12,-1,-1,-1,-1,-1,-1],"split_conditions":[7.6548076E3,2E0,1.1777025E4,5.1744026E1,1.4608602E-2,2.202E2,7.45473E2,4.3780267E-2,5.4051615E-2,-6.860011E-2,-4.6978913E-2,-3.7867125E-2,-2.2833124E-2],"split_indices":[13,15,13,12,0,19,11,0,0,0,0,0,0],"split_type":[0,0,0,0,0,0,0,0,0,0,0,0,0],"sum_hessian":[3.47E2,1.96E2,1.51E2,7.6E1,1.2E2,5.1E1,1E2,5.1E1,2.5E1,1.5E1,3.6E1,3.1E1,6.9E1],"tree_param":{"num_deleted":"0","num_feature":"31","num_nodes":"13","size_leaf_vector":"1"}},{"base_weights":[1.9197987E-2,1.9997436E0,-2.7104E0,3.4927676E0,1.0423846E0,-4.309555E0,-2.195418E0,4.812757E-2,2.9082796E-2,1.475066E-2,-1.1233396E-2,-4.186646E-2,-6.415605E-2,-3.544146E-2,-1.9933706E-2],"categories":[],"categories_nodes":[],"categories_segments":[],"categories_sizes":[],"default_left":[0,0,0,0,0,0,0,0,0,0,0,0,0,0,0],"id":89,"left_children":[1,3,5,7,9,11,13,-1,-1,