{"learner":{"attributes":{"scikit_learn":"{\"_estimator_type\": \"regressor\"}"},"feature_names":["C","Si","Mn","P","S","Ni","Cr","Cu","Mo","Carbon_Equiv","A3_Temp_C","Delta_HT_A3","Hollomon_Jaffe","C_x_Cr","HT_Temp_C","Soaking_Time_min","Tempering_Temp_C","Tempering_Time_min","Process_Quench_Temper","Process_Normalizing","Process_Annealing","Process_Stress_Relief","Cooling_Medium_Water","Cooling_Medium_Oil","Cooling_Medium_Polymer","Cooling_Medium_Air","Cooling_Medium_Furnace","Cooling_Medium_Salt Bath"],"feature_types":["float","float","float","float","float","float","float","float","float","float","float","float","float","float","float","float","float","float","float","float","float","float","float","float","float","float","float","float"],"gradient_booster":{"model":{"cats":{"enc":[],"feature_segments":[],"sorted_idx":[]},"gbtree_model_param":{"num_parallel_tree":"1","num_trees":"200"},"iteration_indptr":[0,1,2,3,4,5,6,7,8,9,10,11,12,13,14,15,16,17,18,19,20,21,22,23,24,25,26,27,28,29,30,31,32,33,34,35,36,37,38,39,40,41,42,43,44,45,46,47,48,49,50,51,52,53,54,55,56,57,58,59,60,61,62,63,64,65,66,67,68,69,70,71,72,73,74,75,76,77,78,79,80,81,82,83,84,85,86,87,88,89,90,91,92,93,94,95,96,97,98,99,100,101,102,103,104,105,106,107,108,109,110,111,112,113,114,115,116,117,118,119,120,121,122,123,124,125,126,127,128,129,130,131,132,133,134,135,136,137,138,139,140,141,142,143,144,145,146,147,148,149,150,151,152,153,154,155,156,157,158,159,160,161,162,163,164,165,166,167,168,169,170,171,172,173,174,175,176,177,178,179,180,181,182,183,184,185,186,187,188,189,190,191,192,193,194,195,196,197,198,199,200],"tree_info":[0,0,0,0,0,0,0,0,0,0,0,0,0,0,0,0,0,0,0,0,0,0,0,0,0,0,0,0,0,0,0,0,0,0,0,0,0,0,0,0,0,0,0,0,0,0,0,0,0,0,0,0,0,0,0,0,0,0,0,0,0,0,0,0,0,0,0,0,0,0,0,0,0,0,0,0,0,0,0,0,0,0,0,0,0,0,0,0,0,0,0,0,0,0,0,0,0,0,0,0,0,0,0,0,0,0,0,0,0,0,0,0,0,0,0,0,0,0,0,0,0,0,0,0,0,0,0,0,0,0,0,0,0,0,0,0,0,0,0,0,0,0,0,0,0,0,0,0,0,0,0,0,0,0,0,0,0,0,0,0,0,0,0,0,0,0,0,0,0,0,0,0,0,0,0,0,0,0,0,0,0,0,0,0,0,0,0,0,0,0,0,0,0,0,0,0,0,0,0,0],"trees":[{"base_weights":[-1.3727448E0,-2.9874942E2,3.9132578E2,-3.5102124E2,-2.0471843E2,8.1275635E2,2.8030893E2,-1.9451002E1,-3.0245767E2,-1.5776898E2,-1.3217181E1,2.3926456E1,4.357404E1,3.583237E2,1.3365324E2,-1.6577246E1,-1.1725082E1,-8.674666E0,-4.2692204E0,1.3071877E1,2.3909508E1,3.116857E0,9.410632E0],"categories":[],"categories_nodes":[],"categories_segments":[],"categories_sizes":[],"default_left":[0,0,0,0,0,0,0,0,0,0,0,0,0,0,0,0,0,0,0,0,0,0,0],"id":0,"left_children":[1,3,5,7,9,11,13,-1,15,17,-1,-1,-1,19,21,-1,-1,-1,-1,-1,-1,-1,-1],"loss_changes":[4.2274264E7,9.40666E5,7.070778E6,1.24081E5,1.7104675E5,2.11042E5,1.382273E6,0E0,4.48045E4,3.6405375E4,0E0,0E0,0E0,8.15669E5,1.6336075E5,0E0,0E0,0E0,0E0,0E0,0E0,0E0,0E0],"parents":[2147483647,0,0,1,1,2,2,3,3,4,4,5,5,6,6,8,8,9,9,13,13,14,14],"right_children":[2,4,6,8,10,12,14,-1,16,18,-1,-1,-1,20,22,-1,-1,-1,-1,-1,-1,-1,-1],"split_conditions":[7.6548076E3,4.055E-1,1.0580706E4,2.391E-1,1E0,2.313E-1,1.4874195E4,-1.9451002E1,1E0,5.652E-1,-1.3217181E1,2.3926456E1,4.357404E1,3.496E-1,7.7254915E-1,-1.6577246E1,-1.1725082E1,-8.674666E0,-4.2692204E0,1.3071877E1,2.3909508E1,3.116857E0,9.410632E0],"split_indices":[12,0,12,0,20,0,12,0,19,0,0,0,0,0,9,0,0,0,0,0,0,0,0],"split_type":[0,0,0,0,0,0,0,0,0,0,0,0,0,0,0,0,0,0,0,0,0,0,0],"sum_hessian":[3.6E2,2.05E2,1.55E2,1.3E2,7.5E1,3.1E1,1.24E2,6.9E1,6.1E1,4.4E1,3.1E1,6E0,2.5E1,8E1,4.4E1,4E1,2.1E1,3.5E1,9E0,4.6E1,3.4E1,2E1,2.4E1],"tree_param":{"num_deleted":"0","num_feature":"28","num_nodes":"23","size_leaf_vector":"1"}},{"base_weights":[-4.532099E0,-2.847014E2,3.807305E2,-3.2065503E2,-2.1477711E2,6.9607367E2,2.5399881E2,-3.5706985E2,-2.6225763E2,-1.3816075E1,-1.5555637E2,2.154752E1,3.982977E1,3.9194678E2,1.727042E2,-1.045766E1,-1.820246E1,-8.190997E0,-1.3762549E1,-8.207723E0,-1.8567543E0,2.497488E1,1.4062311E1,5.563403E0,1.3435065E1],"categories":[],"categories_nodes":[],"categories_segments":[],"categories_sizes":[],"default_left":[0,0,0,0,0,0,0,0,0,0,0,0,0,0,0,0,0,0,0,0,0,0,0,0,0],"id":1,"left_children":[1,3,5,7,9,11,13,15,17,-1,19,-1,-1,21,23,-1,-1,-1,-1,-1,-1,-1,-1,-1,-1],"loss_changes":[3.896634E7,4.56564E5,5.897724E6,1.95563E5,2.2672425E5,8.02686E5,1.1658965E6,7.479E3,2.65345E4,0E0,3.4631938E4,0E0,0E0,3.357555E5,3.88838E5,0E0,0E0,0E0,0E0,0E0,0E0,0E0,0E0,0E0,0E0],"parents":[2147483647,0,0,1,1,2,2,3,3,4,4,5,5,6,6,7,7,8,8,10,10,13,13,14,14],"right_children":[2,4,6,8,10,12,14,16,18,-1,20,-1,-1,22,24,-1,-1,-1,-1,-1,-1,-1,-1,-1,-1],"split_conditions":[7.6548076E3,9.213675E-1,1.1090057E4,1E0,1E0,7.742892E-1,4.745E2,7.3986475E2,8.051E2,-1.3816075E1,8.8165545E-1,2.154752E1,3.982977E1,7.644365E2,9.0869E-1,-1.045766E1,-1.820246E1,-8.190997E0,-1.3762549E1,-8.207723E0,-1.8567543E0,2.497488E1,1.4062311E1,5.563403E0,1.3435065E1],"split_indices":[12,9,12,19,25,9,16,10,14,0,13,0,0,10,9,0,0,0,0,0,0,0,0,0,0],"split_type":[0,0,0,0,0,0,0,0,0,0,0,0,0,0,0,0,0,0,0,0,0,0,0,0,0],"sum_hessian":[3.59E2,2.08E2,1.51E2,1.35E2,7.3E1,4.2E1,1.09E2,8E1,5.5E1,3.4E1,3.9E1,1.3E1,2.9E1,3.9E1,7E1,5E0,7.5E1,8E0,4.7E1,3.6E1,3E0,1.8E1,2.1E1,4.4E1,2.6E1],"tree_param":{"num_deleted":"0","num_feature":"28","num_nodes":"25","size_leaf_vector":"1"}},{"base_weights":[1.5464039E0,-2.7236813E2,3.620433E2,-3.085259E2,-2.1000394E2,6.605005E2,2.4155972E2,-3.361888E2,-2.2926163E2,-1.3264148E2,-2.582081E2,3.631458E1,1.985504E1,3.1625552E2,1.1434423E2,-1.4765759E1,-1.8703327E1,-7.919091E0,-1.2905115E1,-6.9968324E0,-2.329558E0,-1.3677115E1,-6.57533E0,1.3466697E1,2.0645693E1,3.4307544E0,7.949178E0],"categories":[],"categories_nodes":[],"categories_segments":[],"categories_sizes":[],"default_left":[0,0,0,0,0,0,0,0,0,0,0,0,0,0,0,0,0,0,0,0,0,0,0,0,0,0,0],"id":2,"left_children":[1,3,5,7,9,11,13,15,17,19,21,-1,-1,23,25,-1,-1,-1,-1,-1,-1,-1,-1,-1,-1,-1,-1],"loss_changes":[3.544944E7,3.95218E5,5.414126E6,2.01395E5,2.5662775E5,4.7408E5,1.028114E6,3.1967E4,3.271325E4,1.35681875E4,5.534225E4,0E0,0E0,2.062635E5,7.686806E4,0E0,0E0,0E0,0E0,0E0,0E0,0E0,0E0,0E0,0E0,0E0,0E0],"parents":[2147483647,0,0,1,1,2,2,3,3,4,4,5,5,6,6,7,7,8,8,9,9,10,10,13,13,14,14],"right_children":[2,4,6,8,10,12,14,16,18,20,22,-1,-1,24,26,-1,-1,-1,-1,-1,-1,-1,-1,-1,-1,-1,-1],"split_conditions":[7.6548076E3,1E0,1.1090057E4,4.19991E-1,8.051E2,8.487E2,1.4874195E4,7.814E2,6.052E2,1.524E0,3.309022E-1,3.631458E1,1.985504E1,4.038427E-1,2.3511492E-1,-1.4765759E1,-1.8703327E1,-7.919091E0,-1.2905115E1,-6.9968324E0,-2.329558E0,-1.3677115E1,-6.57533E0,1.3466697E1,2.0645693E1,3.4307544E0,7.949178E0],"split_indices":[12,19,12,13,14,14,12,14,14,6,13,0,0,13,13,0,0,0,0,0,0,0,0,0,0,0,0],"split_type":[0,0,0,0,0,0,0,0,0,0,0,0,0,0,0,0,0,0,0,0,0,0,0,0,0,0,0],"sum_hessian":[3.57E2,2.03E2,1.54E2,1.26E2,7.7E1,4.3E1,1.11E2,9.1E1,3.5E1,3.1E1,4.6E1,3.3E1,1E1,6.9E1,4.2E1,4.8E1,4.3E1,1.2E1,2.3E1,2.8E1,3E0,4E1,6E0,4.9E1,2E1,2.2E1,2E1],"tree_param":{"num_deleted":"0","num_feature":"28","num_nodes":"27","size_leaf_vector":"1"}},{"base_weights":[-4.9712777E0,-2.5794113E2,3.4370496E2,-2.9789737E2,-1.8816298E2,5.6923737E2,1.9681763E2,-1.6363771E1,-2.396568E2,-1.5182892E2,-1.1952743E1,1.8524323E1,6.503274E2,2.655424E2,1.1951856E2,-9.010692E0,-1.3150832E1,-5.9199424E0,-9.026153E0,3.5767807E1,2.1407125E1,1.6174921E1,8.121673E0,3.0351691E0,8.4423895E0],"categories":[],"categories_nodes":[],"categories_segments":[],"categories_sizes":[],"default_left":[0,0,0,0,0,0,0,0,0,0,0,0,0,0,0,0,0,0,0,0,0,0,0,0,0],"id":3,"left_children":[1,3,5,7,9,11,13,-1,15,17,-1,-1,19,21,23,-1,-1,-1,-1,-1,-1,-1,-1,-1,-1],"loss_changes":[3.2724348E7,5.43383E5,5.05591E6,1.5255E5,1.1348225E5,7.42184E5,4.7824975E5,0E0,2.064125E4,2.6588625E4,0E0,0E0,3.00558E5,2.4624225E5,1.2611181E5,0E0,0E0,0E0,0E0,0E0,0E0,0E0,0E0,0E0,0E0],"parents":[2147483647,0,0,1,1,2,2,3,3,4,4,5,5,6,6,8,8,9,9,12,12,13,13,14,14],"right_children":[2,4,6,8,10,12,14,-1,16,18,-1,-1,20,22,24,-1,-1,-1,-1,-1,-1,-1,-1,-1,-1],"split_conditions":[7.6548076E3,9.021175E-1,3.91E2,1E0,1E0,7.636025E-1,1.4709034E4,-1.6363771E1,7.7576184E2,7.4021124E2,-1.1952743E1,1.8524323E1,1.1258729E4,7.711528E2,8.026508E-1,-9.010692E0,-1.3150832E1,-5.9199424E0,-9.026153E0,3.5767807E1,2.1407125E1,1.6174921E1,8.121673E0,3.0351691E0,8.4423895E0],"split_indices":[12,9,16,19,20,9,12,0,10,10,0,0,12,10,9,0,0,0,0,0,0,0,0,0,0],"split_type":[0,0,0,0,0,0,0,0,0,0,0,0,0,0,0,0,0,0,0,0,0,0,0,0,0],"sum_hessian":[3.69E2,2.14E2,1.55E2,1.34E2,8E1,6E1,9.5E1,8.6E1,4.8E1,4.9E1,3.1E1,1.9E1,4.1E1,4.9E1,4.6E1,1.6E1,3.2E1,2.5E1,2.4E1,3E1,1.1E1,3E1,1.9E1,2.2E1,2.4E1],"tree_param":{"num_deleted":"0","num_feature":"28","num_nodes":"25","size_leaf_vector":"1"}},{"base_weights":[3.9656067E0,-2.4468677E2,3.427297E2,-2.7939197E2,-1.7750723E2,6.4676056E2,2.325446E2,-2.4665831E2,-1.6565147E1,-1.3130266E2,-1.160403E1,2.4139494E1,3.6947453E1,3.0221683E2,1.0691658E2,-1.2491243E1,-5.766492E0,-6.988312E0,-1.8666729E0,1.2762753E1,2.1483383E1,2.3839939E0,7.9464617E0],"categories":[],"categories_nodes":[],"categories_segments":[],"categories_sizes":[],"default_left":[0,0,0,0,0,0,0,0,0,0,0,0,0,0,0,0,0,0,0,0,0,0,0],"id":4,"left_children":[1,3,5,7,9,11,13,15,-1,17,-1,-1,-1,19,21,-1,-1,-1,-1,-1,-1,-1,-1],"loss_changes":[3.1840268E7,4.58668E5,5.209546E6,1.59573E5,1.6368575E5,2.78124E5,1.009269E6,9.031E3,0E0,2.9776E4,0E0,0E0,0E0,3.452095E5,1.2798881E5,0E0,0E0,0E0,0E0,0E0,0E0,0E0,0E0],"parents":[2147483647,0,0,1,1,2,2,3,3,4,4,5,5,6,6,7,7,9,9,13,13,14,14],"right_children":[2,4,6,8,10,12,14,16,-1,18,-1,-1,-1,20,22,-1,-1,-1,-1,-1,-1,-1,-1],"split_conditions":[7.6548076E3,9.213675E-1,3.083E2,1E0,1E0,8.4675914E-1,5.435E2,4.4186142E-1,-1.6565147E1,8.8165545E-1,-1.160403E1,2.4139494E1,3.6947453E1,9.89125E-1,7.7254915E-1,-1.2491243E1,-5.766492E0,-6.988312E0,-1.8666729E0,1.2762753E1,2.1483383E1,2.3839939E0,7.9464617E0],"split_indices":[12,9,16,20,20,9,16,13,0,13,0,0,0,9,9,0,0,0,0,0,0,0,0],"split_type":[0,0,0,0,0,0,0,0,0,0,0,0,0,0,0,0,0,0,0,0,0,0,0],"sum_hessian":[3.76E2,2.17E2,1.59E2,1.41E2,7.6E1,4.1E1,1.18E2,9E1,5.1E1,4.3E1,3.3E1,1.7E1,2.4E1,7.5E1,4.3E1,8.7E1,3E0,3.9E1,4E0,5.7E1,1.8E1,2.1E1,2.2E1],"tree_param":{"num_deleted":"0","num_feature":"28","num_nodes":"23","size_leaf_vector":"1"}},{"base_weights":[6.2014008E0,-2.2579674E2,3.271661E2,-1.7697133E2,-2.7479187E2,5.943409E2,2.0627666E2,-2.1131548E2,-1.1831087E2,-2.8030014E2,-6.7217226E0,1.8100195E1,3.3846634E1,2.718929E2,1.00181595E2,-1.1348954E1,-7.456507E0,-7.554153E0,-4.604043E0,-1.5225888E1,-1.1971316E1,1.12210455E1,1.9564592E1,2.012951E0,8.1947E0],"categories":[],"categories_nodes":[],"categories_segments":[],"categories_sizes":[],"default_left":[0,0,0,0,0,0,0,0,0,0,0,0,0,0,0,0,0,0,0,0,0,0,0,0,0],"id":5,"left_children":[1,3,5,7,9,11,13,15,17,19,-1,-1,-1,21,23,-1,-1,-1,-1,-1,-1,-1,-1,-1,-1],"loss_changes":[2.8220972E7,4.77655E5,5.01288E6,2.02654E5,4.5816E4,6.95216E5,7.45495E5,3.43335E4,2.391125E4,2.90465E4,0E0,0E0,0E0,2.97617E5,1.613855E5,0E0,0E0,0E0,0E0,0E0,0E0,0E0,0E0,0E0,0E0],"parents":[2147483647,0,0,1,1,2,2,3,3,4,4,5,5,6,6,7,7,8,8,9,9,13,13,14,14],"right_children":[2,4,6,8,10,12,14,16,18,20,-1,-1,-1,22,24,-1,-1,-1,-1,-1,-1,-1,-1,-1,-1],"split_conditions":[7.6548076E3,7.6976514E2,1.1090057E4,1E0,5.082307E-1,7.742892E-1,1.4709034E4,1.0509892E0,9.08425E-1,1E0,-6.7217226E0,1.8100195E1,3.3846634E1,9.89125E-1,8.026508E-1,-1.1348954E1,-7.456507E0,-7.554153E0,-4.604043E0,-1.5225888E1,-1.1971316E1,1.12210455E1,1.9564592E1,2.012951E0,8.1947E0],"split_indices":[12,10,12,19,13,9,12,9,9,19,0,0,0,9,9,0,0,0,0,0,0,0,0,0,0],"split_type":[0,0,0,0,0,0,0,0,0,0,0,0,0,0,0,0,0,0,0,0,0,0,0,0,0],"sum_hessian":[3.77E2,2.19E2,1.58E2,1.12E2,1.07E2,4.8E1,1.1E2,6.9E1,4.3E1,1.02E2,5E0,1.4E1,3.4E1,6.7E1,4.3E1,5.3E1,1.6E1,1.7E1,2.6E1,6E1,4.2E1,5E1,1.7E1,2.3E1,2E1],"tree_param":{"num_deleted":"0","num_feature":"28","num_nodes":"25","size_leaf_vector":"1"}},{"base_weights":[8.060142E0,-2.1667416E2,3.1008572E2,-2.810342E2,-1.6064868E2,5.980312E2,2.0031761E2,-1.2693259E1,-1.621931E1,-1.2859827E2,-2.1176727E2,2.0551586E1,3.4864944E1,3.0719565E2,1.3276729E2,-7.142376E0,-3.246395E0,-1.1952541E1,-8.655018E0,1.0417088E1,2.0041794E1,3.179098E0,9.731228E0],"categories":[],"categories_nodes":[],"categories_segments":[],"categories_sizes":[],"default_left":[0,0,0,0,0,0,0,0,0,0,0,0,0,0,0,0,0,0,0,0,0,0,0],"id":6,"left_children":[1,3,5,7,9,11,13,-1,-1,15,17,-1,-1,19,21,-1,-1,-1,-1,-1,-1,-1,-1],"loss_changes":[2.4502372E7,7.01253E5,4.747717E6,2.95435E4,1.5790325E5,4.93034E5,7.750345E5,0E0,0E0,5.604775E4,2.929125E3,0E0,0E0,3.145275E5,2.9147812E5,0E0,0E0,0E0,0E0,0E0,0E0,0E0,0E0],"parents":[2147483647,0,0,1,1,2,2,3,3,4,4,5,5,6,6,9,9,10,10,13,13,14,14],"right_children":[2,4,6,8,10,12,14,-1,-1,16,18,-1,-1,20,22,-1,-1,-1,-1,-1,-1,-1,-1],"split_conditions":[1.513E2,2.943E-1,3.083E2,1E0,1E0,8.4675914E-1,4.745E2,-1.2693259E1,-1.621931E1,5.559E-1,4.41E-1,2.0551586E1,3.4864944E1,2.801E-1,3.106E-1,-7.142376E0,-3.246395E0,-1.1952541E1,-8.655018E0,1.0417088E1,2.0041794E1,3.179098E0,9.731228E0],"split_indices":[16,0,16,20,20,9,16,0,0,0,0,0,0,0,0,0,0,0,0,0,0,0,0],"split_type":[0,0,0,0,0,0,0,0,0,0,0,0,0,0,0,0,0,0,0,0,0,0,0],"sum_hessian":[3.59E2,2.06E2,1.53E2,9.4E1,1.12E2,4.1E1,1.12E2,6.2E1,3.2E1,7.1E1,4.1E1,1.6E1,2.5E1,4.2E1,7E1,5.7E1,1.4E1,2.1E1,2E1,2.2E1,2E1,3.4E1,3.6E1],"tree_param":{"num_deleted":"0","num_feature":"28","num_nodes":"23","size_leaf_vector":"1"}},{"base_weights":[-2.939684E0,-2.1263492E2,2.86594E2,-2.650604E2,-1.4905925E2,1.4110661E2,3.7950488E2,-2.351564E2,-1.5197934E1,-1.1699342E2,-9.671575E0,5.7316757E1,1.6006984E2,4.1197946E2,2.2963257E2,-1.2042595E1,-6.7131257E0,-6.3772473E0,-2.9198098E0,6.9708962E0,9.372309E-1,3.1813269E0,9.1295E0,1.5734674E1,2.377904E1,4.367342E0,1.3087616E1],"categories":[],"categories_nodes":[],"categories_segments":[],"categories_sizes":[],"default_left":[0,0,0,0,0,0,0,0,0,0,0,0,0,0,0,0,0,0,0,0,0,0,0,0,0,0,0],"id":7,"left_children":[1,3,5,7,9,11,13,15,-1,17,-1,19,21,23,25,-1,-1,-1,-1,-1,-1,-1,-1,-1,-1,-1,-1],"loss_changes":[2.240363E7,6.73749E5,2.04164E6,6.3455E4,1.1823025E5,8.933875E4,3.62898E5,7.88775E3,0E0,2.964925E4,0E0,3.8555297E4,9.69785E4,3.20589E5,6.3970125E4,0E0,0E0,0E0,0E0,0E0,0E0,0E0,0E0,0E0,0E0,0E0,0E0],"parents":[2147483647,0,0,1,1,2,2,3,3,4,4,5,5,6,6,7,7,9,9,11,11,12,12,13,13,14,14],"right_children":[2,4,6,8,10,12,14,16,-1,18,-1,20,22,24,26,-1,-1,-1,-1,-1,-1,-1,-1,-1,-1,-1,-1],"split_conditions":[3.02E1,3.478E-1,2.728E-1,1E0,1E0,1.145E-1,1E0,3.082E-1,-1.5197934E1,5.652E-1,-9.671575E0,2.086E-1,1E-2,9.149E-1,3.496E-1,-1.2042595E1,-6.7131257E0,-6.3772473E0,-2.9198098E0,6.9708962E0,9.372309E-1,3.1813269E0,9.1295E0,1.5734674E1,2.377904E1,4.367342E0,1.3087616E1],"split_indices":[17,0,0,20,20,7,27,0,0,0,0,1,3,9,0,0,0,0,0,0,0,0,0,0,0,0,0],"split_type":[0,0,0,0,0,0,0,0,0,0,0,0,0,0,0,0,0,0,0,0,0,0,0,0,0,0,0],"sum_hessian":[3.67E2,2.13E2,1.54E2,1.15E2,9.8E1,6.1E1,9.3E1,6.9E1,4.6E1,5.9E1,3.9E1,1.2E1,4.9E1,7.5E1,1.8E1,6.4E1,5E0,4.9E1,1E1,3E0,9E0,1E1,3.9E1,3.2E1,4.3E1,4E0,1.4E1],"tree_param":{"num_deleted":"0","num_feature":"28","num_nodes":"27","size_leaf_vector":"1"}},{"base_weights":[-2.4261572E0,-2.0440335E2,2.7243158E2,-2.5926825E2,-1.5066264E2,5.652283E2,1.7822742E2,-1.1624215E1,-1.477035E1,-1.1666976E2,-1.944685E2,1.946914E1,3.1570572E1,2.9089734E2,1.0273574E2,-6.3387938E0,-3.0734892E0,-1.0992175E1,-7.78202E0,1.00205145E1,1.9026968E1,1.9745754E0,7.247964E0],"categories":[],"categories_nodes":[],"categories_segments":[],"categories_sizes":[],"default_left":[0,0,0,0,0,0,0,0,0,0,0,0,0,0,0,0,0,0,0,0,0,0,0],"id":8,"left_children":[1,3,5,7,9,11,13,-1,-1,15,17,-1,-1,19,21,-1,-1,-1,-1,-1,-1,-1,-1],"loss_changes":[2.0707264E7,5.94861E5,4.257322E6,3.2956E4,1.4260025E5,1.96383E5,9.9929675E5,0E0,0E0,2.8467812E4,1.209075E4,0E0,0E0,3.1308525E5,1.918845E5,0E0,0E0,0E0,0E0,0E0,0E0,0E0,0E0],"parents":[2147483647,0,0,1,1,2,2,3,3,4,4,5,5,6,6,9,9,10,10,13,13,14,14],"right_children":[2,4,6,8,10,12,14,-1,-1,16,18,-1,-1,20,22,-1,-1,-1,-1,-1,-1,-1,-1],"split_conditions":[1.513E2,2.88E-1,3.083E2,1E0,1E0,8.4675914E-1,4.745E2,-1.1624215E1,-1.477035E1,5.559E-1,4.467E-1,1.946914E1,3.1570572E1,2.962E-1,2.728E-1,-6.3387938E0,-3.0734892E0,-1.0992175E1,-7.78202E0,1.00205145E1,1.9026968E1,1.9745754E0,7.247964E0],"split_indices":[16,0,16,20,20,9,16,0,0,0,0,0,0,0,0,0,0,0,0,0,0,0,0],"split_type":[0,0,0,0,0,0,0,0,0,0,0,0,0,0,0,0,0,0,0,0,0,0,0],"sum_hessian":[3.71E2,2.14E2,1.57E2,1.04E2,1.1E2,3.7E1,1.2E2,6.4E1,4E1,6.4E1,4.6E1,1.2E1,2.5E1,4.7E1,7.3E1,5.3E1,1.1E1,2.5E1,2.1E1,2.5E1,2.2E1,3E1,4.3E1],"tree_param":{"num_deleted":"0","num_feature":"28","num_nodes":"23","size_leaf_vector":"1"}},{"base_weights":[-1.0612765E1,-1.8861649E2,2.5469485E2,-2.2440747E2,-1.2221761E2,5.2698553E2,1.7996155E2,-2.4604027E2,-1.845349E2,-1.4503662E2,-8.073417E1,1.6540167E1,3.0056137E1,2.8539688E2,1.1289507E2,-1.3575441E1,-1.0564804E1,-1.0496112E1,-6.4805474E0,-5.5384574E0,-8.018566E0,-4.718654E0,-2.1327577E0,9.718974E0,1.8036518E1,1.0400319E1,3.7263603E0],"categories":[],"categories_nodes":[],"categories_segments":[],"categories_sizes":[],"default_left":[0,0,0,0,0,0,0,0,0,0,0,0,0,0,0,0,0,0,0,0,0,0,0,0,0,0,0],"id":9,"left_children":[1,3,5,7,9,11,13,15,17,19,21,-1,-1,23,25,-1,-1,-1,-1,-1,-1,-1,-1,-1,-1,-1,-1],"loss_changes":[1.7757694E7,5.072815E5,2.977888E6,7.96675E4,6.4966E4,2.66568E5,8.1632125E5,2.3155E4,4.948225E4,9.035375E3,1.2074547E4,0E0,0E0,2.452875E5,2.5818912E5,0E0,0E0,0E0,0E0,0E0,0E0,0E0,0E0,0E0,0E0,0E0,0E0],"parents":[2147483647,0,0,1,1,2,2,3,3,4,4,5,5,6,6,7,7,8,8,9,9,10,10,13,13,14,14],"right_children":[2,4,6,8,10,12,14,16,18,20,22,-1,-1,24,26,-1,-1,-1,-1,-1,-1,-1,-1,-1,-1,-1,-1],"split_conditions":[1.513E2,4.055E-1,3.083E2,1E0,1E0,2.743E-1,4.66E2,2.522E-1,2.513E-1,6.219E2,5.13E-1,1.6540167E1,3.0056137E1,2.801E-1,7.45473E2,-1.3575441E1,-1.0564804E1,-1.0496112E1,-6.4805474E0,-5.5384574E0,-8.018566E0,-4.718654E0,-2.1327577E0,9.718974E0,1.8036518E1,1.0400319E1,3.7263603E0],"split_indices":[16,0,16,19,19,0,16,0,0,14,0,0,0,0,10,0,0,0,0,0,0,0,0,0,0,0,0],"split_type":[0,0,0,0,0,0,0,0,0,0,0,0,0,0,0,0,0,0,0,0,0,0,0,0,0,0,0],"sum_hessian":[3.74E2,2.24E2,1.5E2,1.44E2,8E1,3.1E1,1.19E2,9E1,5.4E1,5E1,3E1,1E1,2.1E1,4.5E1,7.4E1,4.8E1,4.2E1,3.5E1,1.9E1,1.8E1,3.2E1,2.1E1,9E0,2.2E1,2.3E1,2E1,5.4E1],"tree_param":{"num_deleted":"0","num_feature":"28","num_nodes":"27","size_leaf_vector":"1"}},{"base_weights":[4.0043783E0,-1.7902065E2,2.421333E2,-2.159284E2,-1.1095399E2,1.3944766E2,3.1930264E2,-1.2193739E1,-1.8316272E2,-8.850311E1,-7.3942003E0,1.1420985E2,2.2221927E2,2.6458884E2,4.080744E2,-7.872973E0,-1.0818088E1,-5.02307E0,-2.2910173E0,8.058011E0,4.160333E0,1.7258413E1,7.6236124E0,9.732711E0,1.6518307E1,2.2560293E1,1.1906535E1],"categories":[],"categories_nodes":[],"categories_segments":[],"categories_sizes":[],"default_left":[0,0,0,0,0,0,0,0,0,0,0,0,0,0,0,0,0,0,0,0,0,0,0,0,0,0,0],"id":10,"left_children":[1,3,5,7,9,11,13,-1,15,17,-1,19,21,23,25,-1,-1,-1,-1,-1,-1,-1,-1,-1,-1,-1,-1],"loss_changes":[1.664868E7,5.18675E5,1.270887E6,8.2611E4,5.15825E4,1.27115375E5,3.4859E5,0E0,2.395775E4,2.1427875E4,0E0,7.101594E4,8.4576625E4,2.162995E5,1.417715E5,0E0,0E0,0E0,0E0,0E0,0E0,0E0,0E0,0E0,0E0,0E0,0E0],"parents":[2147483647,0,0,1,1,2,2,3,3,4,4,5,5,6,6,8,8,9,9,11,11,12,12,13,13,14,14],"right_children":[2,4,6,8,10,12,14,-1,16,18,-1,20,22,24,26,-1,-1,-1,-1,-1,-1,-1,-1,-1,-1,-1,-1],"split_conditions":[3.02E1,4.055E-1,3.079E-1,2.391E-1,1E0,2.85E-2,4.85E-1,-1.2193739E1,1E0,5.652E-1,-7.3942003E0,1.4762E0,7.11E1,2.325E-1,1E0,-7.872973E0,-1.0818088E1,-5.02307E0,-2.2910173E0,8.058011E0,4.160333E0,1.7258413E1,7.6236124E0,9.732711E0,1.6518307E1,2.2560293E1,1.1906535E1],"split_indices":[17,0,0,0,20,3,0,0,20,0,0,5,17,8,27,0,0,0,0,0,0,0,0,0,0,0,0],"split_type":[0,0,0,0,0,0,0,0,0,0,0,0,0,0,0,0,0,0,0,0,0,0,0,0,0,0,0],"sum_hessian":[3.8E2,2.15E2,1.65E2,1.38E2,7.7E1,7.2E1,9.3E1,7.1E1,6.7E1,5E1,2.7E1,5.7E1,1.5E1,6E1,3.3E1,4.1E1,2.6E1,3.8E1,1.2E1,2.1E1,3.6E1,4E0,1.1E1,3.1E1,2.9E1,2.5E1,8E0],"tree_param":{"num_deleted":"0","num_feature":"28","num_nodes":"27","size_leaf_vector":"1"}},{"base_weights":[-1.2027135E1,-1.7194745E2,2.3541815E2,-2.2134697E2,-1.2278111E2,4.2406705E2,1.2467082E2,-9.888633E0,-1.2694858E1,-9.6538345E1,-1.5995122E2,1.2079393E1,5.0058362E2,1.8216075E2,5.8933666E1,-5.5214286E0,-3.155352E0,-9.136399E0,-6.443432E0,1.3864781E1,2.6427755E1,6.3162637E0,1.3663154E1,2.4964993E-1,4.107076E0],"categories":[],"categories_nodes":[],"categories_segments":[],"categories_sizes":[],"default_left":[0,0,0,0,0,0,0,0,0,0,0,0,0,0,0,0,0,0,0,0,0,0,0,0,0],"id":11,"left_children":[1,3,5,7,9,11,13,-1,-1,15,17,-1,19,21,23,-1,-1,-1,-1,-1,-1,-1,-1,-1,-1],"loss_changes":[1.400923E7,4.95013E5,2.8511685E6,3.1125E4,9.185775E4,5.91162E5,3.256155E5,0E0,0E0,2.4143938E4,7.602375E3,0E0,7.2034E4,2.0455688E5,5.3419312E4,0E0,0E0,0E0,0E0,0E0,0E0,0E0,0E0,0E0,0E0],"parents":[2147483647,0,0,1,1,2,2,3,3,4,4,5,5,6,6,9,9,10,10,12,12,13,13,14,14],"right_children":[2,4,6,8,10,12,14,-1,-1,16,18,-1,20,22,24,-1,-1,-1,-1,-1,-1,-1,-1,-1,-1],"split_conditions":[7.6548076E3,3.015E-1,1.2035189E4,1E0,1E0,2.387E-1,1.4709034E4,-9.888633E0,-1.2694858E1,5.197E-1,4.58E-1,1.2079393E1,3.394E-1,3.987E-1,2.431E-1,-5.5214286E0,-3.155352E0,-9.136399E0,-6.443432E0,1.3864781E1,2.6427755E1,6.3162637E0,1.3663154E1,2.4964993E-1,4.107076E0],"split_indices":[12,0,12,26,26,0,12,0,0,0,0,0,6,0,0,0,0,0,0,0,0,0,0,0,0],"split_type":[0,0,0,0,0,0,0,0,0,0,0,0,0,0,0,0,0,0,0,0,0,0,0,0,0],"sum_hessian":[3.52E2,2.14E2,1.38E2,1.05E2,1.09E2,5E1,8.8E1,6.5E1,4E1,6.6E1,4.3E1,1.6E1,3.4E1,4.6E1,4.2E1,4.5E1,2.1E1,2.2E1,2.1E1,5E0,2.9E1,3E1,1.6E1,1.3E1,2.9E1],"tree_param":{"num_deleted":"0","num_feature":"28","num_nodes":"25","size_leaf_vector":"1"}},{"base_weights":[9.235594E0,-1.6498132E2,2.2588814E2,-1.0730576E1,-1.3858821E2,3.9872363E2,1.2497366E2,-1.6083806E2,-9.955309E1,3.007098E2,2.5766493E1,1.708303E2,5.7517178E1,-8.5175905E0,-5.021089E0,-6.1688094E0,-3.2075546E0,1.7438757E1,1.1091689E1,6.924003E0,1.314812E1,4.5909134E-1,4.5313487E0],"categories":[],"categories_nodes":[],"categories_segments":[],"categories_sizes":[],"default_left":[0,0,0,0,0,0,0,0,0,0,0,0,0,0,0,0,0,0,0,0,0,0,0],"id":12,"left_children":[1,3,5,-1,7,9,11,13,15,17,-1,19,21,-1,-1,-1,-1,-1,-1,-1,-1,-1,-1],"loss_changes":[1.3889512E7,2.37476E5,2.8105935E6,0E0,1.021075E5,5.30776E5,3.1497362E5,3.174975E4,3.594128E4,5.532175E4,0E0,1.4837575E5,6.95843E4,0E0,0E0,0E0,0E0,0E0,0E0,0E0,0E0,0E0,0E0],"parents":[2147483647,0,0,1,1,2,2,4,4,5,5,6,6,7,7,8,8,9,9,11,11,12,12],"right_children":[2,4,6,-1,8,10,12,14,16,18,-1,20,22,-1,-1,-1,-1,-1,-1,-1,-1,-1,-1],"split_conditions":[1.513E2,7.276775E-1,3.724E2,-1.0730576E1,1E0,9.321125E-1,5.435E2,1.1015859E0,9.095233E-1,3.083E2,2.5766493E1,9.89125E-1,7.654833E-1,-8.5175905E0,-5.021089E0,-6.1688094E0,-3.2075546E0,1.7438757E1,1.1091689E1,6.924003E0,1.314812E1,4.5909134E-1,4.5313487E0],"split_indices":[16,9,16,0,19,9,16,9,9,16,0,9,9,0,0,0,0,0,0,0,0,0,0],"split_type":[0,0,0,0,0,0,0,0,0,0,0,0,0,0,0,0,0,0,0,0,0,0,0],"sum_hessian":[3.66E2,2.03E2,1.63E2,6.8E1,1.35E2,5.9E1,1.04E2,8.4E1,5.1E1,3.4E1,2.5E1,6.1E1,4.3E1,7.1E1,1.3E1,2.9E1,2.2E1,1.9E1,1.5E1,4.7E1,1.4E1,1.8E1,2.5E1],"tree_param":{"num_deleted":"0","num_feature":"28","num_nodes":"23","size_leaf_vector":"1"}},{"base_weights":[6.5992963E-1,-1.559741E2,2.122671E2,-1.932197E2,-1.1033331E2,3.4400446E2,9.721975E1,-1.0696361E1,-1.5111568E2,-1.3058972E2,-6.7005585E1,2.0620853E2,4.1597534E2,5.593465E1,1.6691609E2,-8.303707E0,-5.118654E0,-5.5188518E0,-7.595678E0,-3.7564182E0,-9.642736E-1,1.1163157E1,6.4011345E0,2.4120628E1,1.622952E1,4.3377833E0,2.4190412E-1,1.0628433E1,3.4368615E0],"categories":[],"categories_nodes":[],"categories_segments":[],"categories_sizes":[],"default_left":[0,0,0,0,0,0,0,0,0,0,0,0,0,0,0,0,0,0,0,0,0,0,0,0,0,0,0,0,0],"id":13,"left_children":[1,3,5,7,9,11,13,-1,15,17,19,21,23,25,27,-1,-1,-1,-1,-1,-1,-1,-1,-1,-1,-1,-1,-1,-1],"loss_changes":[1.1766397E7,3.25465E5,2.2551175E6,6.445E4,7.3750125E4,6.08433E5,2.2661206E5,0E0,1.21630625E4,1.0386E4,1.0954953E4,6.0865E3,1.16625E5,8.30472E4,1.1985225E5,0E0,0E0,0E0,0E0,0E0,0E0,0E0,0E0,0E0,0E0,0E0,0E0,0E0,0E0],"parents":[2147483647,0,0,1,1,2,2,3,3,4,4,5,5,6,6,8,8,9,9,10,10,11,11,12,12,13,13,14,14],"right_children":[2,4,6,8,10,12,14,-1,16,18,20,22,24,26,28,-1,-1,-1,-1,-1,-1,-1,-1,-1,-1,-1,-1,-1,-1],"split_conditions":[7.6548076E3,3.478E-1,4.302E2,1E0,1E0,2.522E-1,4.242E-1,-1.0696361E1,2.494E-1,7.638E2,5.652E-1,2.2862E0,1.0443051E4,1.5601645E4,1.590294E4,-8.303707E0,-5.118654E0,-5.5188518E0,-7.595678E0,-3.7564182E0,-9.642736E-1,1.1163157E1,6.4011345E0,2.4120628E1,1.622952E1,4.3377833E0,2.4190412E-1,1.0628433E1,3.4368615E0],"split_indices":[12,0,16,19,19,0,0,0,0,14,0,5,12,12,12,0,0,0,0,0,0,0,0,0,0,0,0,0,0],"split_type":[0,0,0,0,0,0,0,0,0,0,0,0,0,0,0,0,0,0,0,0,0,0,0,0,0,0,0,0,0],"sum_hessian":[3.53E2,2.03E2,1.5E2,1.1E2,9.3E1,6.9E1,8.1E1,7.1E1,3.9E1,6.2E1,3.1E1,2.5E1,4.4E1,5.2E1,2.9E1,2.8E1,1.1E1,3.5E1,2.7E1,2.6E1,5E0,1.9E1,6E0,2.3E1,2.1E1,3.2E1,2E1,1.9E1,1E1],"tree_param":{"num_deleted":"0","num_feature":"28","num_nodes":"29","size_leaf_vector":"1"}},{"base_weights":[8.044408E0,-1.5081178E2,2.1149388E2,-1.8750838E2,-1.0729055E2,4.3096536E2,1.4028073E2,-1.0374396E1,-7.4188323E0,-1.2598956E2,-7.168665E1,1.512468E1,4.960137E2,1.9827383E2,4.9689426E1,-7.7125497E0,-5.490995E0,-4.166767E0,-1.170575E0,2.6951456E1,1.6034428E1,6.438251E0,1.3720616E1,-4.6075198E-1,3.7479222E0],"categories":[],"categories_nodes":[],"categories_segments":[],"categories_sizes":[],"default_left":[0,0,0,0,0,0,0,0,0,0,0,0,0,0,0,0,0,0,0,0,0,0,0,0,0],"id":14,"left_children":[1,3,5,7,9,11,13,-1,-1,15,17,-1,19,21,23,-1,-1,-1,-1,-1,-1,-1,-1,-1,-1],"loss_changes":[1.127898E7,2.9291E5,2.3308205E6,5.13065E4,5.2217875E4,1.59163E5,6.0482725E5,0E0,0E0,1.0021875E4,1.7168625E4,0E0,5.985E2,3.404185E5,7.0648266E4,0E0,0E0,0E0,0E0,0E0,0E0,0E0,0E0,0E0,0E0],"parents":[2147483647,0,0,1,1,2,2,3,3,4,4,5,5,6,6,9,9,10,10,12,12,13,13,14,14],"right_children":[2,4,6,8,10,12,14,-1,-1,16,18,-1,20,22,24,-1,-1,-1,-1,-1,-1,-1,-1,-1,-1],"split_conditions":[7.6548076E3,3.234E-1,3.024E2,1E0,1E0,3.507E-1,1.4567777E4,-1.0374396E1,-7.4188323E0,4.229E-1,5.13E-1,1.512468E1,1.009734E4,3.234E-1,2.431E-1,-7.7125497E0,-5.490995E0,-4.166767E0,-1.170575E0,2.6951456E1,1.6034428E1,6.438251E0,1.3720616E1,-4.6075198E-1,3.7479222E0],"split_indices":[12,0,16,19,19,0,12,0,0,0,0,0,12,0,0,0,0,0,0,0,0,0,0,0,0],"split_type":[0,0,0,0,0,0,0,0,0,0,0,0,0,0,0,0,0,0,0,0,0,0,0,0,0],"sum_hessian":[3.47E2,1.95E2,1.52E2,1.04E2,9.1E1,3.6E1,1.16E2,6.6E1,3.8E1,5.8E1,3.3E1,1.4E1,2.2E1,7E1,4.6E1,1.8E1,4E1,2.6E1,7E0,1.6E1,6E0,3.8E1,3.2E1,1.4E1,3.2E1],"tree_param":{"num_deleted":"0","num_feature":"28","num_nodes":"25","size_leaf_vector":"1"}},{"base_weights":[1.6016462E1,-1.3946664E2,1.9624529E2,-1.6906783E2,-8.613867E1,3.5243237E2,1.0245061E2,-1.8815878E2,-1.4048233E2,-1.02904305E2,-5.4384666E1,1.95617E2,4.2082053E2,1.4954124E2,3.915316E1,-1.02766285E1,-7.5795074E0,-7.709385E0,-4.9147673E0,-5.3233066E0,-1.9444329E0,-3.1697118E0,-9.793361E-1,4.8456964E0,1.033417E1,2.3907372E1,1.6162096E1,4.5416427E0,1.0559539E1,8.398037E-1,5.1480827E0],"categories":[],"categories_nodes":[],"categories_segments":[],"categories_sizes":[],"default_left":[0,0,0,0,0,0,0,0,0,0,0,0,0,0,0,0,0,0,0,0,0,0,0,0,0,0,0,0,0,0,0],"id":15,"left_children":[1,3,5,7,9,11,13,15,17,19,21,23,25,27,29,-1,-1,-1,-1,-1,-1,-1,-1,-1,-1,-1,-1,-1,-1,-1,-1],"loss_changes":[1.0227574E7,2.9483675E5,2.4396615E6,4.17825E4,3.2734688E4,5.933115E5,3.1308175E5,1.45875E4,1.6066375E4,6.3482188E3,7.223203E3,2.907625E3,8.598E4,2.0159688E5,6.531953E4,0E0,0E0,0E0,0E0,0E0,0E0,0E0,0E0,0E0,0E0,0E0,0E0,0E0,0E0,0E0,0E0],"parents":[2147483647,0,0,1,1,2,2,3,3,4,4,5,5,6,6,7,7,8,8,9,9,10,10,11,11,12,12,13,13,14,14],"right_children":[2,4,6,8,10,12,14,16,18,20,22,24,26,28,30,-1,-1,-1,-1,-1,-1,-1,-1,-1,-1,-1,-1,-1,-1,-1,-1],"split_conditions":[7.6548076E3,4.222E-1,1.2035189E4,2.522E-1,1E0,2.387E-1,1.5207469E4,1E0,1E0,8.5475993E-1,5.652E-1,1.351E-1,1.009734E4,3.234E-1,4.825E-1,-1.02766285E1,-7.5795074E0,-7.709385E0,-4.9147673E0,-5.3233066E0,-1.9444329E0,-3.1697118E0,-9.793361E-1,4.8456964E0,1.033417E1,2.3907372E1,1.6162096E1,4.5416427E0,1.0559539E1,8.398037E-1,5.1480827E0],"split_indices":[12,0,12,0,19,0,12,19,19,13,0,0,12,0,0,0,0,0,0,0,0,0,0,0,0,0,0,0,0,0,0],"split_type":[0,0,0,0,0,0,0,0,0,0,0,0,0,0,0,0,0,0,0,0,0,0,0,0,0,0,0,0,0,0,0],"sum_hessian":[3.63E2,1.95E2,1.68E2,1.24E2,7.1E1,6.2E1,1.06E2,7.1E1,5.3E1,4.5E1,2.6E1,2E1,4.2E1,6E1,4.6E1,4.5E1,2.6E1,3.8E1,1.5E1,4.2E1,3E0,2E1,6E0,3E0,1.7E1,2.4E1,1.8E1,3.2E1,2.8E1,3.5E1,1.1E1],"tree_param":{"num_deleted":"0","num_feature":"28","num_nodes":"31","size_leaf_vector":"1"}},{"base_weights":[-9.832434E-1,-1.3261285E2,1.7910019E2,-1.5982965E2,-8.6209114E1,1.0233778E2,2.483571E2,-1.4334995E2,-9.2604475E0,-6.503353E1,-5.790235E0,8.20239E1,1.6577065E2,1.4220564E2,2.818334E2,-7.9529777E0,-5.6194463E0,-3.4358532E0,-4.5886156E-1,3.1318285E0,6.9920855E0,1.8440377E0,9.633875E0,9.19707E0,1.9209517E0,7.824392E0,1.5449796E1],"categories":[],"categories_nodes":[],"categories_segments":[],"categories_sizes":[],"default_left":[0,0,0,0,0,0,0,0,0,0,0,0,0,0,0,0,0,0,0,0,0,0,0,0,0,0,0],"id":16,"left_children":[1,3,5,7,9,11,13,15,-1,17,-1,19,21,23,25,-1,-1,-1,-1,-1,-1,-1,-1,-1,-1,-1,-1],"loss_changes":[8.083217E6,2.350245E5,7.40135E5,2.489425E4,3.9471562E4,7.660256E4,2.264385E5,2.054775E4,0E0,8.833781E3,0E0,5.2892094E4,4.838222E4,7.956541E4,1.42309E5,0E0,0E0,0E0,0E0,0E0,0E0,0E0,0E0,0E0,0E0,0E0,0E0],"parents":[2147483647,0,0,1,1,2,2,3,3,4,4,5,5,6,6,7,7,9,9,11,11,12,12,13,13,14,14],"right_children":[2,4,6,8,10,12,14,16,-1,18,-1,20,22,24,26,-1,-1,-1,-1,-1,-1,-1,-1,-1,-1,-1,-1],"split_conditions":[1E0,4.055E-1,3.106E-1,1E0,1E0,2.85E-2,4.458E-1,2.494E-1,-9.2604475E0,9.293057E-1,-5.790235E0,1E0,1.438E-1,2.8571E0,7.19E-2,-7.9529777E0,-5.6194463E0,-3.4358532E0,-4.5886156E-1,3.1318285E0,6.9920855E0,1.8440377E0,9.633875E0,9.19707E0,1.9209517E0,7.824392E0,1.5449796E1],"split_indices":[18,0,0,20,20,3,6,0,0,13,0,22,0,5,8,0,0,0,0,0,0,0,0,0,0,0,0],"split_type":[0,0,0,0,0,0,0,0,0,0,0,0,0,0,0,0,0,0,0,0,0,0,0,0,0,0,0],"sum_hessian":[3.39E2,1.96E2,1.43E2,1.22E2,7.4E1,6.9E1,7.4E1,7.8E1,4.4E1,4.5E1,2.9E1,5.4E1,1.5E1,1.9E1,5.5E1,4.9E1,2.9E1,4.2E1,3E0,4.2E1,1.2E1,3E0,1.2E1,1.3E1,6E0,1.1E1,4.4E1],"tree_param":{"num_deleted":"0","num_feature":"28","num_nodes":"27","size_leaf_vector":"1"}},{"base_weights":[-1.6835152E0,-1.2668293E2,1.7469705E2,-8.068798E1,-1.4168974E2,3.0712833E2,9.5923004E1,-8.543906E1,-5.6373596E-2,-1.2048352E2,-1.7040851E2,2.2310927E2,2.0533552E1,1.3605824E2,3.686247E1,-1.1098343E0,-4.4501767E0,-6.5992036E0,-4.2191353E0,-8.878744E0,-4.947149E0,1.3637433E1,8.984409E0,8.518566E0,4.0455422E0,-2.031401E-1,3.4335606E0],"categories":[],"categories_nodes":[],"categories_segments":[],"categories_sizes":[],"default_left":[0,0,0,0,0,0,0,0,0,0,0,0,0,0,0,0,0,0,0,0,0,0,0,0,0,0,0],"id":17,"left_children":[1,3,5,7,9,11,13,15,-1,17,19,21,-1,23,25,-1,-1,-1,-1,-1,-1,-1,-1,-1,-1,-1,-1],"loss_changes":[7.760792E6,1.3075625E5,1.4936335E6,1.9937594E4,7.325725E4,3.78152E5,2.154325E5,9.29575E3,0E0,2.705925E4,1.46955E4,1.9963E4,0E0,9.029031E4,5.1048473E4,0E0,0E0,0E0,0E0,0E0,0E0,0E0,0E0,0E0,0E0,0E0,0E0],"parents":[2147483647,0,0,1,1,2,2,3,3,4,4,5,5,6,6,7,7,9,9,10,10,11,11,13,13,14,14],"right_children":[2,4,6,8,10,12,14,16,-1,18,20,22,-1,24,26,-1,-1,-1,-1,-1,-1,-1,-1,-1,-1,-1,-1],"split_conditions":[1.513E2,7.4115247E2,3.91E2,1.524E0,1E0,9.321125E-1,5.45E2,1.66E1,-5.6373596E-2,3.1090152E-1,5.526472E-1,2.979E2,2.0533552E1,7.711528E2,8.026508E-1,-1.1098343E0,-4.4501767E0,-6.5992036E0,-4.2191353E0,-8.878744E0,-4.947149E0,1.3637433E1,8.984409E0,8.518566E0,4.0455422E0,-2.031401E-1,3.4335606E0],"split_indices":[16,10,16,6,26,9,16,15,0,13,13,16,0,10,9,0,0,0,0,0,0,0,0,0,0,0,0],"split_type":[0,0,0,0,0,0,0,0,0,0,0,0,0,0,0,0,0,0,0,0,0,0,0,0,0,0,0],"sum_hessian":[3.5E2,2.05E2,1.45E2,5.2E1,1.53E2,5.3E1,9.2E1,4.9E1,3E0,9.1E1,6.2E1,3.1E1,2.2E1,5.4E1,3.8E1,3E0,4.6E1,6.7E1,2.4E1,5.5E1,7E0,1.2E1,1.9E1,3.2E1,2.2E1,1.7E1,2.1E1],"tree_param":{"num_deleted":"0","num_feature":"28","num_nodes":"27","size_leaf_vector":"1"}},{"base_weights":[3.7478445E0,-1.20167175E2,1.6359038E2,-1.621285E2,-9.123926E1,3.6020737E2,1.0656832E2,-8.963536E0,-6.5823326E0,-1.07988144E2,-5.8691525E1,1.2807902E1,2.1991106E1,1.5439024E2,3.6885067E1,-6.333417E0,-4.359079E0,-3.394257E0,-1.2051761E0,4.8355236E0,1.0709514E1,1.0633703E0,5.095714E0],"categories":[],"categories_nodes":[],"categories_segments":[],"categories_sizes":[],"default_left":[0,0,0,0,0,0,0,0,0,0,0,0,0,0,0,0,0,0,0,0,0,0,0],"id":18,"left_children":[1,3,5,7,9,11,13,-1,-1,15,17,-1,-1,19,21,-1,-1,-1,-1,-1,-1,-1,-1],"loss_changes":[7.348208E6,2.38903E5,1.7778775E6,2.029175E4,6.23495E4,1.855545E5,4.175185E5,0E0,0E0,2.0827875E4,1.2673234E4,0E0,0E0,2.3797938E5,5.165957E4,0E0,0E0,0E0,0E0,0E0,0E0,0E0,0E0],"parents":[2147483647,0,0,1,1,2,2,3,3,4,4,5,5,6,6,9,9,10,10,13,13,14,14],"right_children":[2,4,6,8,10,12,14,-1,-1,16,18,-1,-1,20,22,-1,-1,-1,-1,-1,-1,-1,-1],"split_conditions":[7.6548076E3,2.631E-1,1.0296888E4,1E0,1E0,3.757E-1,1.4605512E4,-8.963536E0,-6.5823326E0,4.422E-1,5.068E-1,1.2807902E1,2.1991106E1,3.234E-1,4.85E-1,-6.333417E0,-4.359079E0,-3.394257E0,-1.2051761E0,4.8355236E0,1.0709514E1,1.0633703E0,5.095714E0],"split_indices":[12,0,12,19,19,0,12,0,0,0,0,0,0,0,0,0,0,0,0,0,0,0,0],"split_type":[0,0,0,0,0,0,0,0,0,0,0,0,0,0,0,0,0,0,0,0,0,0,0],"sum_hessian":[3.69E2,2.08E2,1.61E2,8.3E1,1.25E2,3.5E1,1.26E2,5E1,3.3E1,8.1E1,4.4E1,1.7E1,1.8E1,7.4E1,5.2E1,4E1,4.1E1,3.4E1,1E1,3.9E1,3.5E1,4.3E1,9E0],"tree_param":{"num_deleted":"0","num_feature":"28","num_nodes":"23","size_leaf_vector":"1"}},{"base_weights":[6.8849754E-1,-1.16410904E2,1.565631E2,-1.5651192E2,-8.840443E1,2.624989E2,6.747991E1,-6.969378E0,-8.800714E0,-7.150554E1,-1.142089E2,1.8386296E2,3.4509488E2,3.726872E1,1.1890365E2,-4.04052E0,-2.1422234E0,-6.41259E0,-3.7850292E0,1.14944105E1,7.3718123E0,2.0626093E1,1.3299395E1,2.786379E0,-1.8852353E-1,7.70401E0,2.518371E0],"categories":[],"categories_nodes":[],"categories_segments":[],"categories_sizes":[],"default_left":[0,0,0,0,0,0,0,0,0,0,0,0,0,0,0,0,0,0,0,0,0,0,0,0,0,0,0],"id":19,"left_children":[1,3,5,7,9,11,13,-1,-1,15,17,19,21,23,25,-1,-1,-1,-1,-1,-1,-1,-1,-1,-1,-1,-1],"loss_changes":[6.552736E6,2.1639675E5,1.4356E6,3.185E3,4.5469625E4,3.91201E5,1.2762225E5,0E0,0E0,1.7072656E4,1.5707375E4,2.9815E4,6.62945E4,4.187464E4,6.697631E4,0E0,0E0,0E0,0E0,0E0,0E0,0E0,0E0,0E0,0E0,0E0,0E0],"parents":[2147483647,0,0,1,1,2,2,3,3,4,4,5,5,6,6,9,9,10,10,11,11,12,12,13,13,14,14],"right_children":[2,4,6,8,10,12,14,-1,-1,16,18,20,22,24,26,-1,-1,-1,-1,-1,-1,-1,-1,-1,-1,-1,-1],"split_conditions":[7.6548076E3,2.608E-1,1.3061065E4,1E0,1E0,3.593E-1,4.283E-1,-6.969378E0,-8.800714E0,4.981E-1,4.91E-1,1.0137835E4,1.009734E4,1.578015E4,1.590294E4,-4.04052E0,-2.1422234E0,-6.41259E0,-3.7850292E0,1.14944105E1,7.3718123E0,2.0626093E1,1.3299395E1,2.786379E0,-1.8852353E-1,7.70401E0,2.518371E0],"split_indices":[12,0,12,20,20,0,0,0,0,0,0,12,12,12,12,0,0,0,0,0,0,0,0,0,0,0,0],"split_type":[0,0,0,0,0,0,0,0,0,0,0,0,0,0,0,0,0,0,0,0,0,0,0,0,0,0,0],"sum_hessian":[3.57E2,2.04E2,1.53E2,8.2E1,1.22E2,6.9E1,8.4E1,4.8E1,3.4E1,7.6E1,4.6E1,3.7E1,3.2E1,5.4E1,3E1,5.6E1,2E1,3.2E1,1.4E1,1.4E1,2.3E1,1.5E1,1.7E1,3.7E1,1.7E1,1.9E1,1.1E1],"tree_param":{"num_deleted":"0","num_feature":"28","num_nodes":"27","size_leaf_vector":"1"}},{"base_weights":[1.3645344E0,-1.10933846E2,1.5813588E2,-1.329382E2,-6.538437E1,2.7806512E2,7.862715E1,-1.5567805E2,-1.122576E2,-7.859771E1,-3.898393E1,1.8116542E2,3.602191E2,1.1230117E2,3.0359684E1,-8.504391E0,-6.42822E0,-6.386101E0,-3.7910805E0,-4.0724277E0,-1.3794502E0,-2.3800817E0,-4.396393E-1,4.365473E0,9.822211E0,1.2954244E1,2.0042837E1,3.5822866E0,7.7446017E0,5.5062914E-1,4.3649864E0],"categories":[],"categories_nodes":[],"categories_segments":[],"categories_sizes":[],"default_left":[0,0,0,0,0,0,0,0,0,0,0,0,0,0,0,0,0,0,0,0,0,0,0,0,0,0,0,0,0,0,0],"id":20,"left_children":[1,3,5,7,9,11,13,15,17,19,21,23,25,27,29,-1,-1,-1,-1,-1,-1,-1,-1,-1,-1,-1,-1,-1,-1,-1,-1],"loss_changes":[6.4962445E6,2.067995E5,1.4465918E6,5.02435E4,2.205225E4,4.20343E5,1.4937438E5,3.919125E3,3.4829312E4,4.5875625E3,6.346086E3,2.5868812E4,2.765975E4,8.4137875E4,4.3103598E4,0E0,0E0,0E0,0E0,0E0,0E0,0E0,0E0,0E0,0E0,0E0,0E0,0E0,0E0,0E0,0E0],"parents":[2147483647,0,0,1,1,2,2,3,3,4,4,5,5,6,6,7,7,8,8,9,9,10,10,11,11,12,12,13,13,14,14],"right_children":[2,4,6,8,10,12,14,16,18,20,22,24,26,28,30,-1,-1,-1,-1,-1,-1,-1,-1,-1,-1,-1,-1,-1,-1,-1,-1],"split_conditions":[1.513E2,4.222E-1,3.91E2,2.165E-1,1E0,3.433E-1,5.45E2,1E0,1E0,5.902E-1,5.715E-1,1.351E-1,9.195967E-1,3.234E-1,4.85E-1,-8.504391E0,-6.42822E0,-6.386101E0,-3.7910805E0,-4.0724277E0,-1.3794502E0,-2.3800817E0,-4.396393E-1,4.365473E0,9.822211E0,1.2954244E1,2.0042837E1,3.5822866E0,7.7446017E0,5.5062914E-1,4.3649864E0],"split_indices":[16,0,16,0,19,0,16,19,19,0,0,0,9,0,0,0,0,0,0,0,0,0,0,0,0,0,0,0,0,0,0],"split_type":[0,0,0,0,0,0,0,0,0,0,0,0,0,0,0,0,0,0,0,0,0,0,0,0,0,0,0,0,0,0,0],"sum_hessian":[3.67E2,2.14E2,1.53E2,1.43E2,7.1E1,6E1,9.3E1,6.5E1,7.8E1,4.6E1,2.5E1,2.9E1,3.1E1,5.4E1,3.9E1,3.9E1,2.6E1,5.3E1,2.5E1,4.3E1,3E0,1.9E1,6E0,5E0,2.4E1,1.1E1,2E1,2.9E1,2.5E1,3E1,9E0],"tree_param":{"num_deleted":"0","num_feature":"28","num_nodes":"31","size_leaf_vector":"1"}},{"base_weights":[4.6299543E0,-1.0252404E2,1.4019748E2,-1.3928236E2,-8.446281E1,2.6209024E2,7.509289E1,-7.5674806E0,-1.1014146E2,-1.0082422E2,-5.7343815E1,1.4392494E2,3.0575824E2,1.08467155E2,2.4841839E1,-5.786758E0,-2.7318788E0,-4.4938407E0,-6.734894E0,-3.6172855E0,-1.8914204E0,8.288921E0,4.4511533E0,1.7521965E1,1.1896487E1,4.162835E0,8.66346E0,1.3150156E-1,2.9982355E0],"categories":[],"categories_nodes":[],"categories_segments":[],"categories_sizes":[],"default_left":[0,0,0,0,0,0,0,0,0,0,0,0,0,0,0,0,0,0,0,0,0,0,0,0,0,0,0,0,0],"id":21,"left_children":[1,3,5,7,9,11,13,-1,15,17,19,21,23,25,27,-1,-1,-1,-1,-1,-1,-1,-1,-1,-1,-1,-1,-1,-1],"loss_changes":[5.33111E6,1.243355E5,1.2659148E6,6.539125E3,5.6337062E4,2.44956E5,1.7675425E5,0E0,8.17375E2,1.9785062E4,1.3365516E4,5.6384688E3,3.7846E4,9.013031E4,3.4168562E4,0E0,0E0,0E0,0E0,0E0,0E0,0E0,0E0,0E0,0E0,0E0,0E0,0E0,0E0],"parents":[2147483647,0,0,1,1,2,2,3,3,4,4,5,5,6,6,8,8,9,9,10,10,11,11,12,12,13,13,14,14],"right_children":[2,4,6,8,10,12,14,-1,16,18,20,22,24,26,28,-1,-1,-1,-1,-1,-1,-1,-1,-1,-1,-1,-1,-1,-1],"split_conditions":[1.513E2,7.276775E-1,3.724E2,1E0,1E0,7.742892E-1,5.435E2,-7.5674806E0,3.0742E0,7.852592E2,9.095233E-1,3.1E2,2.717E2,9.8194E-1,8.747825E-1,-5.786758E0,-2.7318788E0,-4.4938407E0,-6.734894E0,-3.6172855E0,-1.8914204E0,8.288921E0,4.4511533E0,1.7521965E1,1.1896487E1,4.162835E0,8.66346E0,1.3150156E-1,2.9982355E0],"split_indices":[16,9,16,19,19,9,16,0,5,10,9,16,16,9,9,0,0,0,0,0,0,0,0,0,0,0,0,0,0],"split_type":[0,0,0,0,0,0,0,0,0,0,0,0,0,0,0,0,0,0,0,0,0,0,0,0,0,0,0,0,0],"sum_hessian":[3.65E2,2.04E2,1.61E2,6.5E1,1.39E2,5.5E1,1.06E2,4.3E1,2.2E1,8.5E1,5.4E1,1.6E1,3.9E1,6.3E1,4.3E1,1.9E1,3E0,6.7E1,1.8E1,2.9E1,2.5E1,1E1,6E0,2.1E1,1.8E1,4.7E1,1.6E1,2.7E1,1.6E1],"tree_param":{"num_deleted":"0","num_feature":"28","num_nodes":"29","size_leaf_vector":"1"}},{"base_weights":[1.8530326E0,-1.0023185E2,1.412902E2,-1.2878116E2,-6.960071E1,2.592856E2,6.023579E1,-7.63569E0,-1.122137E2,-9.413638E1,-5.185717E1,1.7174905E2,1.6316156E1,1.2122211E2,4.2702065E1,-6.0204406E0,-4.3467374E0,-4.9487104E0,-2.4306886E0,-3.9205933E-1,-2.737878E0,3.203264E0,9.085504E0,3.0424747E0,7.819987E0,1.2491361E0,4.1321573E0],"categories":[],"categories_nodes":[],"categories_segments":[],"categories_sizes":[],"default_left":[0,0,0,0,0,0,0,0,0,0,0,0,0,0,0,0,0,0,0,0,0,0,0,0,0,0,0],"id":22,"left_children":[1,3,5,7,9,11,13,-1,15,17,19,21,-1,23,25,-1,-1,-1,-1,-1,-1,-1,-1,-1,-1,-1,-1],"loss_changes":[5.1527905E6,1.7380675E5,1.4476812E6,2.5289375E4,3.9959375E4,3.0778475E5,9.320081E4,0E0,3.41225E3,4.4381562E3,7.4857812E3,1.946525E4,0E0,3.2958438E4,4.959961E4,0E0,0E0,0E0,0E0,0E0,0E0,0E0,0E0,0E0,0E0,0E0,0E0],"parents":[2147483647,0,0,1,1,2,2,3,3,4,4,5,5,6,6,8,8,9,9,10,10,11,11,13,13,14,14],"right_children":[2,4,6,8,10,12,14,-1,16,18,20,22,-1,24,26,-1,-1,-1,-1,-1,-1,-1,-1,-1,-1,-1,-1],"split_conditions":[7.6548076E3,3.242E-1,1.2100738E4,1E0,1E0,3.433E-1,4.66E2,-7.63569E0,2.451E-1,5.768E-1,2.87E-2,1.338E-1,1.6316156E1,2.192E-1,1E0,-6.0204406E0,-4.3467374E0,-4.9487104E0,-2.4306886E0,-3.9205933E-1,-2.737878E0,3.203264E0,9.085504E0,3.0424747E0,7.819987E0,1.2491361E0,4.1321573E0],"split_indices":[12,0,12,25,25,0,16,0,0,0,8,0,0,0,22,0,0,0,0,0,0,0,0,0,0,0,0],"split_type":[0,0,0,0,0,0,0,0,0,0,0,0,0,0,0,0,0,0,0,0,0,0,0,0,0,0,0],"sum_hessian":[3.6E2,2.08E2,1.52E2,1.06E2,1.02E2,6.1E1,9.1E1,4E1,6.6E1,4.1E1,6.1E1,2.8E1,3.3E1,1.9E1,7.2E1,4.7E1,1.9E1,3.6E1,5E0,4E0,5.7E1,3E0,2.5E1,8E0,1.1E1,5.1E1,2.1E1],"tree_param":{"num_deleted":"0","num_feature":"28","num_nodes":"27","size_leaf_vector":"1"}},{"base_weights":[4.3823266E0,-9.3931404E1,1.342265E2,-1.15610756E2,-5.832169E1,2.5552255E2,7.1212524E1,-1.3329697E2,-9.804159E1,-7.020374E1,-3.4989944E1,7.460637E0,2.9915555E2,1.235661E2,4.8530354E1,-7.2278757E0,-5.371415E0,-5.3971014E0,-3.5767086E0,-3.9441292E0,-2.118996E0,-2.1171176E0,-2.3915623E-1,1.72375E1,1.1467115E1,3.7297666E0,9.060015E0,1.2073828E0,4.516883E0],"categories":[],"categories_nodes":[],"categories_segments":[],"categories_sizes":[],"default_left":[0,0,0,0,0,0,0,0,0,0,0,0,0,0,0,0,0,0,0,0,0,0,0,0,0,0,0,0,0],"id":23,"left_children":[1,3,5,7,9,11,13,15,17,19,21,-1,23,25,27,-1,-1,-1,-1,-1,-1,-1,-1,-1,-1,-1,-1,-1,-1],"loss_changes":[4.799657E6,1.5846438E5,1.2200255E6,2.7948E4,2.0553562E4,2.10486E5,1.222525E5,2.822E3,1.0648875E4,9.696781E3,6.460258E3,0E0,4.189175E4,7.679978E4,7.631042E4,0E0,0E0,0E0,0E0,0E0,0E0,0E0,0E0,0E0,0E0,0E0,0E0,0E0,0E0],"parents":[2147483647,0,0,1,1,2,2,3,3,4,4,5,5,6,6,7,7,8,8,9,9,10,10,12,12,13,13,14,14],"right_children":[2,4,6,8,10,12,14,16,18,20,22,-1,24,26,28,-1,-1,-1,-1,-1,-1,-1,-1,-1,-1,-1,-1,-1,-1],"split_conditions":[1.513E2,4.055E-1,3.693E2,2.165E-1,1E0,2.393E-1,4.745E2,1E0,1E0,5.553E-1,5.715E-1,7.460637E0,2.61E2,3.4E-1,4.242E-1,-7.2278757E0,-5.371415E0,-5.3971014E0,-3.5767086E0,-3.9441292E0,-2.118996E0,-2.1171176E0,-2.3915623E-1,1.72375E1,1.1467115E1,3.7297666E0,9.060015E0,1.2073828E0,4.516883E0],"split_indices":[16,0,16,0,19,0,16,19,19,0,0,0,16,0,0,0,0,0,0,0,0,0,0,0,0,0,0,0,0],"split_type":[0,0,0,0,0,0,0,0,0,0,0,0,0,0,0,0,0,0,0,0,0,0,0,0,0,0,0,0,0],"sum_hessian":[3.74E2,2.13E2,1.61E2,1.31E2,8.2E1,5.4E1,1.07E2,6.2E1,6.9E1,5.3E1,2.9E1,1.7E1,3.7E1,3.1E1,7.6E1,4E1,2.2E1,4.8E1,2.1E1,3.9E1,1.4E1,2.3E1,6E0,2E1,1.7E1,1.8E1,1.3E1,4.9E1,2.7E1],"tree_param":{"num_deleted":"0","num_feature":"28","num_nodes":"29","size_leaf_vector":"1"}},{"base_weights":[1.3941166E0,-8.9386215E1,1.2859335E2,-1.0853422E2,-5.3135582E1,2.6160233E2,8.3921555E1,-1.2296705E2,-8.391594E1,-6.464275E1,-3.0278393E1,1.9885733E2,3.171835E2,1.3449603E2,4.2662327E1,-6.8866525E0,-5.3896303E0,-5.4105473E0,-3.1851969E0,-8.600594E-1,-3.3624744E0,-2.0897424E0,-4.3403545E-1,4.811502E0,1.0530787E1,1.7759449E1,8.782009E0,4.280475E0,9.098506E0,3.9851196E0,7.8338623E-1],"categories":[],"categories_nodes":[],"categories_segments":[],"categories_sizes":[],"default_left":[0,0,0,0,0,0,0,0,0,0,0,0,0,0,0,0,0,0,0,0,0,0,0,0,0,0,0,0,0,0,0],"id":24,"left_children":[1,3,5,7,9,11,13,15,17,19,21,23,25,27,29,-1,-1,-1,-1,-1,-1,-1,-1,-1,-1,-1,-1,-1,-1,-1,-1],"loss_changes":[4.3532375E6,1.4694088E5,9.1090025E5,4.0490625E4,1.8558406E4,7.2936E4,2.4257506E5,4.87125E3,2.0605375E4,5.1502812E3,6.6015957E3,5.073875E3,3.9823625E4,1.07426375E5,6.574334E4,0E0,0E0,0E0,0E0,0E0,0E0,0E0,0E0,0E0,0E0,0E0,0E0,0E0,0E0,0E0,0E0],"parents":[2147483647,0,0,1,1,2,2,3,3,4,4,5,5,6,6,7,7,8,8,9,9,10,10,11,11,12,12,13,13,14,14],"right_children":[2,4,6,8,10,12,14,16,18,20,22,24,26,28,30,-1,-1,-1,-1,-1,-1,-1,-1,-1,-1,-1,-1,-1,-1,-1,-1],"split_conditions":[7.6548076E3,4.222E-1,3.083E2,1E0,1E0,8.7622666E-1,4.745E2,2.265E-1,2.131E-1,-5.446435E2,5.13E-1,5.02845E-1,1.5687E0,2.962E-1,7.5293744E2,-6.8866525E0,-5.3896303E0,-5.4105473E0,-3.1851969E0,-8.600594E-1,-3.3624744E0,-2.0897424E0,-4.3403545E-1,4.811502E0,1.0530787E1,1.7759449E1,8.782009E0,4.280475E0,9.098506E0,3.9851196E0,7.8338623E-1],"split_indices":[12,0,16,19,19,9,16,0,0,11,0,9,6,0,10,0,0,0,0,0,0,0,0,0,0,0,0,0,0,0,0],"split_type":[0,0,0,0,0,0,0,0,0,0,0,0,0,0,0,0,0,0,0,0,0,0,0,0,0,0,0,0,0,0,0],"sum_hessian":[3.75E2,2.19E2,1.56E2,1.42E2,7.7E1,3.8E1,1.18E2,8.7E1,5.5E1,5E1,2.7E1,2E1,1.8E1,5.2E1,6.6E1,4E1,4.7E1,2.3E1,3.2E1,3E0,4.7E1,1.7E1,1E1,3E0,1.7E1,1.3E1,5E0,2.7E1,2.5E1,2.7E1,3.9E1],"tree_param":{"num_deleted":"0","num_feature":"28","num_nodes":"31","size_leaf_vector":"1"}},{"base_weights":[4.925483E0,-8.528718E1,1.2080523E2,-1.17985504E2,-6.537334E1,2.2123276E2,5.4977562E1,-6.3998146E0,-9.518027E1,-7.870303E1,-4.2136703E1,1.6152795E2,3.0457733E2,7.9995636E1,1.4825111E1,-5.017204E0,-1.9555725E0,-4.508089E0,-2.8632505E0,-2.4212902E0,-7.4324566E-1,9.57574E0,6.0982695E0,1.8393671E1,1.0649166E1,2.6999254E0,5.6957393E0,-1.0960455E-1,3.6841743E0],"categories":[],"categories_nodes":[],"categories_segments":[],"categories_sizes":[],"default_left":[0,0,0,0,0,0,0,0,0,0,0,0,0,0,0,0,0,0,0,0,0,0,0,0,0,0,0,0,0],"id":25,"left_children":[1,3,5,7,9,11,13,-1,15,17,19,21,23,25,27,-1,-1,-1,-1,-1,-1,-1,-1,-1,-1,-1,-1,-1,-1],"loss_changes":[3.9409395E6,1.30330375E5,1.078637E6,5.852875E3,3.8188562E4,2.74247E5,1.0027228E5,0E0,4.182203E3,1.54716875E4,8.027422E3,2.4096062E4,7.238525E4,4.8520406E4,4.022572E4,0E0,0E0,0E0,0E0,0E0,0E0,0E0,0E0,0E0,0E0,0E0,0E0,0E0,0E0],"parents":[2147483647,0,0,1,1,2,2,3,3,4,4,5,5,6,6,8,8,9,9,10,10,11,11,12,12,13,13,14,14],"right_children":[2,4,6,8,10,12,14,-1,16,18,20,22,24,26,28,-1,-1,-1,-1,-1,-1,-1,-1,-1,-1,-1,-1,-1,-1],"split_conditions":[7.6548076E3,2.522E-1,3.91E2,1E0,1E0,9.321125E-1,1.5207469E4,-6.3998146E0,7.207E-1,4.67E-1,5.13E-1,2.979E2,2.61E2,3.496E-1,4.85E-1,-5.017204E0,-1.9555725E0,-4.508089E0,-2.8632505E0,-2.4212902E0,-7.4324566E-1,9.57574E0,6.0982695E0,1.8393671E1,1.0649166E1,2.6999254E0,5.6957393E0,-1.0960455E-1,3.6841743E0],"split_indices":[12,0,16,19,19,9,12,0,1,0,0,16,16,0,0,0,0,0,0,0,0,0,0,0,0,0,0,0,0],"split_type":[0,0,0,0,0,0,0,0,0,0,0,0,0,0,0,0,0,0,0,0,0,0,0,0,0,0,0,0,0],"sum_hessian":[3.75E2,2.11E2,1.64E2,7.8E1,1.33E2,6.4E1,1E2,5.1E1,2.7E1,8.3E1,5E1,3.9E1,2.5E1,6.1E1,3.9E1,2.4E1,3E0,5.2E1,3.1E1,4E1,1E1,2E1,1.9E1,1.3E1,1.2E1,3.6E1,2.5E1,3.1E1,8E0],"tree_param":{"num_deleted":"0","num_feature":"28","num_nodes":"29","size_leaf_vector":"1"}},{"base_weights":[-1.0711486E0,-8.311728E1,1.1236894E2,-9.950888E1,-5.861266E1,2.1073769E2,5.4235794E1,-8.5620415E1,-1.2059373E2,-4.1064415E1,-8.02681E1,1.4936955E2,2.7840463E2,2.9344112E1,1.0232429E2,-5.774916E0,-3.7945087E0,-2.811118E0,-6.1888633E0,-2.2522275E0,1.4848328E-1,-1.1324326E0,-4.2343016E0,4.142566E0,8.265929E0,1.4717798E1,6.053566E0,9.922336E-1,5.89323E0,6.106549E0,1.9068543E0],"categories":[],"categories_nodes":[],"categories_segments":[],"categories_sizes":[],"default_left":[0,0,0,0,0,0,0,0,0,0,0,0,0,0,0,0,0,0,0,0,0,0,0,0,0,0,0,0,0,0,0],"id":26,"left_children":[1,3,5,7,9,11,13,15,17,19,21,23,25,27,29,-1,-1,-1,-1,-1,-1,-1,-1,-1,-1,-1,-1,-1,-1,-1,-1],"loss_changes":[3.3041312E6,7.69115E4,8.406249E5,2.5400625E4,2.9005125E4,1.868075E5,1.1071272E5,1.36201875E4,2.4676875E3,8.721578E3,7.5006406E3,1.9191062E4,2.7103625E4,5.1478312E4,3.6025E4,0E0,0E0,0E0,0E0,0E0,0E0,0E0,0E0,0E0,0E0,0E0,0E0,0E0,0E0,0E0,0E0],"parents":[2147483647,0,0,1,1,2,2,3,3,4,4,5,5,6,6,7,7,8,8,9,9,10,10,11,11,12,12,13,13,14,14],"right_children":[2,4,6,8,10,12,14,16,18,20,22,24,26,28,30,-1,-1,-1,-1,-1,-1,-1,-1,-1,-1,-1,-1,-1,-1,-1,-1],"split_conditions":[7.6548076E3,8.8151336E-1,3.724E2,1E0,1E0,9.321125E-1,1E0,6.083367E-1,1.86E-2,9.293057E-1,3.572E-1,5.6989914E-1,5.59E-1,1.0671575E0,1.590294E4,-5.774916E0,-3.7945087E0,-2.811118E0,-6.1888633E0,-2.2522275E0,1.4848328E-1,-1.1324326E0,-4.2343016E0,4.142566E0,8.265929E0,1.4717798E1,6.053566E0,9.922336E-1,5.89323E0,6.106549E0,1.9068543E0],"split_indices":[12,9,16,20,20,9,22,9,8,13,6,9,8,9,12,0,0,0,0,0,0,0,0,0,0,0,0,0,0,0,0],"split_type":[0,0,0,0,0,0,0,0,0,0,0,0,0,0,0,0,0,0,0,0,0,0,0,0,0,0,0,0,0,0,0],"sum_hessian":[3.53E2,2.05E2,1.48E2,1.21E2,8.4E1,5.4E1,9.4E1,7.6E1,4.5E1,4.8E1,3.6E1,3E1,2.4E1,6.3E1,3.1E1,1.6E1,6E1,3E0,4.2E1,4.4E1,4E0,3E0,3.3E1,7E0,2.3E1,2.1E1,3E0,5.8E1,5E0,2.3E1,8E0],"tree_param":{"num_deleted":"0","num_feature":"28","num_nodes":"31","size_leaf_vector":"1"}},{"base_weights":[4.63127E0,-7.87456E1,1.10213905E2,-9.950093E1,-5.3278374E1,2.4095764E2,6.644824E1,-5.9218316E0,-8.724339E1,-7.1631256E1,-4.055485E1,1.605534E2,2.8599423E2,1.12458534E2,3.1017633E1,-5.405703E0,-3.706044E0,-3.8524213E0,-1.8317021E0,-2.3102794E0,-7.2861713E-1,4.1166353E0,8.571704E0,1.5059417E1,6.5464053E0,3.4330163E0,7.685689E0,-3.309524E-1,2.6217217E0],"categories":[],"categories_nodes":[],"categories_segments":[],"categories_sizes":[],"default_left":[0,0,0,0,0,0,0,0,0,0,0,0,0,0,0,0,0,0,0,0,0,0,0,0,0,0,0,0,0],"id":27,"left_children":[1,3,5,7,9,11,13,-1,15,17,19,21,23,25,27,-1,-1,-1,-1,-1,-1,-1,-1,-1,-1,-1,-1,-1,-1],"loss_changes":[3.2922538E6,1.05172E5,9.2813275E5,1.6127125E4,1.9512281E4,1.0254925E5,2.0028338E5,0E0,1.1979375E4,4.381672E3,7.9890625E3,3.539375E2,1.9468E4,8.7018875E4,5.8383195E4,0E0,0E0,0E0,0E0,0E0,0E0,0E0,0E0,0E0,0E0,0E0,0E0,0E0,0E0],"parents":[2147483647,0,0,1,1,2,2,3,3,4,4,5,5,6,6,8,8,9,9,10,10,11,11,12,12,13,13,14,14],"right_children":[2,4,6,8,10,12,14,-1,16,18,20,22,24,26,28,-1,-1,-1,-1,-1,-1,-1,-1,-1,-1,-1,-1,-1,-1],"split_conditions":[7.6548076E3,3.478E-1,3.029E2,1E0,1E0,3.507E-1,4.745E2,-5.9218316E0,1.785E-1,5.494E-1,5.652E-1,5.02845E-1,1E0,2.962E-1,2.728E-1,-5.405703E0,-3.706044E0,-3.8524213E0,-1.8317021E0,-2.3102794E0,-7.2861713E-1,4.1166353E0,8.571704E0,1.5059417E1,6.5464053E0,3.4330163E0,7.685689E0,-3.309524E-1,2.6217217E0],"split_indices":[12,0,16,25,25,0,16,0,0,0,0,9,27,0,0,0,0,0,0,0,0,0,0,0,0,0,0,0,0],"split_type":[0,0,0,0,0,0,0,0,0,0,0,0,0,0,0,0,0,0,0,0,0,0,0,0,0,0,0,0,0],"sum_hessian":[3.72E2,2.08E2,1.64E2,1.13E2,9.5E1,4E1,1.24E2,4.1E1,7.2E1,3.7E1,5.8E1,1.6E1,2.4E1,5.3E1,7.1E1,2.5E1,4.7E1,3.1E1,6E0,4.7E1,1.1E1,3E0,1.3E1,2.1E1,3E0,2.7E1,2.6E1,2.6E1,4.5E1],"tree_param":{"num_deleted":"0","num_feature":"28","num_nodes":"29","size_leaf_vector":"1"}},{"base_weights":[2.1503415E0,-7.4613815E1,1.09296616E2,-5.8528797E1,-9.813308E1,2.317993E2,6.675733E1,-7.059367E1,-3.4439854E1,-8.631054E1,-5.6715274E0,1.6771503E2,2.8108942E2,8.808357E1,1.303442E1,-3.7696385E0,-1.9476458E0,-1.8061982E-1,-2.008722E0,-4.827606E0,-3.198993E0,3.9622636E0,8.967514E0,1.6046751E1,9.060206E0,1.8033174E0,5.130182E0,4.146059E0,2.6775807E-2],"categories":[],"categories_nodes":[],"categories_segments":[],"categories_sizes":[],"default_left":[0,0,0,0,0,0,0,0,0,0,0,0,0,0,0,0,0,0,0,0,0,0,0,0,0,0,0,0,0],"id":28,"left_children":[1,3,5,7,9,11,13,15,17,19,-1,21,23,25,27,-1,-1,-1,-1,-1,-1,-1,-1,-1,-1,-1,-1,-1,-1],"loss_changes":[2.9362525E6,7.2944375E4,7.609911E5,3.4188188E4,5.2206875E3,7.28885E4,1.27171125E5,9.6665625E3,7.6333164E3,5.4864062E3,0E0,5.3453125E3,2.1445E4,5.6722938E4,2.8781355E4,0E0,0E0,0E0,0E0,0E0,0E0,0E0,0E0,0E0,0E0,0E0,0E0,0E0,0E0],"parents":[2147483647,0,0,1,1,2,2,3,3,4,4,5,5,6,6,7,7,8,8,9,9,11,11,12,12,13,13,14,14],"right_children":[2,4,6,8,10,12,14,16,18,20,-1,22,24,26,28,-1,-1,-1,-1,-1,-1,-1,-1,-1,-1,-1,-1,-1,-1],"split_conditions":[7.6548076E3,7.831776E2,3.029E2,1E0,1E0,9.1254586E-1,1.5207469E4,6.620218E-1,7.05E-2,2.095132E-1,-5.6715274E0,5.02845E-1,1E0,6.8273336E-1,7.875E2,-3.7696385E0,-1.9476458E0,-1.8061982E-1,-2.008722E0,-4.827606E0,-3.198993E0,3.9622636E0,8.967514E0,1.6046751E1,9.060206E0,1.8033174E0,5.130182E0,4.146059E0,2.6775807E-2],"split_indices":[12,10,16,19,20,9,12,13,7,13,0,9,23,9,14,0,0,0,0,0,0,0,0,0,0,0,0,0,0],"split_type":[0,0,0,0,0,0,0,0,0,0,0,0,0,0,0,0,0,0,0,0,0,0,0,0,0,0,0,0,0],"sum_hessian":[3.55E2,2.07E2,1.48E2,1.25E2,8.2E1,3.7E1,1.11E2,8.2E1,4.3E1,5E1,3.2E1,1.8E1,1.9E1,7.9E1,3.2E1,7E1,1.2E1,7E0,3.6E1,3.2E1,1.8E1,3E0,1.5E1,1.2E1,7E0,1.8E1,6.1E1,4E0,2.8E1],"tree_param":{"num_deleted":"0","num_feature":"28","num_nodes":"29","size_leaf_vector":"1"}},{"base_weights":[3.896917E0,-7.054419E1,1.0436806E2,-5.5750507E1,-9.142875E1,2.195712E2,6.4137245E1,-6.628485E1,-3.5301907E1,-9.336425E1,-1.3721062E0,1.5882224E2,2.698644E2,9.243852E1,1.821317E1,-2.0489573E0,-3.7034814E0,-2.3646252E0,-1.2129714E0,-5.24171E0,-3.891985E0,8.549884E0,4.2830667E0,1.5425038E1,8.425886E0,3.6225133E0,6.971753E0,1.8284663E0,-6.696133E-1],"categories":[],"categories_nodes":[],"categories_segments":[],"categories_sizes":[],"default_left":[0,0,0,0,0,0,0,0,0,0,0,0,0,0,0,0,0,0,0,0,0,0,0,0,0,0,0,0,0],"id":29,"left_children":[1,3,5,7,9,11,13,15,17,19,-1,21,23,25,27,-1,-1,-1,-1,-1,-1,-1,-1,-1,-1,-1,-1,-1,-1],"loss_changes":[2.8120562E6,6.1638125E4,7.274719E5,2.544825E4,8.336375E3,8.240525E4,1.5428156E5,1.3512625E4,4.9433867E3,6.9753125E3,0E0,4.05825E3,3.0241125E4,5.9411938E4,2.7756996E4,0E0,0E0,0E0,0E0,0E0,0E0,0E0,0E0,0E0,0E0,0E0,0E0,0E0,0E0],"parents":[2147483647,0,0,1,1,2,2,3,3,4,4,5,5,6,6,7,7,8,8,9,9,11,11,12,12,13,13,14,14],"right_children":[2,4,6,8,10,12,14,16,18,20,-1,22,24,26,28,-1,-1,-1,-1,-1,-1,-1,-1,-1,-1,-1,-1,-1,-1],"split_conditions":[7.6548076E3,7.831776E2,3.029E2,1E0,5.75E-1,9.1254586E-1,1.4709034E4,7.319486E2,8.83105E-1,1.8264575E-1,-1.3721062E0,8.874E2,2.61E2,9.89125E-1,1.6327595E4,-2.0489573E0,-3.7034814E0,-2.3646252E0,-1.2129714E0,-5.24171E0,-3.891985E0,8.549884E0,4.2830667E0,1.5425038E1,8.425886E0,3.6225133E0,6.971753E0,1.8284663E0,-6.696133E-1],"split_indices":[12,10,16,19,8,9,12,10,9,13,0,14,16,9,12,0,0,0,0,0,0,0,0,0,0,0,0,0,0],"split_type":[0,0,0,0,0,0,0,0,0,0,0,0,0,0,0,0,0,0,0,0,0,0,0,0,0,0,0,0,0],"sum_hessian":[3.74E2,2.15E2,1.59E2,1.28E2,8.7E1,4E1,1.19E2,8.3E1,4.5E1,8.4E1,3E0,2E1,2E1,7.3E1,4.6E1,2.1E1,6.2E1,2E1,2.5E1,4.5E1,3.9E1,1.6E1,4E0,1.3E1,7E0,5.3E1,2E1,2.9E1,1.7E1],"tree_param":{"num_deleted":"0","num_feature":"28","num_nodes":"29","size_leaf_vector":"1"}},{"base_weights":[4.4898515E0,-6.755591E1,9.386899E1,-9.555458E1,-4.9387012E1,1.6131877E2,3.5118965E1,-8.2086426E1,-5.486774E0,-5.9208218E1,-3.198944E1,1.02061676E2,2.2597096E2,2.189275E1,9.062608E1,-4.7144046E0,-3.4276779E0,-2.3592966E0,-3.7042928E0,-1.7573414E0,5.764252E-1,3.661562E0,6.8216934E0,1.4319513E1,9.19142E0,1.4293644E0,-1.4816529E0,5.5420814E0,-1.392418E-1],"categories":[],"categories_nodes":[],"categories_segments":[],"categories_sizes":[],"default_left":[0,0,0,0,0,0,0,0,0,0,0,0,0,0,0,0,0,0,0,0,0,0,0,0,0,0,0,0,0],"id":30,"left_children":[1,3,5,7,9,11,13,15,-1,17,19,21,23,25,27,-1,-1,-1,-1,-1,-1,-1,-1,-1,-1,-1,-1,-1,-1],"loss_changes":[2.3953542E6,1.0007406E5,6.52139E5,6.2714375E3,1.9805812E4,2.7193162E5,6.408935E4,9.6678125E2,0E0,1.081325E4,7.0005312E3,3.1629312E4,3.9017375E4,2.63728E4,3.2410656E4,0E0,0E0,0E0,0E0,0E0,0E0,0E0,0E0,0E0,0E0,0E0,0E0,0E0,0E0],"parents":[2147483647,0,0,1,1,2,2,3,3,4,4,5,5,6,6,7,7,9,9,10,10,11,11,12,12,13,13,14,14],"right_children":[2,4,6,8,10,12,14,16,-1,18,20,22,24,26,28,-1,-1,-1,-1,-1,-1,-1,-1,-1,-1,-1,-1,-1,-1],"split_conditions":[7.6548076E3,2.513E-1,1.3061065E4,1E0,4.843E-1,3.593E-1,5.1937073E-1,1.727E-1,-5.486774E0,1E0,9.299816E-1,7.7254915E-1,9.392452E3,1.672403E4,1.685741E4,-4.7144046E0,-3.4276779E0,-2.3592966E0,-3.7042928E0,-1.7573414E0,5.764252E-1,3.661562E0,6.8216934E0,1.4319513E1,9.19142E0,1.4293644E0,-1.4816529E0,5.5420814E0,-1.392418E-1],"split_indices":[12,0,12,20,0,0,13,0,0,20,13,9,12,12,12,0,0,0,0,0,0,0,0,0,0,0,0,0,0],"split_type":[0,0,0,0,0,0,0,0,0,0,0,0,0,0,0,0,0,0,0,0,0,0,0,0,0,0,0,0,0],"sum_hessian":[3.7E2,2.05E2,1.65E2,7.9E1,1.26E2,7.6E1,8.9E1,4.4E1,3.5E1,7.9E1,4.7E1,4.1E1,3.5E1,7.3E1,1.6E1,2E1,2.4E1,4.6E1,3.3E1,4.4E1,3E0,2.4E1,1.7E1,1.2E1,2.3E1,6.5E1,8E0,1.3E1,3E0],"tree_param":{"num_deleted":"0","num_feature":"28","num_nodes":"29","size_leaf_vector":"1"}},{"base_weights":[-1.5424123E0,-6.307772E1,8.694981E1,-8.377897E1,-4.4473427E1,2.0175601E2,5.4920433E1,-7.25436E1,-4.9830546E0,-3.303202E1,-5.9373093E1,1.244813E2,2.4576051E2,9.543077E1,2.3007849E1,-5.1091723E0,-3.2581232E0,-1.8980879E0,-3.2261533E-1,-3.2321153E0,-1.4093221E0,4.2004886E0,9.026405E0,1.6906496E1,9.621436E0,2.8097937E0,6.422747E0,3.922809E-1,2.8645387E0],"categories":[],"categories_nodes":[],"categories_segments":[],"categories_sizes":[],"default_left":[0,0,0,0,0,0,0,0,0,0,0,0,0,0,0,0,0,0,0,0,0,0,0,0,0,0,0,0,0],"id":31,"left_children":[1,3,5,7,9,11,13,15,-1,17,19,21,23,25,27,-1,-1,-1,-1,-1,-1,-1,-1,-1,-1,-1,-1,-1,-1],"loss_changes":[2.031172E6,8.100319E4,5.5152675E5,1.11496875E4,1.815461E4,8.1621625E4,1.5423188E5,7.343125E3,0E0,8.796195E3,6.3944062E3,1.6590078E4,3.3458625E4,6.145347E4,3.54171E4,0E0,0E0,0E0,0E0,0E0,0E0,0E0,0E0,0E0,0E0,0E0,0E0,0E0,0E0],"parents":[2147483647,0,0,1,1,2,2,3,3,4,4,5,5,6,6,7,7,9,9,10,10,11,11,12,12,13,13,14,14],"right_children":[2,4,6,8,10,12,14,16,-1,18,20,22,24,26,28,-1,-1,-1,-1,-1,-1,-1,-1,-1,-1,-1,-1,-1,-1],"split_conditions":[1.513E2,2.886E-1,3.024E2,1E0,1E0,3.369E-1,4.745E2,1.132E-1,-4.9830546E0,5.652E-1,5.553E-1,2.7E-2,1.17E-2,2.393E-1,1E0,-5.1091723E0,-3.2581232E0,-1.8980879E0,-3.2261533E-1,-3.2321153E0,-1.4093221E0,4.2004886E0,9.026405E0,1.6906496E1,9.621436E0,2.8097937E0,6.422747E0,3.922809E-1,2.8645387E0],"split_indices":[16,0,16,20,20,0,16,0,0,0,0,3,4,0,22,0,0,0,0,0,0,0,0,0,0,0,0,0,0],"split_type":[0,0,0,0,0,0,0,0,0,0,0,0,0,0,0,0,0,0,0,0,0,0,0,0,0,0,0,0,0],"sum_hessian":[3.71E2,2.19E2,1.52E2,1.02E2,1.17E2,3.2E1,1.2E2,6.3E1,3.9E1,6.8E1,4.9E1,1.3E1,1.9E1,5.2E1,6.8E1,1E1,5.3E1,5.7E1,1.1E1,4.1E1,8E0,9E0,4E0,5E0,1.4E1,2.5E1,2.7E1,4.8E1,2E1],"tree_param":{"num_deleted":"0","num_feature":"28","num_nodes":"29","size_leaf_vector":"1"}},{"base_weights":[2.738466E-1,-6.110735E1,8.3829704E1,-8.2101105E1,-4.4813637E1,1.5876152E2,4.3338062E1,-4.5821123E0,-6.497875E1,-5.472309E1,-2.6861597E1,7.4788345E1,1.9532248E2,3.1614494E1,1.2116755E2,-4.763431E0,-2.719114E0,-1.9345661E0,-3.0843303E0,-1.587252E0,-1.53774265E-2,4.173478E0,1.1768357E0,7.612892E0,1.1616042E1,2.3327863E0,-8.1638835E-2,6.7531486E0,2.8068542E0],"categories":[],"categories_nodes":[],"categories_segments":[],"categories_sizes":[],"default_left":[0,0,0,0,0,0,0,0,0,0,0,0,0,0,0,0,0,0,0,0,0,0,0,0,0,0,0,0,0],"id":32,"left_children":[1,3,5,7,9,11,13,-1,15,17,19,21,23,25,27,-1,-1,-1,-1,-1,-1,-1,-1,-1,-1,-1,-1,-1,-1],"loss_changes":[1.8771196E6,6.849675E4,4.6340675E5,8.9115E3,2.0055344E4,1.5117988E5,8.923816E4,0E0,6.3738438E3,6.209328E3,5.825619E3,6.0440703E3,2.358025E4,4.5083375E4,4.1650938E3,0E0,0E0,0E0,0E0,0E0,0E0,0E0,0E0,0E0,0E0,0E0,0E0,0E0,0E0],"parents":[2147483647,0,0,1,1,2,2,3,3,4,4,5,5,6,6,8,8,9,9,10,10,11,11,12,12,13,13,14,14],"right_children":[2,4,6,8,10,12,14,-1,16,18,20,22,24,26,28,-1,-1,-1,-1,-1,-1,-1,-1,-1,-1,-1,-1,-1,-1],"split_conditions":[1.513E2,2.88E-1,3.693E2,1E0,1E0,2.393E-1,5.151E-1,-4.5821123E0,1.132E-1,6.219E2,5.652E-1,1E0,6.476092E1,5.771E2,1.652E2,-4.763431E0,-2.719114E0,-1.9345661E0,-3.0843303E0,-1.587252E0,-1.53774265E-2,4.173478E0,1.1768357E0,7.612892E0,1.1616042E1,2.3327863E0,-8.1638835E-2,6.7531486E0,2.8068542E0],"split_indices":[16,0,16,19,19,0,0,0,0,14,0,24,11,16,17,0,0,0,0,0,0,0,0,0,0,0,0,0,0],"split_type":[0,0,0,0,0,0,0,0,0,0,0,0,0,0,0,0,0,0,0,0,0,0,0,0,0,0,0,0,0],"sum_hessian":[3.64E2,2.1E2,1.54E2,9E1,1.2E2,5.3E1,1.01E2,5.5E1,3.5E1,7.6E1,4.4E1,1.7E1,3.6E1,8.9E1,1.2E1,7E0,2.8E1,2.5E1,5.1E1,3.7E1,7E0,1.4E1,3E0,1.9E1,1.7E1,6.1E1,2.8E1,9E0,3E0],"tree_param":{"num_deleted":"0","num_feature":"28","num_nodes":"29","size_leaf_vector":"1"}},{"base_weights":[3.9960878E0,-5.7740795E1,8.181342E1,-4.045091E0,-4.64947E1,1.5621858E2,3.9531574E1,-3.637725E1,-6.2722412E1,1.0425827E2,2.2063586E2,2.0695816E1,7.607362E1,-1.9909853E0,-5.628362E-1,-1.4977916E0,-3.4441946E0,6.4181094E0,3.7850664E0,1.2946113E1,8.268874E0,2.6721654E0,-5.5471446E-2,4.8311243E0,7.5196075E-1],"categories":[],"categories_nodes":[],"categories_segments":[],"categories_sizes":[],"default_left":[0,0,0,0,0,0,0,0,0,0,0,0,0,0,0,0,0,0,0,0,0,0,0,0,0],"id":33,"left_children":[1,3,5,-1,7,9,11,13,15,17,19,21,23,-1,-1,-1,-1,-1,-1,-1,-1,-1,-1,-1,-1],"loss_changes":[1.7486486E6,4.9114125E4,5.0032838E5,0E0,2.0539781E4,1.71131E5,7.00085E4,7.1616797E3,8.434828E3,1.3686156E4,1.007125E4,5.004399E4,4.2443438E4,0E0,0E0,0E0,0E0,0E0,0E0,0E0,0E0,0E0,0E0,0E0,0E0],"parents":[2147483647,0,0,1,1,2,2,4,4,5,5,6,6,7,7,8,8,9,9,10,10,11,11,12,12],"right_children":[2,4,6,-1,8,10,12,14,16,18,20,22,24,-1,-1,-1,-1,-1,-1,-1,-1,-1,-1,-1,-1],"split_conditions":[7.6548076E3,7.276775E-1,1.2035189E4,-4.045091E0,1E0,9.321125E-1,1E0,1.1252725E0,7.227326E2,2.979E2,2.61E2,1.4234788E4,7.8532056E2,-1.9909853E0,-5.628362E-1,-1.4977916E0,-3.4441946E0,6.4181094E0,3.7850664E0,1.2946113E1,8.268874E0,2.6721654E0,-5.5471446E-2,4.8311243E0,7.5196075E-1],"split_indices":[12,9,12,0,20,9,22,9,10,16,16,12,10,0,0,0,0,0,0,0,0,0,0,0,0],"split_type":[0,0,0,0,0,0,0,0,0,0,0,0,0,0,0,0,0,0,0,0,0,0,0,0,0],"sum_hessian":[3.62E2,2.02E2,1.6E2,6.4E1,1.38E2,5.7E1,1.03E2,8.7E1,5.1E1,3.3E1,2.4E1,6.9E1,3.4E1,7.6E1,1.1E1,9E0,4.2E1,1.6E1,1.7E1,1.2E1,1.2E1,2.7E1,4.2E1,2.5E1,9E0],"tree_param":{"num_deleted":"0","num_feature":"28","num_nodes":"25","size_leaf_vector":"1"}},{"base_weights":[2.274487E0,-5.4242928E1,7.724678E1,-7.0213844E1,-3.459761E1,1.7915999E2,4.549998E1,-8.062578E1,-5.1873432E1,-2.6193754E1,-4.9798912E1,1.210539E2,1.1527042E1,6.837192E1,1.4111911E1,-2.2069778E0,-4.109601E0,-4.103895E0,-2.2869608E0,3.0887818E-1,-1.4266385E0,-2.8771036E0,-1.7027838E0,3.8843887E0,8.030326E0,2.168714E0,4.840432E0,2.7970502E-1,4.5678477E0],"categories":[],"categories_nodes":[],"categories_segments":[],"categories_sizes":[],"default_left":[0,0,0,0,0,0,0,0,0,0,0,0,0,0,0,0,0,0,0,0,0,0,0,0,0,0,0,0,0],"id":34,"left_children":[1,3,5,7,9,11,13,15,17,19,21,23,-1,25,27,-1,-1,-1,-1,-1,-1,-1,-1,-1,-1,-1,-1,-1,-1],"loss_changes":[1.5084104E6,6.126275E4,4.8686706E5,1.7014125E4,1.0576281E4,7.9571625E4,8.374803E4,3.15125E2,4.2128906E3,4.870715E3,1.9412422E3,2.0112469E4,0E0,4.4138844E4,3.304483E4,0E0,0E0,0E0,0E0,0E0,0E0,0E0,0E0,0E0,0E0,0E0,0E0,0E0,0E0],"parents":[2147483647,0,0,1,1,2,2,3,3,4,4,5,5,6,6,7,7,8,8,9,9,10,10,11,11,13,13,14,14],"right_children":[2,4,6,8,10,12,14,16,18,20,22,24,-1,26,28,-1,-1,-1,-1,-1,-1,-1,-1,-1,-1,-1,-1,-1,-1],"split_conditions":[7.6548076E3,3.478E-1,1.0443051E4,1E0,1E0,4.159E-1,1.4453747E4,1.569E-1,1.132E-1,2.87E-2,4.58E-1,1E0,1.1527042E1,3.4E-1,5.011E-1,-2.2069778E0,-4.109601E0,-4.103895E0,-2.2869608E0,3.0887818E-1,-1.4266385E0,-2.8771036E0,-1.7027838E0,3.8843887E0,8.030326E0,2.168714E0,4.840432E0,2.7970502E-1,4.5678477E0],"split_indices":[12,0,12,19,20,0,12,1,0,8,0,22,0,0,0,0,0,0,0,0,0,0,0,0,0,0,0,0,0],"split_type":[0,0,0,0,0,0,0,0,0,0,0,0,0,0,0,0,0,0,0,0,0,0,0,0,0,0,0,0,0],"sum_hessian":[3.54E2,2.02E2,1.52E2,1.1E2,9.2E1,3.5E1,1.17E2,6.8E1,4.2E1,6.1E1,3.1E1,1.8E1,1.7E1,6.7E1,5E1,4E0,6.4E1,5E0,3.7E1,4E0,5.7E1,1.9E1,1.2E1,1E1,8E0,3.7E1,3E1,4.6E1,4E0],"tree_param":{"num_deleted":"0","num_feature":"28","num_nodes":"29","size_leaf_vector":"1"}},{"base_weights":[2.32798E0,-5.216605E1,7.318937E1,-4.06521E1,-6.922716E1,1.2389348E2,2.7472054E1,-4.9218533E1,-2.517086E1,-7.887297E1,-5.19299E1,1.6067001E2,8.585843E1,1.5454079E1,7.26824E1,-2.6514947E0,-1.2454889E0,-6.7222446E-1,-1.771067E0,-2.0159538E0,-4.062291E0,-3.2797036E0,-1.5579981E0,1.0803237E1,5.757446E0,5.2419577E0,3.0817878E0,1.1517421E0,-1.6166992E0,4.426561E0,-2.4606399E-1],"categories":[],"categories_nodes":[],"categories_segments":[],"categories_sizes":[],"default_left":[0,0,0,0,0,0,0,0,0,0,0,0,0,0,0,0,0,0,0,0,0,0,0,0,0,0,0,0,0,0,0],"id":35,"left_children":[1,3,5,7,9,11,13,15,17,19,21,23,25,27,29,-1,-1,-1,-1,-1,-1,-1,-1,-1,-1,-1,-1,-1,-1,-1,-1],"loss_changes":[1.4480274E6,3.883125E4,3.7443944E5,1.5868969E4,9.919219E3,9.39125E4,4.6147062E4,6.276297E3,5.293422E3,1.4813125E3,7.321625E3,7.094225E4,1.192875E4,2.6103705E4,2.2574367E4,0E0,0E0,0E0,0E0,0E0,0E0,0E0,0E0,0E0,0E0,0E0,0E0,0E0,0E0,0E0,0E0],"parents":[2147483647,0,0,1,1,2,2,3,3,4,4,5,5,6,6,7,7,8,8,9,9,10,10,11,11,12,12,13,13,14,14],"right_children":[2,4,6,8,10,12,14,16,18,20,22,24,26,28,30,-1,-1,-1,-1,-1,-1,-1,-1,-1,-1,-1,-1,-1,-1,-1,-1],"split_conditions":[7.6548076E3,7.831776E2,1.3061065E4,1E0,1E0,8.287E2,5.1937073E-1,6.076928E-1,1.2245E0,7.852592E2,1.615851E-1,1.009734E4,1.0613656E4,1.672403E4,1.685741E4,-2.6514947E0,-1.2454889E0,-6.7222446E-1,-1.771067E0,-2.0159538E0,-4.062291E0,-3.2797036E0,-1.5579981E0,1.0803237E1,5.757446E0,5.2419577E0,3.0817878E0,1.1517421E0,-1.6166992E0,4.426561E0,-2.4606399E-1],"split_indices":[12,10,12,19,19,14,13,13,2,10,13,12,12,12,12,0,0,0,0,0,0,0,0,0,0,0,0,0,0,0,0],"split_type":[0,0,0,0,0,0,0,0,0,0,0,0,0,0,0,0,0,0,0,0,0,0,0,0,0,0,0,0,0,0,0],"sum_hessian":[3.73E2,2.11E2,1.62E2,1.28E2,8.3E1,7.6E1,8.6E1,8.1E1,4.7E1,5.1E1,3.2E1,3.7E1,3.9E1,6.9E1,1.7E1,6.9E1,1.2E1,2.3E1,2.4E1,4E0,4.7E1,1.8E1,1.4E1,1.5E1,2.2E1,2E1,1.9E1,6E1,9E0,1.4E1,3E0],"tree_param":{"num_deleted":"0","num_feature":"28","num_nodes":"31","size_leaf_vector":"1"}},{"base_weights":[3.9828882E0,-4.9773335E1,7.50656E1,-5.830232E1,-3.5000294E1,1.4081303E2,3.552395E1,-6.3328236E1,-2.8960455E1,-3.5881093E0,-2.7998192E1,9.822576E1,1.9108821E2,2.294634E1,1.17932076E2,-2.826248E0,-3.9906456E0,-9.1107506E-1,-2.0627224E0,-6.296043E-1,-1.8331196E0,3.8234868E0,6.8381915E0,1.4138893E1,8.078192E0,4.4584998E-1,2.7155998E0,6.4542985E0,3.0282166E0],"categories":[],"categories_nodes":[],"categories_segments":[],"categories_sizes":[],"default_left":[0,0,0,0,0,0,0,0,0,0,0,0,0,0,0,0,0,0,0,0,0,0,0,0,0,0,0,0,0],"id":36,"left_children":[1,3,5,7,9,11,13,15,17,-1,19,21,23,25,27,-1,-1,-1,-1,-1,-1,-1,-1,-1,-1,-1,-1,-1,-1],"loss_changes":[1.4022728E6,2.4293188E4,4.057602E5,1.7484531E4,1.8326219E4,1.07554125E5,1.0094359E5,7.9372188E3,2.0207988E3,0E0,8.615094E3,1.80485E4,2.4697375E4,3.8239168E4,5.0034375E2,0E0,0E0,0E0,0E0,0E0,0E0,0E0,0E0,0E0,0E0,0E0,0E0,0E0,0E0],"parents":[2147483647,0,0,1,1,2,2,3,3,4,4,5,5,6,6,7,7,8,8,10,10,11,11,12,12,13,13,14,14],"right_children":[2,4,6,8,10,12,14,16,18,-1,20,22,24,26,28,-1,-1,-1,-1,-1,-1,-1,-1,-1,-1,-1,-1,-1,-1],"split_conditions":[7.6548076E3,1E0,1.1777025E4,1.04857E0,6.1261E-1,9.321125E-1,1.0540276E0,8.293E2,6.016E-1,-3.5881093E0,7.997E2,1E0,8.3E-3,1E0,1.4135E0,-2.826248E0,-3.9906456E0,-9.1107506E-1,-2.0627224E0,-6.296043E-1,-1.8331196E0,3.8234868E0,6.8381915E0,1.4138893E1,8.078192E0,4.4584998E-1,2.7155998E0,6.4542985E0,3.0282166E0],"split_indices":[12,19,12,9,9,9,9,14,1,0,14,22,4,22,2,0,0,0,0,0,0,0,0,0,0,0,0,0,0],"split_type":[0,0,0,0,0,0,0,0,0,0,0,0,0,0,0,0,0,0,0,0,0,0,0,0,0,0,0,0,0],"sum_hessian":[3.65E2,2.08E2,1.57E2,1.3E2,7.8E1,5.8E1,9.9E1,1.1E2,2E1,1.1E1,6.7E1,3.3E1,2.5E1,8.7E1,1.2E1,8.1E1,2.9E1,1.2E1,8E0,2.5E1,4.2E1,2.3E1,1E1,4E0,2.1E1,6.1E1,2.6E1,9E0,3E0],"tree_param":{"num_deleted":"0","num_feature":"28","num_nodes":"29","size_leaf_vector":"1"}},{"base_weights":[2.25816E0,-4.7871166E1,6.513931E1,-3.831912E1,-6.2880085E1,1.27077995E2,3.2692894E1,-4.621624E1,-2.1424486E1,-5.328086E1,-3.8465593E0,7.040141E1,1.5503505E2,2.1519308E1,9.978959E1,-1.827089E0,-2.8093233E0,9.63916E-2,-1.1966679E0,-1.6409968E0,-2.9878933E0,4.358564E0,1.340216E0,8.885433E0,5.062514E0,1.7203845E0,-4.0552455E-1,5.683247E0,2.4652956E0],"categories":[],"categories_nodes":[],"categories_segments":[],"categories_sizes":[],"default_left":[0,0,0,0,0,0,0,0,0,0,0,0,0,0,0,0,0,0,0,0,0,0,0,0,0,0,0,0,0],"id":37,"left_children":[1,3,5,7,9,11,13,15,17,19,-1,21,23,25,27,-1,-1,-1,-1,-1,-1,-1,-1,-1,-1,-1,-1,-1,-1],"loss_changes":[1.144211E6,2.6550406E4,3.194053E5,1.5820609E4,6.28675E3,7.623344E4,7.807164E4,6.145672E3,2.506834E3,4.5325E3,0E0,1.2285781E4,2.5908812E4,3.5793918E4,4.9028125E3,0E0,0E0,0E0,0E0,0E0,0E0,0E0,0E0,0E0,0E0,0E0,0E0,0E0,0E0],"parents":[2147483647,0,0,1,1,2,2,3,3,4,4,5,5,6,6,7,7,8,8,9,9,11,11,12,12,13,13,14,14],"right_children":[2,4,6,8,10,12,14,16,18,20,-1,22,24,26,28,-1,-1,-1,-1,-1,-1,-1,-1,-1,-1,-1,-1,-1,-1],"split_conditions":[7.6548076E3,7.831776E2,1.1649579E4,1E0,1E0,7.742892E-1,1.0540276E0,7.68E2,6.58E-2,4.681E-1,-3.8465593E0,1.7522E0,1E0,1.578015E4,1.4135E0,-1.827089E0,-2.8093233E0,9.63916E-2,-1.1966679E0,-1.6409968E0,-2.9878933E0,4.358564E0,1.340216E0,8.885433E0,5.062514E0,1.7203845E0,-4.0552455E-1,5.683247E0,2.4652956E0],"split_indices":[12,10,12,19,26,9,9,14,7,2,0,5,23,12,2,0,0,0,0,0,0,0,0,0,0,0,0,0,0],"split_type":[0,0,0,0,0,0,0,0,0,0,0,0,0,0,0,0,0,0,0,0,0,0,0,0,0,0,0,0,0],"sum_hessian":[3.61E2,2.01E2,1.6E2,1.25E2,7.6E1,5.4E1,1.06E2,8.4E1,4.1E1,4.8E1,2.8E1,1.9E1,3.5E1,9.2E1,1.4E1,4.5E1,3.9E1,4E0,3.7E1,1.3E1,3.5E1,1.3E1,6E0,2.3E1,1.2E1,6.4E1,2.8E1,1E1,4E0],"tree_param":{"num_deleted":"0","num_feature":"28","num_nodes":"29","size_leaf_vector":"1"}},{"base_weights":[2.7071037E0,-4.5487617E1,6.543415E1,-6.783329E1,-3.5465103E1,1.03916115E2,1.627459E1,-4.0387855E0,-6.0408707E1,-4.2829597E1,-2.187335E1,6.55271E1,1.4531508E2,-1.9885948E1,3.1859735E1,-1.5039967E0,-3.1762865E0,-2.5566556E0,-1.5274556E0,-1.3433094E0,-1.287819E-1,5.861472E0,2.7674937E0,1.1544394E1,5.9194746E0,-4.8701438E-1,-2.0117588E0,4.73495E-1,3.3946054E0],"categories":[],"categories_nodes":[],"categories_segments":[],"categories_sizes":[],"default_left":[0,0,0,0,0,0,0,0,0,0,0,0,0,0,0,0,0,0,0,0,0,0,0,0,0,0,0,0,0],"id":38,"left_children":[1,3,5,7,9,11,13,-1,15,17,19,21,23,25,27,-1,-1,-1,-1,-1,-1,-1,-1,-1,-1,-1,-1,-1,-1],"loss_changes":[1.1064126E6,4.3954E4,2.9909812E5,1.1742188E3,1.3577141E4,1.319225E5,4.0646832E4,0E0,2.2487031E3,7.92125E3,5.037373E3,1.8768312E4,6.943744E4,4.1501377E3,3.9695004E4,0E0,0E0,0E0,0E0,0E0,0E0,0E0,0E0,0E0,0E0,0E0,0E0,0E0,0E0],"parents":[2147483647,0,0,1,1,2,2,3,3,4,4,5,5,6,6,8,8,9,9,10,10,11,11,12,12,13,13,14,14],"right_children":[2,4,6,8,10,12,14,-1,16,18,20,22,24,26,28,-1,-1,-1,-1,-1,-1,-1,-1,-1,-1,-1,-1,-1,-1],"split_conditions":[7.6548076E3,2.165E-1,1.3670963E4,1.338E-1,1E0,3.593E-1,2.431E-1,-4.0387855E0,1.482E-1,4.422E-1,5.13E-1,8.519165E3,9.213715E3,1.6213706E4,1E0,-1.5039967E0,-3.1762865E0,-2.5566556E0,-1.5274556E0,-1.3433094E0,-1.287819E-1,5.861472E0,2.7674937E0,1.1544394E1,5.9194746E0,-4.8701438E-1,-2.0117588E0,4.73495E-1,3.3946054E0],"split_indices":[12,0,12,0,19,0,0,0,0,0,0,12,12,12,22,0,0,0,0,0,0,0,0,0,0,0,0,0,0],"split_type":[0,0,0,0,0,0,0,0,0,0,0,0,0,0,0,0,0,0,0,0,0,0,0,0,0,0,0,0,0],"sum_hessian":[3.64E2,2.06E2,1.58E2,6.2E1,1.44E2,8.8E1,7E1,1.9E1,4.3E1,9.2E1,5.2E1,4.7E1,4.1E1,2.1E1,4.9E1,5E0,3.8E1,5.3E1,3.9E1,4.1E1,1.1E1,6E0,4.1E1,8E0,3.3E1,1.5E1,6E0,3.1E1,1.8E1],"tree_param":{"num_deleted":"0","num_feature":"28","num_nodes":"29","size_leaf_vector":"1"}},{"base_weights":[1.2368022E0,-4.2863396E1,5.8965107E1,-5.6207764E1,-2.6732359E1,1.1182897E2,2.696297E1,-2.234958E1,-6.1428444E1,-1.7905287E1,-3.8269016E1,3.58821E1,1.3128409E2,1.8656635E1,8.35526E1,-2.0509565E0,-1.635571E-1,-2.668454E0,-3.4972062E0,-1.1983654E0,-2.7384838E-1,-2.2488468E0,-1.0696712E0,2.6706095E0,-1.4242433E-1,3.5826454E0,7.313717E0,1.6170768E0,-3.7551972E-1,5.163344E0,9.1536635E-1],"categories":[],"categories_nodes":[],"categories_segments":[],"categories_sizes":[],"default_left":[0,0,0,0,0,0,0,0,0,0,0,0,0,0,0,0,0,0,0,0,0,0,0,0,0,0,0,0,0,0,0],"id":39,"left_children":[1,3,5,7,9,11,13,15,17,19,21,23,25,27,29,-1,-1,-1,-1,-1,-1,-1,-1,-1,-1,-1,-1,-1,-1,-1,-1],"loss_changes":[8.935679E5,4.1333906E4,2.5413175E5,1.77175E4,8.683594E3,7.950994E4,4.356622E4,5.5647935E3,2.6498125E3,3.9371309E3,3.4525898E3,8.978502E3,2.9743875E4,3.0680812E4,1.3544617E4,0E0,0E0,0E0,0E0,0E0,0E0,0E0,0E0,0E0,0E0,0E0,0E0,0E0,0E0,0E0,0E0],"parents":[2147483647,0,0,1,1,2,2,3,3,4,4,5,5,6,6,7,7,8,8,9,9,10,10,11,11,12,12,13,13,14,14],"right_children":[2,4,6,8,10,12,14,16,18,20,22,24,26,28,30,-1,-1,-1,-1,-1,-1,-1,-1,-1,-1,-1,-1,-1,-1,-1,-1],"split_conditions":[1.513E2,3.478E-1,4.006E2,3.02E1,1E0,1.99E-1,5.054E-1,1.838E-1,1E0,5.176E-1,2.988E-1,1.596E0,4.098E-1,5.771E2,2.0627E0,-2.0509565E0,-1.635571E-1,-2.668454E0,-3.4972062E0,-1.1983654E0,-2.7384838E-1,-2.2488468E0,-1.0696712E0,2.6706095E0,-1.4242433E-1,3.5826454E0,7.313717E0,1.6170768E0,-3.7551972E-1,5.163344E0,9.1536635E-1],"split_indices":[16,0,16,15,20,0,0,0,20,0,7,5,6,16,5,0,0,0,0,0,0,0,0,0,0,0,0,0,0,0,0],"split_type":[0,0,0,0,0,0,0,0,0,0,0,0,0,0,0,0,0,0,0,0,0,0,0,0,0,0,0,0,0,0,0],"sum_hessian":[3.49E2,1.98E2,1.51E2,1.07E2,9.1E1,5.6E1,9.5E1,1.5E1,9.2E1,5.3E1,3.8E1,1.2E1,4.4E1,8.4E1,1.1E1,7E0,8E0,5.1E1,4.1E1,3.5E1,1.8E1,2.6E1,1.2E1,8E0,4E0,1E1,3.4E1,5.5E1,2.9E1,8E0,3E0],"tree_param":{"num_deleted":"0","num_feature":"28","num_nodes":"31","size_leaf_vector":"1"}},{"base_weights":[2.153478E0,-3.9516693E1,5.7520588E1,-5.334206E1,-2.373627E1,2.4037144E1,8.627686E1,-6.888951E1,-4.3330647E1,-3.478644E1,-1.48274555E1,-3.7425628E0,3.388079E1,6.16842E1,1.2766776E2,-1.6553086E0,-3.542165E0,-2.3790653E0,-8.296261E-1,-1.935976E0,-6.369648E-1,8.957077E-1,-8.5093784E-1,-1.5929224E0,2.6387808E-1,1.2455548E0,3.0126798E0,2.0211914E0,6.2813306E0,8.30732E0,5.163259E0],"categories":[],"categories_nodes":[],"categories_segments":[],"categories_sizes":[],"default_left":[0,0,0,0,0,0,0,0,0,0,0,0,0,0,0,0,0,0,0,0,0,0,0,0,0,0,0,0,0,0,0],"id":40,"left_children":[1,3,5,7,9,11,13,15,17,19,21,23,25,27,29,-1,-1,-1,-1,-1,-1,-1,-1,-1,-1,-1,-1,-1,-1,-1,-1],"loss_changes":[8.3284956E5,4.3676875E4,1.4716925E5,1.3981031E4,9.131715E3,2.0088914E4,7.661169E4,5.2109375E2,7.052672E3,3.2353984E3,4.3226943E3,5.24031E3,1.1273039E4,6.833141E4,1.1012219E4,0E0,0E0,0E0,0E0,0E0,0E0,0E0,0E0,0E0,0E0,0E0,0E0,0E0,0E0,0E0,0E0],"parents":[2147483647,0,0,1,1,2,2,3,3,4,4,5,5,6,6,7,7,8,8,9,9,10,10,11,11,12,12,13,13,14,14],"right_children":[2,4,6,8,10,12,14,16,18,20,22,24,26,28,30,-1,-1,-1,-1,-1,-1,-1,-1,-1,-1,-1,-1,-1,-1,-1,-1],"split_conditions":[3.02E1,3.478E-1,3.106E-1,1E0,1E0,1.373E-1,1E0,3.48E1,7.048E-1,5.553E-1,2.87E-2,9.6E-2,1E0,5.46E-1,5.812E-1,-1.6553086E0,-3.542165E0,-2.3790653E0,-8.296261E-1,-1.935976E0,-6.369648E-1,8.957077E-1,-8.5093784E-1,-1.5929224E0,2.6387808E-1,1.2455548E0,3.0126798E0,2.0211914E0,6.2813306E0,8.30732E0,5.163259E0],"split_indices":[17,0,0,25,25,0,22,15,1,0,8,0,22,0,5,0,0,0,0,0,0,0,0,0,0,0,0,0,0,0,0],"split_type":[0,0,0,0,0,0,0,0,0,0,0,0,0,0,0,0,0,0,0,0,0,0,0,0,0,0,0,0,0,0,0],"sum_hessian":[3.59E2,2.05E2,1.54E2,1.08E2,9.7E1,7.2E1,8.2E1,4E1,6.8E1,4.2E1,5.5E1,1.9E1,5.3E1,5.3E1,2.9E1,3E0,3.7E1,5.8E1,1E1,3.5E1,7E0,3E0,5.2E1,4E0,1.5E1,4.1E1,1.2E1,4.1E1,1.2E1,9E0,2E1],"tree_param":{"num_deleted":"0","num_feature":"28","num_nodes":"31","size_leaf_vector":"1"}},{"base_weights":[1.6178808E0,-3.987955E1,5.249201E1,-2.9063435E1,-4.9615368E1,1.0700381E2,2.7133236E1,-1.738639E1,-3.7567406E1,-5.7035847E1,-3.6773296E1,7.3127045E1,1.5141528E2,1.6733938E1,8.282197E1,-9.919042E-1,6.0450286E-1,-1.2773447E0,-2.1018727E0,-1.4223605E0,-2.9456413E0,-1.2839434E0,-2.332246E0,4.573112E0,2.6892557E0,8.6286545E0,6.53096E-1,1.4780087E0,-3.7821656E-1,4.8763175E0,1.8579413E0],"categories":[],"categories_nodes":[],"categories_segments":[],"categories_sizes":[],"default_left":[0,0,0,0,0,0,0,0,0,0,0,0,0,0,0,0,0,0,0,0,0,0,0,0,0,0,0,0,0,0,0],"id":41,"left_children":[1,3,5,7,9,11,13,15,17,19,21,23,25,27,29,-1,-1,-1,-1,-1,-1,-1,-1,-1,-1,-1,-1,-1,-1,-1,-1],"loss_changes":[7.895507E5,2.0250594E4,2.2933188E5,9.276961E3,8.0990938E3,6.866681E4,6.5792414E4,3.4196006E3,1.9888125E3,1.8656875E3,3.4020547E3,6.4291094E3,6.2145406E4,3.1077484E4,8.462094E3,0E0,0E0,0E0,0E0,0E0,0E0,0E0,0E0,0E0,0E0,0E0,0E0,0E0,0E0,0E0,0E0],"parents":[2147483647,0,0,1,1,2,2,3,3,4,4,5,5,6,6,7,7,8,8,9,9,10,10,11,11,12,12,13,13,14,14],"right_children":[2,4,6,8,10,12,14,16,18,20,22,24,26,28,30,-1,-1,-1,-1,-1,-1,-1,-1,-1,-1,-1,-1,-1,-1,-1,-1],"split_conditions":[1.513E2,7.696586E2,3.693E2,5.54E1,2.1795204E-1,9.321125E-1,1.0540276E0,6.538E-1,6.829E-1,4.7E-3,1.3079E0,2.979E2,1.838E2,5.771E2,1.4135E0,-9.919042E-1,6.0450286E-1,-1.2773447E0,-2.1018727E0,-1.4223605E0,-2.9456413E0,-1.2839434E0,-2.332246E0,4.573112E0,2.6892557E0,8.6286545E0,6.53096E-1,1.4780087E0,-3.7821656E-1,4.8763175E0,1.8579413E0],"split_indices":[16,10,16,15,13,9,9,1,6,4,6,16,17,16,2,0,0,0,0,0,0,0,0,0,0,0,0,0,0,0,0],"split_type":[0,0,0,0,0,0,0,0,0,0,0,0,0,0,0,0,0,0,0,0,0,0,0,0,0,0,0,0,0,0,0],"sum_hessian":[3.72E2,2.05E2,1.67E2,9.9E1,1.06E2,5.2E1,1.15E2,4.3E1,5.6E1,6.5E1,4.1E1,3.1E1,2.1E1,9.8E1,1.7E1,4E1,3E0,1.7E1,3.9E1,5E0,6E1,2.1E1,2E1,1.4E1,1.7E1,1.8E1,3E0,6.4E1,3.4E1,1.2E1,5E0],"tree_param":{"num_deleted":"0","num_feature":"28","num_nodes":"31","size_leaf_vector":"1"}},{"base_weights":[4.8298302E-1,-3.6617622E1,5.5524513E1,-5.398648E1,-2.6231499E1,1.14551994E2,3.0645971E1,-6.1906685E1,-3.918156E1,-3.7248524E1,-1.9405666E1,8.185153E1,1.6870587E2,1.990444E1,8.760576E1,-3.3342197E0,-2.4456003E0,-3.2432156E0,-1.5379996E0,-2.0891802E0,-6.5579045E-1,-1.1604413E0,-1.8860859E-1,2.5517762E0,5.9111795E0,3.9176736E0,9.614694E0,3.1783274E-1,2.4791903E0,5.2914143E0,2.3227627E0],"categories":[],"categories_nodes":[],"categories_segments":[],"categories_sizes":[],"default_left":[0,0,0,0,0,0,0,0,0,0,0,0,0,0,0,0,0,0,0,0,0,0,0,0,0,0,0,0,0,0,0],"id":42,"left_children":[1,3,5,7,9,11,13,15,17,19,21,23,25,27,29,-1,-1,-1,-1,-1,-1,-1,-1,-1,-1,-1,-1,-1,-1,-1,-1],"loss_changes":[7.759792E5,3.953353E4,2.2117269E5,7.4240625E3,1.0106016E4,6.587969E4,6.4946312E4,2.8828125E1,4.9260273E3,5.3619375E3,5.3230117E3,2.7591625E4,1.9032875E4,3.7079156E4,7.8314453E3,0E0,0E0,0E0,0E0,0E0,0E0,0E0,0E0,0E0,0E0,0E0,0E0,0E0,0E0,0E0,0E0],"parents":[2147483647,0,0,1,1,2,2,3,3,4,4,5,5,6,6,7,7,8,8,9,9,10,10,11,11,12,12,13,13,14,14],"right_children":[2,4,6,8,10,12,14,16,18,20,22,24,26,28,30,-1,-1,-1,-1,-1,-1,-1,-1,-1,-1,-1,-1,-1,-1,-1,-1],"split_conditions":[7.6548076E3,2.513E-1,1.1431479E4,1E0,1E0,4.159E-1,5.054E-1,2.098E-1,1.132E-1,5.553E-1,5.197E-1,1E0,8.7622666E-1,1E0,1E0,-3.3342197E0,-2.4456003E0,-3.2432156E0,-1.5379996E0,-2.0891802E0,-6.5579045E-1,-1.1604413E0,-1.8860859E-1,2.5517762E0,5.9111795E0,3.9176736E0,9.614694E0,3.1783274E-1,2.4791903E0,5.2914143E0,2.3227627E0],"split_indices":[12,0,12,19,25,0,0,0,0,0,0,22,9,22,27,0,0,0,0,0,0,0,0,0,0,0,0,0,0,0,0],"split_type":[0,0,0,0,0,0,0,0,0,0,0,0,0,0,0,0,0,0,0,0,0,0,0,0,0,0,0,0,0,0,0],"sum_hessian":[3.78E2,2.26E2,1.52E2,8.3E1,1.43E2,4.4E1,1.08E2,5.2E1,3.1E1,5.3E1,9E1,2.9E1,1.5E1,9.2E1,1.6E1,3.5E1,1.7E1,6E0,2.5E1,4.4E1,9E0,7.2E1,1.8E1,1.7E1,1.2E1,4E0,1.1E1,6.4E1,2.8E1,1E1,6E0],"tree_param":{"num_deleted":"0","num_feature":"28","num_nodes":"31","size_leaf_vector":"1"}},{"base_weights":[1.709513E0,-3.430727E1,5.0510487E1,-2.6738127E1,-4.5894447E1,8.329384E1,1.5742331E1,-2.8123432E1,6.3440007E-1,-5.09824E-1,-4.7152855E1,1.1944193E2,6.2922825E1,4.0036304E1,4.1748825E-1,-6.8058085E-1,-1.5751979E0,-2.783672E0,-2.0573876E0,4.353105E0,8.289072E0,2.2943938E0,5.094159E0,8.1394637E-1,3.6168008E0,-1.0608431E0,6.1340094E-1],"categories":[],"categories_nodes":[],"categories_segments":[],"categories_sizes":[],"default_left":[0,0,0,0,0,0,0,0,0,0,0,0,0,0,0,0,0,0,0,0,0,0,0,0,0,0,0],"id":43,"left_children":[1,3,5,7,9,11,13,15,-1,-1,17,19,21,23,25,-1,-1,-1,-1,-1,-1,-1,-1,-1,-1,-1,-1],"loss_changes":[6.292154E5,1.684011E4,1.7194088E5,7.2932188E3,3.1130156E3,4.99215E4,2.7905883E4,5.6052656E3,0E0,0E0,1.6490156E3,2.6079219E4,2.9836547E4,2.1075781E4,1.2310079E4,0E0,0E0,0E0,0E0,0E0,0E0,0E0,0E0,0E0,0E0,0E0,0E0],"parents":[2147483647,0,0,1,1,2,2,3,3,4,4,5,5,6,6,7,7,10,10,11,11,12,12,13,13,14,14],"right_children":[2,4,6,8,10,12,14,16,-1,-1,18,20,22,24,26,-1,-1,-1,-1,-1,-1,-1,-1,-1,-1,-1,-1],"split_conditions":[1.513E2,7.831776E2,4.623E2,8.7798107E-1,6.4E-2,2.61E2,7.5177246E2,1.2045E0,6.3440007E-1,-5.09824E-1,1E0,7.3529205E1,5.346779E-1,1E0,1.3161848E-1,-6.8058085E-1,-1.5751979E0,-2.783672E0,-2.0573876E0,4.353105E0,8.289072E0,2.2943938E0,5.094159E0,8.1394637E-1,3.6168008E0,-1.0608431E0,6.1340094E-1],"split_indices":[16,10,16,13,5,16,10,5,0,0,25,11,13,22,13,0,0,0,0,0,0,0,0,0,0,0,0],"split_type":[0,0,0,0,0,0,0,0,0,0,0,0,0,0,0,0,0,0,0,0,0,0,0,0,0,0,0],"sum_hessian":[3.56E2,2.05E2,1.51E2,1.26E2,7.9E1,7.7E1,7.4E1,1.22E2,4E0,3E0,7.6E1,2.6E1,5.1E1,2.8E1,4.6E1,2.4E1,9.8E1,2.8E1,4.8E1,1.7E1,9E0,3.7E1,1.4E1,1.7E1,1.1E1,1.6E1,3E1],"tree_param":{"num_deleted":"0","num_feature":"28","num_nodes":"27","size_leaf_vector":"1"}},{"base_weights":[1.3678281E0,-3.2393127E1,4.9992928E1,-4.1809086E1,-1.5032109E1,1.6833002E1,7.664359E1,-3.279091E1,-2.7197554E0,-8.675945E0,-2.6432875E1,-1.1064217E1,2.542345E1,8.738483E0,6.46762E1,-2.6216455E0,-1.3530571E0,-7.4140525E-1,-2.2578154E-2,-1.5803266E0,-3.937437E-1,-1.3838471E0,8.35556E-2,2.4546173E0,7.4276024E-1,2.0845494E0,4.7732897E0],"categories":[],"categories_nodes":[],"categories_segments":[],"categories_sizes":[],"default_left":[0,0,0,0,0,0,0,0,0,0,0,0,0,0,0,0,0,0,0,0,0,0,0,0,0,0,0],"id":44,"left_children":[1,3,5,7,9,11,13,15,-1,17,19,21,23,-1,25,-1,-1,-1,-1,-1,-1,-1,-1,-1,-1,-1,-1],"loss_changes":[5.729066E5,3.3046484E4,1.2508384E5,1.3312234E4,5.13309E3,1.5858516E4,8.146728E4,7.584633E3,0E0,2.472592E3,2.2474355E3,3.4313472E3,1.1777658E4,0E0,4.697475E4,0E0,0E0,0E0,0E0,0E0,0E0,0E0,0E0,0E0,0E0,0E0,0E0],"parents":[2147483647,0,0,1,1,2,2,3,3,4,4,5,5,6,6,7,7,9,9,10,10,11,11,12,12,14,14],"right_children":[2,4,6,8,10,12,14,16,-1,18,20,22,24,-1,26,-1,-1,-1,-1,-1,-1,-1,-1,-1,-1,-1,-1],"split_conditions":[3.02E1,4.222E-1,3.106E-1,1E0,1E0,1.373E-1,5.9E-3,6.083367E-1,-2.7197554E0,5.197E-1,3.374E-1,7.268E-1,8.36E1,8.738483E0,1E0,-2.6216455E0,-1.3530571E0,-7.4140525E-1,-2.2578154E-2,-1.5803266E0,-3.937437E-1,-1.3838471E0,8.35556E-2,2.4546173E0,7.4276024E-1,2.0845494E0,4.7732897E0],"split_indices":[17,0,0,20,20,0,4,9,0,0,7,2,17,0,22,0,0,0,0,0,0,0,0,0,0,0,0],"split_type":[0,0,0,0,0,0,0,0,0,0,0,0,0,0,0,0,0,0,0,0,0,0,0,0,0,0,0],"sum_hessian":[3.47E2,2.05E2,1.42E2,1.32E2,7.3E1,6.4E1,7.8E1,7.9E1,5.3E1,4.8E1,2.5E1,1.5E1,4.9E1,7E0,7.1E1,1.6E1,6.3E1,2.7E1,2.1E1,1.9E1,6E0,6E0,9E0,1.4E1,3.5E1,4.2E1,2.9E1],"tree_param":{"num_deleted":"0","num_feature":"28","num_nodes":"27","size_leaf_vector":"1"}},{"base_weights":[1.9559817E0,-3.160354E1,4.7948467E1,-5.1284496E1,-2.3411238E1,8.5132545E1,1.3883441E1,-5.493071E1,-2.7560358E1,1.8454702E0,-2.6922516E1,5.2027893E1,1.1864237E2,-2.0759785E0,4.528808E1,-1.4975876E0,-2.8209655E0,-1.7858762E0,-3.1976166E-1,-6.630661E-1,2.7534133E-1,-1.6987256E0,-7.6663375E-1,5.117447E-1,3.2322605E0,9.755136E0,4.969778E0,4.0322572E-1,-1.2310423E0,-1.13448E0,2.9048395E0],"categories":[],"categories_nodes":[],"categories_segments":[],"categories_sizes":[],"default_left":[0,0,0,0,0,0,0,0,0,0,0,0,0,0,0,0,0,0,0,0,0,0,0,0,0,0,0,0,0,0,0],"id":45,"left_children":[1,3,5,7,9,11,13,15,17,19,21,23,25,27,29,-1,-1,-1,-1,-1,-1,-1,-1,-1,-1,-1,-1,-1,-1,-1,-1],"loss_changes":[5.525398E5,3.2174469E4,1.9008625E5,3.6762812E3,1.317482E4,7.3699125E4,4.019E4,2.065E2,1.4980522E3,1.1239434E3,1.0104172E4,1.9376344E4,3.2114281E4,1.2543823E4,2.4827258E4,0E0,0E0,0E0,0E0,0E0,0E0,0E0,0E0,0E0,0E0,0E0,0E0,0E0,0E0,0E0,0E0],"parents":[2147483647,0,0,1,1,2,2,3,3,4,4,5,5,6,6,7,7,8,8,9,9,10,10,11,11,12,12,13,13,14,14],"right_children":[2,4,6,8,10,12,14,16,18,20,22,24,26,28,30,-1,-1,-1,-1,-1,-1,-1,-1,-1,-1,-1,-1,-1,-1,-1,-1],"split_conditions":[7.6548076E3,2.098E-1,1.3061065E4,2.1032234E-1,2.96E1,3.593E-1,1E0,8E-3,2.549E-1,3.554E-1,4.422E-1,6.164733E-1,8.3E-3,1.6161261E4,1.533E-1,-1.4975876E0,-2.8209655E0,-1.7858762E0,-3.1976166E-1,-6.630661E-1,2.7534133E-1,-1.6987256E0,-7.6663375E-1,5.117447E-1,3.2322605E0,9.755136E0,4.969778E0,4.0322572E-1,-1.2310423E0,-1.13448E0,2.9048395E0],"split_indices":[12,0,12,13,15,0,22,3,7,1,0,9,4,12,0,0,0,0,0,0,0,0,0,0,0,0,0,0,0,0,0],"split_type":[0,0,0,0,0,0,0,0,0,0,0,0,0,0,0,0,0,0,0,0,0,0,0,0,0,0,0,0,0,0,0],"sum_hessian":[3.56E2,2.06E2,1.5E2,5.9E1,1.47E2,7.1E1,7.9E1,5E1,9E0,1.8E1,1.29E2,3.7E1,3.4E1,5.3E1,2.6E1,4E0,4.6E1,6E0,3E0,3E0,1.5E1,7.9E1,5E1,9E0,2.8E1,5E0,2.9E1,3.7E1,1.6E1,4E0,2.2E1],"tree_param":{"num_deleted":"0","num_feature":"28","num_nodes":"31","size_leaf_vector":"1"}},{"base_weights":[1.1324021E0,-2.9196236E1,4.2258537E1,-3.7275608E1,-1.4022367E1,7.7402245E1,1.3352858E1,-4.680855E1,-3.0444391E1,-1.5502517E1,8.4329987E-1,4.9655567E1,1.1923076E2,-2.465935E0,4.1607143E1,-2.044934E0,-2.823787E0,-2.548636E0,-1.3352032E0,-3.5815278E-1,-9.805579E-1,4.262893E0,2.0996096E0,4.995996E0,1.0505794E1,1.8895881E-1,-1.8443502E0,2.8400047E0,3.719388E-1],"categories":[],"categories_nodes":[],"categories_segments":[],"categories_sizes":[],"default_left":[0,0,0,0,0,0,0,0,0,0,0,0,0,0,0,0,0,0,0,0,0,0,0,0,0,0,0,0,0],"id":46,"left_children":[1,3,5,7,9,11,13,15,17,19,-1,21,23,25,27,-1,-1,-1,-1,-1,-1,-1,-1,-1,-1,-1,-1,-1,-1],"loss_changes":[4.7021847E5,2.60805E4,1.6150294E5,7.7570938E3,3.7818594E3,7.764291E4,3.9881035E4,9.467344E2,5.1653516E3,2.3950488E3,0E0,8.697359E3,2.8147156E4,1.2607279E4,1.6189254E4,0E0,0E0,0E0,0E0,0E0,0E0,0E0,0E0,0E0,0E0,0E0,0E0,0E0,0E0],"parents":[2147483647,0,0,1,1,2,2,3,3,4,4,5,5,6,6,7,7,8,8,9,9,11,11,12,12,13,13,14,14],"right_children":[2,4,6,8,10,12,14,16,18,20,-1,22,24,26,28,-1,-1,-1,-1,-1,-1,-1,-1,-1,-1,-1,-1,-1,-1],"split_conditions":[7.6548076E3,4.222E-1,1.3061065E4,1E0,9.299816E-1,3.939E-1,4.242E-1,1.1443E0,1.462E-1,2.748832E-1,8.4329987E-1,8.519165E3,3.25E-2,1.672403E4,1.5207469E4,-2.044934E0,-2.823787E0,-2.548636E0,-1.3352032E0,-3.5815278E-1,-9.805579E-1,4.262893E0,2.0996096E0,4.995996E0,1.0505794E1,1.8895881E-1,-1.8443502E0,2.8400047E0,3.719388E-1],"split_indices":[12,0,12,25,13,0,0,6,0,13,0,12,3,12,12,0,0,0,0,0,0,0,0,0,0,0,0,0,0],"split_type":[0,0,0,0,0,0,0,0,0,0,0,0,0,0,0,0,0,0,0,0,0,0,0,0,0,0,0,0,0],"sum_hessian":[3.75E2,2.16E2,1.59E2,1.4E2,7.6E1,7.1E1,8.8E1,5.6E1,8.4E1,7.3E1,3E0,4.4E1,2.7E1,5.7E1,3.1E1,3.8E1,1.8E1,1.1E1,7.3E1,2.5E1,4.8E1,6E0,3.8E1,2.4E1,3E0,4.9E1,8E0,2.1E1,1E1],"tree_param":{"num_deleted":"0","num_feature":"28","num_nodes":"29","size_leaf_vector":"1"}},{"base_weights":[-1.8007232E-1,-2.9774282E1,4.1825775E1,-3.7642254E1,-1.4967945E1,7.439317E1,1.3412938E1,-4.69047E1,-3.0179892E1,-7.697612E0,-2.6343891E1,5.074572E1,1.1682056E2,6.1035156E-3,4.171603E1,-2.7973375E0,-2.0266454E0,-1.578813E-1,-1.6944563E0,-8.182621E-1,6.389612E-2,-1.442077E0,-1.4493981E-1,1.3323429E0,3.2158406E0,7.907617E0,3.9361272E0,-7.4496007E-1,6.291132E-1,-1.3329476E0,2.5686846E0],"categories":[],"categories_nodes":[],"categories_segments":[],"categories_sizes":[],"default_left":[0,0,0,0,0,0,0,0,0,0,0,0,0,0,0,0,0,0,0,0,0,0,0,0,0,0,0,0,0,0,0],"id":47,"left_children":[1,3,5,7,9,11,13,15,17,19,21,23,25,27,29,-1,-1,-1,-1,-1,-1,-1,-1,-1,-1,-1,-1,-1,-1,-1,-1],"loss_changes":[4.6617594E5,2.5065656E4,1.4242866E5,8.468547E3,6.2483555E3,6.630947E4,3.1873953E4,1.3044062E3,8.1120156E3,3.8329473E3,1.6731191E3,1.3984445E4,2.6916281E4,1.1059653E4,1.9198816E4,0E0,0E0,0E0,0E0,0E0,0E0,0E0,0E0,0E0,0E0,0E0,0E0,0E0,0E0,0E0,0E0],"parents":[2147483647,0,0,1,1,2,2,3,3,4,4,5,5,6,6,7,7,8,8,9,9,10,10,11,11,12,12,13,13,14,14],"right_children":[2,4,6,8,10,12,14,16,18,20,22,24,26,28,30,-1,-1,-1,-1,-1,-1,-1,-1,-1,-1,-1,-1,-1,-1,-1,-1],"split_conditions":[7.6548076E3,4.101E-1,1.3061065E4,2.065E-1,1E0,9.321125E-1,1E0,1.36E-1,3.02E1,4.989E-1,7.724391E2,1.99E-1,9.392452E3,8.0776E-1,1.533E-1,-2.7973375E0,-2.0266454E0,-1.578813E-1,-1.6944563E0,-8.182621E-1,6.389612E-2,-1.442077E0,-1.4493981E-1,1.3323429E0,3.2158406E0,7.907617E0,3.9361272E0,-7.4496007E-1,6.291132E-1,-1.3329476E0,2.5686846E0],"split_indices":[12,0,12,0,20,9,22,0,15,1,10,0,12,9,0,0,0,0,0,0,0,0,0,0,0,0,0,0,0,0,0],"split_type":[0,0,0,0,0,0,0,0,0,0,0,0,0,0,0,0,0,0,0,0,0,0,0,0,0,0,0,0,0,0,0],"sum_hessian":[3.73E2,2.19E2,1.54E2,1.42E2,7.7E1,7.1E1,8.3E1,6.1E1,8.1E1,4.8E1,2.9E1,4.7E1,2.4E1,5.7E1,2.6E1,2.2E1,3.9E1,1E1,7.1E1,2.4E1,2.4E1,2.6E1,3E0,1.8E1,2.9E1,1E1,1.4E1,2.6E1,3.1E1,3E0,2.3E1],"tree_param":{"num_deleted":"0","num_feature":"28","num_nodes":"31","size_leaf_vector":"1"}},{"base_weights":[-5.189352E-1,-2.8207287E1,3.7191643E1,-3.9432163E1,-1.6490597E1,7.2290825E1,6.347331E0,-4.5302418E1,-2.833628E1,-2.2001982E1,-7.9621115E0,3.354738E1,9.530277E1,-4.9204984E0,2.7109932E1,-2.5208662E0,-1.9427546E0,-2.803438E0,-1.1304446E0,-5.9673768E-2,-1.1708237E0,-8.9886475E-1,-5.537438E-2,3.7858741E0,1.1682067E0,6.9541802E0,3.622825E0,-1.1420517E0,1.2788415E-1,1.8686335E0,-9.229671E-1],"categories":[],"categories_nodes":[],"categories_segments":[],"categories_sizes":[],"default_left":[0,0,0,0,0,0,0,0,0,0,0,0,0,0,0,0,0,0,0,0,0,0,0,0,0,0,0,0,0,0,0],"id":48,"left_children":[1,3,5,7,9,11,13,15,17,19,21,23,25,27,29,-1,-1,-1,-1,-1,-1,-1,-1,-1,-1,-1,-1,-1,-1,-1,-1],"loss_changes":[3.7485253E5,2.6574047E4,1.6409788E5,5.555547E3,4.666205E3,6.010375E4,1.9317248E4,2.5051562E2,4.9269004E3,1.7969277E3,2.8634036E3,1.0254924E4,3.3932562E4,7.295123E3,1.4252176E4,0E0,0E0,0E0,0E0,0E0,0E0,0E0,0E0,0E0,0E0,0E0,0E0,0E0,0E0,0E0,0E0],"parents":[2147483647,0,0,1,1,2,2,3,3,4,4,5,5,6,6,7,7,8,8,9,9,10,10,11,11,12,12,13,13,14,14],"right_children":[2,4,6,8,10,12,14,16,18,20,22,24,26,28,30,-1,-1,-1,-1,-1,-1,-1,-1,-1,-1,-1,-1,-1,-1,-1,-1],"split_conditions":[7.6548076E3,2.962E-1,1.3061065E4,1E0,1E0,3.106E-1,4.242E-1,1.941E-1,1.132E-1,6E-3,4.004E-1,8.220909E3,9.392452E3,8.1E-3,1.6316802E4,-2.5208662E0,-1.9427546E0,-2.803438E0,-1.1304446E0,-5.9673768E-2,-1.1708237E0,-8.9886475E-1,-5.537438E-2,3.7858741E0,1.1682067E0,6.9541802E0,3.622825E0,-1.1420517E0,1.2788415E-1,1.8686335E0,-9.229671E-1],"split_indices":[12,0,12,19,19,0,0,0,0,4,1,12,12,4,12,0,0,0,0,0,0,0,0,0,0,0,0,0,0,0,0],"split_type":[0,0,0,0,0,0,0,0,0,0,0,0,0,0,0,0,0,0,0,0,0,0,0,0,0,0,0,0,0,0,0],"sum_hessian":[3.57E2,2.06E2,1.51E2,1.04E2,1.02E2,7E1,8.1E1,6.6E1,3.8E1,6.1E1,4.1E1,2.7E1,4.3E1,5.3E1,2.8E1,3.3E1,3.3E1,5E0,3.3E1,4E0,5.7E1,1.6E1,2.5E1,4E0,2.3E1,1.3E1,3E1,1.5E1,3.8E1,2.3E1,5E0],"tree_param":{"num_deleted":"0","num_feature":"28","num_nodes":"31","size_leaf_vector":"1"}},{"base_weights":[1.1852876E0,-2.5033188E1,3.7648262E1,-3.6725006E1,-1.933413E1,2.824024E1,1.0021079E2,-3.083168E-1,-3.898081E1,-2.8470627E1,-1.3782623E1,1.0636323E1,4.3083626E1,1.1905713E2,1.8196573E0,-2.0292466E0,-5.807172E-1,-6.962047E-1,-1.6549063E0,-7.4861133E-1,8.363251E-1,2.6120624E-1,2.698039E0,1.0231441E0,3.2575657E0,3.955991E0,9.15539E0],"categories":[],"categories_nodes":[],"categories_segments":[],"categories_sizes":[],"default_left":[0,0,0,0,0,0,0,0,0,0,0,0,0,0,0,0,0,0,0,0,0,0,0,0,0,0,0],"id":49,"left_children":[1,3,5,7,9,11,13,-1,15,17,19,21,23,25,-1,-1,-1,-1,-1,-1,-1,-1,-1,-1,-1,-1,-1],"loss_changes":[3.5657575E5,1.37491875E4,8.8989984E4,4.5850312E3,7.1143594E3,3.534008E4,1.9721719E4,0E0,2.3820703E3,3.241414E3,3.662045E3,1.472486E4,3.5606688E4,2.3882719E4,0E0,0E0,0E0,0E0,0E0,0E0,0E0,0E0,0E0,0E0,0E0,0E0,0E0],"parents":[2147483647,0,0,1,1,2,2,3,3,4,4,5,5,6,6,8,8,9,9,10,10,11,11,12,12,13,13],"right_children":[2,4,6,8,10,12,14,-1,16,18,20,22,24,26,-1,-1,-1,-1,-1,-1,-1,-1,-1,-1,-1,-1,-1],"split_conditions":[3.02E1,7.4116E-1,1.0540276E0,4.7E-3,1E0,8.0776E-1,1E0,-3.083168E-1,1.5394E0,7.319486E2,9.299816E-1,7.281E-1,6.4203964E1,1.1413225E0,1.8196573E0,-2.0292466E0,-5.807172E-1,-6.962047E-1,-1.6549063E0,-7.4861133E-1,8.363251E-1,2.6120624E-1,2.698039E0,1.0231441E0,3.2575657E0,3.955991E0,9.15539E0],"split_indices":[17,9,9,4,25,9,27,0,2,10,13,1,11,9,0,0,0,0,0,0,0,0,0,0,0,0,0],"split_type":[0,0,0,0,0,0,0,0,0,0,0,0,0,0,0,0,0,0,0,0,0,0,0,0,0,0,0],"sum_hessian":[3.71E2,2.16E2,1.55E2,6.9E1,1.47E2,1.36E2,1.9E1,5E0,6.4E1,5.4E1,9.3E1,6.3E1,7.3E1,1.4E1,5E0,6E1,4E0,1.4E1,4E1,9E1,3E0,5.7E1,6E0,3.7E1,3.6E1,1E1,4E0],"tree_param":{"num_deleted":"0","num_feature":"28","num_nodes":"27","size_leaf_vector":"1"}},{"base_weights":[1.9985579E0,-2.391548E1,3.765945E1,-3.2660435E1,-1.3981317E1,1.0030771E2,2.2322594E1,-3.917252E1,-2.2094168E1,-1.6730793E1,7.804876E0,4.639564E1,1.2120356E2,1.4001153E1,6.8010574E1,-7.4011654E-1,-2.0034785E0,-2.5240011E0,-8.641968E-1,-5.59936E-1,-1.2176225E0,-1.8902282E-1,7.03505E-1,2.7272186E-1,3.1581333E0,6.9508643E0,3.7439554E0,1.4840072E0,-3.3230364E-1,4.1250405E0,1.143246E0],"categories":[],"categories_nodes":[],"categories_segments":[],"categories_sizes":[],"default_left":[0,0,0,0,0,0,0,0,0,0,0,0,0,0,0,0,0,0,0,0,0,0,0,0,0,0,0,0,0,0,0],"id":50,"left_children":[1,3,5,7,9,11,13,15,17,19,21,23,25,27,29,-1,-1,-1,-1,-1,-1,-1,-1,-1,-1,-1,-1,-1,-1,-1,-1],"loss_changes":[3.3820362E5,1.7960617E4,1.4572827E5,6.8410547E3,6.180547E3,2.8172844E4,4.6571496E4,8.934531E2,5.271922E3,3.522004E3,9.242077E2,6.5201055E3,6.9199688E3,3.4836117E4,1.0542883E4,0E0,0E0,0E0,0E0,0E0,0E0,0E0,0E0,0E0,0E0,0E0,0E0,0E0,0E0,0E0,0E0],"parents":[2147483647,0,0,1,1,2,2,3,3,4,4,5,5,6,6,7,7,8,8,9,9,10,10,11,11,12,12,13,13,14,14],"right_children":[2,4,6,8,10,12,14,16,18,20,22,24,26,28,30,-1,-1,-1,-1,-1,-1,-1,-1,-1,-1,-1,-1,-1,-1,-1,-1],"split_conditions":[7.6548076E3,3.478E-1,1.0271904E4,1E0,5.784E-1,2.743E-1,5.011E-1,1.569E-1,1.132E-1,1E0,1.0108E0,2.036E-1,2.353E2,1.4248917E4,1E0,-7.4011654E-1,-2.0034785E0,-2.5240011E0,-8.641968E-1,-5.59936E-1,-1.2176225E0,-1.8902282E-1,7.03505E-1,2.7272186E-1,3.1581333E0,6.9508643E0,3.7439554E0,1.4840072E0,-3.3230364E-1,4.1250405E0,1.143246E0],"split_indices":[12,0,12,19,0,0,0,1,0,20,5,1,16,12,27,0,0,0,0,0,0,0,0,0,0,0,0,0,0,0,0],"split_type":[0,0,0,0,0,0,0,0,0,0,0,0,0,0,0,0,0,0,0,0,0,0,0,0,0,0,0,0,0,0,0],"sum_hessian":[3.64E2,2.11E2,1.53E2,1.11E2,1E2,2.9E1,1.24E2,6.7E1,4.4E1,8.9E1,1.1E1,9E0,2E1,1.06E2,1.8E1,3E0,6.4E1,5E0,3.9E1,5.3E1,3.6E1,4E0,7E0,3E0,6E0,1.3E1,7E0,6E1,4.6E1,1.3E1,5E0],"tree_param":{"num_deleted":"0","num_feature":"28","num_nodes":"31","size_leaf_vector":"1"}},{"base_weights":[-9.8809555E-2,-2.3659136E1,3.1218016E1,-3.1468658E1,-1.3354761E1,8.7137024E1,2.1740639E1,-3.7866898E1,-1.8981926E1,-7.89218E0,-2.1197193E1,5.461357E1,1.4129181E2,3.5526733E1,-1.2995687E0,-2.3848832E0,-1.6617882E0,-2.2403052E0,-7.20245E-1,-8.536702E-2,-7.6003724E-1,-1.2753087E0,-3.2907137E-1,2.653943E-1,3.5303237E0,8.674036E0,3.2866364E0,1.0248331E0,2.8635757E0,-3.6721337E-1,2.363731E0],"categories":[],"categories_nodes":[],"categories_segments":[],"categories_sizes":[],"default_left":[0,0,0,0,0,0,0,0,0,0,0,0,0,0,0,0,0,0,0,0,0,0,0,0,0,0,0,0,0,0,0],"id":51,"left_children":[1,3,5,7,9,11,13,15,17,19,21,23,25,27,29,-1,-1,-1,-1,-1,-1,-1,-1,-1,-1,-1,-1,-1,-1,-1,-1],"loss_changes":[2.7668872E5,1.6800797E4,8.343003E4,8.948281E3,3.8596602E3,3.279347E4,4.4197367E4,2.0114062E3,4.437083E3,2.5505781E3,2.225336E3,1.2241887E4,8.053953E3,2.7259953E4,1.5908863E4,0E0,0E0,0E0,0E0,0E0,0E0,0E0,0E0,0E0,0E0,0E0,0E0,0E0,0E0,0E0,0E0],"parents":[2147483647,0,0,1,1,2,2,3,3,4,4,5,5,6,6,7,7,8,8,9,9,10,10,11,11,12,12,13,13,14,14],"right_children":[2,4,6,8,10,12,14,16,18,20,22,24,26,28,30,-1,-1,-1,-1,-1,-1,-1,-1,-1,-1,-1,-1,-1,-1,-1,-1],"split_conditions":[7.6548076E3,3.478E-1,9.797057E3,1E0,1E0,4.159E-1,1.4509995E4,1.727E-1,1.132E-1,2.2316E0,3.413E-1,2.946E-1,1.3E-2,3.757E-1,5.151E-1,-2.3848832E0,-1.6617882E0,-2.2403052E0,-7.20245E-1,-8.536702E-2,-7.6003724E-1,-1.2753087E0,-3.2907137E-1,2.653943E-1,3.5303237E0,8.674036E0,3.2866364E0,1.0248331E0,2.8635757E0,-3.6721337E-1,2.363731E0],"split_indices":[12,0,12,19,20,0,12,0,0,5,7,1,4,0,0,0,0,0,0,0,0,0,0,0,0,0,0,0,0,0,0],"split_type":[0,0,0,0,0,0,0,0,0,0,0,0,0,0,0,0,0,0,0,0,0,0,0,0,0,0,0,0,0,0,0],"sum_hessian":[3.73E2,2.13E2,1.6E2,1.2E2,9.3E1,2.2E1,1.38E2,7.8E1,4.2E1,5.6E1,3.7E1,1.5E1,7E0,8.6E1,5.2E1,2.2E1,5.6E1,5E0,3.7E1,3.1E1,2.5E1,2.8E1,9E0,4E0,1.1E1,4E0,3E0,5.2E1,3.4E1,4.7E1,5E0],"tree_param":{"num_deleted":"0","num_feature":"28","num_nodes":"31","size_leaf_vector":"1"}},{"base_weights":[1.7020491E0,-2.1528196E1,3.1831783E1,-3.5071377E1,-1.5946047E1,6.0671725E0,4.553068E1,-4.0353752E1,-2.3591188E1,-1.8263361E1,2.8489094E0,-2.4353762E0,3.4378323E1,5.724523E1,-2.0221502E-1,-2.137151E0,-7.779056E-1,-1.5137203E0,1.9249938E-1,-1.6918208E-1,-1.0226293E0,7.839908E-1,-6.7729187E-1,-7.270028E-1,7.12855E-1,-3.193062E-1,2.3623135E0,3.667144E0,1.8807977E0,-5.0666726E-1,1.7795147E0],"categories":[],"categories_nodes":[],"categories_segments":[],"categories_sizes":[],"default_left":[0,0,0,0,0,0,0,0,0,0,0,0,0,0,0,0,0,0,0,0,0,0,0,0,0,0,0,0,0,0,0],"id":52,"left_children":[1,3,5,7,9,11,13,15,17,19,21,23,25,27,29,-1,-1,-1,-1,-1,-1,-1,-1,-1,-1,-1,-1,-1,-1,-1,-1],"loss_changes":[2.5405673E5,1.4938758E4,5.5489344E4,2.6259219E3,6.4544414E3,1.3563873E4,5.519283E4,1.6454922E3,3.9678584E3,4.198129E3,3.788507E3,9.09781E3,7.1209336E3,2.3151938E4,8.1807705E3,0E0,0E0,0E0,0E0,0E0,0E0,0E0,0E0,0E0,0E0,0E0,0E0,0E0,0E0,0E0,0E0],"parents":[2147483647,0,0,1,1,2,2,3,3,4,4,5,5,6,6,7,7,8,8,9,9,10,10,11,11,12,12,13,13,14,14],"right_children":[2,4,6,8,10,12,14,16,18,20,22,24,26,28,30,-1,-1,-1,-1,-1,-1,-1,-1,-1,-1,-1,-1,-1,-1,-1,-1],"split_conditions":[3.02E1,2.098E-1,2.728E-1,1E0,5.652E-1,5.976E-1,1E0,2.288E2,6.566E-1,3.02E1,1.9693E0,1.1541E0,4.5377457E1,5.31E1,5.342E-1,-2.137151E0,-7.779056E-1,-1.5137203E0,1.9249938E-1,-1.6918208E-1,-1.0226293E0,7.839908E-1,-6.7729187E-1,-7.270028E-1,7.12855E-1,-3.193062E-1,2.3623135E0,3.667144E0,1.8807977E0,-5.0666726E-1,1.7795147E0],"split_indices":[17,0,0,19,0,1,27,15,1,15,5,6,11,15,0,0,0,0,0,0,0,0,0,0,0,0,0,0,0,0,0],"split_type":[0,0,0,0,0,0,0,0,0,0,0,0,0,0,0,0,0,0,0,0,0,0,0,0,0,0,0,0,0,0,0],"sum_hessian":[3.61E2,2.04E2,1.57E2,5.8E1,1.46E2,5.5E1,1.02E2,3.8E1,2E1,1.3E2,1.6E1,4.3E1,1.2E1,8.1E1,2.1E1,3.4E1,4E0,1.6E1,4E0,1.7E1,1.13E2,9E0,7E0,2.5E1,1.8E1,3E0,9E0,4.3E1,3.8E1,1.7E1,4E0],"tree_param":{"num_deleted":"0","num_feature":"28","num_nodes":"31","size_leaf_vector":"1"}},{"base_weights":[-4.1453466E-1,-2.2057428E1,2.9000261E1,-3.0336813E1,-1.4104392E1,6.739936E1,1.0251636E1,-3.5181133E1,-2.1827482E1,-8.046739E0,-2.2053017E1,4.1399555E1,1.05629074E2,3.4777007E0,5.844381E1,-1.8175452E0,-4.2734414E-1,-2.1804388E0,-8.3505565E-1,-4.802877E-1,8.8699645E-1,-1.3022412E0,-2.3394287E-1,-3.9227296E-2,2.7746806E0,3.0585644E0,7.1984873E0,6.699676E-1,-8.0821145E-1,3.6996567E0,9.38313E-1],"categories":[],"categories_nodes":[],"categories_segments":[],"categories_sizes":[],"default_left":[0,0,0,0,0,0,0,0,0,0,0,0,0,0,0,0,0,0,0,0,0,0,0,0,0,0,0,0,0,0,0],"id":53,"left_children":[1,3,5,7,9,11,13,15,17,19,21,23,25,27,29,-1,-1,-1,-1,-1,-1,-1,-1,-1,-1,-1,-1,-1,-1,-1,-1],"loss_changes":[2.3427969E5,1.3531523E4,1.1161819E5,3.4779453E3,5.119047E3,4.6319234E4,3.4400523E4,1.6832891E3,3.738043E3,2.7433213E3,3.137791E3,1.906898E4,2.5284E4,1.8535346E4,6.6318945E3,0E0,0E0,0E0,0E0,0E0,0E0,0E0,0E0,0E0,0E0,0E0,0E0,0E0,0E0,0E0,0E0],"parents":[2147483647,0,0,1,1,2,2,3,3,4,4,5,5,6,6,7,7,8,8,9,9,10,10,11,11,12,12,13,13,14,14],"right_children":[2,4,6,8,10,12,14,16,18,20,22,24,26,28,30,-1,-1,-1,-1,-1,-1,-1,-1,-1,-1,-1,-1,-1,-1,-1,-1],"split_conditions":[1.513E2,2.88E-1,3.693E2,1E0,1E0,1E0,5.054E-1,3.35E-2,1.132E-1,8.351E2,5.553E-1,1.876E-1,8.912E-1,5.771E2,5.184E2,-1.8175452E0,-4.2734414E-1,-2.1804388E0,-8.3505565E-1,-4.802877E-1,8.8699645E-1,-1.3022412E0,-2.3394287E-1,-3.9227296E-2,2.7746806E0,3.0585644E0,7.1984873E0,6.699676E-1,-8.0821145E-1,3.6996567E0,9.38313E-1],"split_indices":[16,0,16,19,20,22,0,3,0,14,0,0,2,16,16,0,0,0,0,0,0,0,0,0,0,0,0,0,0,0,0],"split_type":[0,0,0,0,0,0,0,0,0,0,0,0,0,0,0,0,0,0,0,0,0,0,0,0,0,0,0,0,0,0,0],"sum_hessian":[3.66E2,2.11E2,1.55E2,1.02E2,1.09E2,5E1,1.05E2,6.3E1,3.9E1,6.3E1,4.6E1,3.1E1,1.9E1,9.3E1,1.2E1,6E1,3E0,6E0,3.3E1,6E1,3E0,3.7E1,9E0,8E0,2.3E1,1E1,9E0,6.2E1,3.1E1,8E0,4E0],"tree_param":{"num_deleted":"0","num_feature":"28","num_nodes":"31","size_leaf_vector":"1"}},{"base_weights":[-6.288871E-1,-1.9911469E1,2.5950497E1,-2.6617409E1,-1.0996188E1,7.688898E1,1.37134495E1,-2.0569668E1,-3.583041E1,-5.2840123E0,-1.9653215E1,4.779138E1,1.0280048E2,1.3433557E0,4.159101E1,-1.2013808E0,-6.2488555E-3,-1.8572613E0,-6.204907E-1,-5.909495E-1,1.9750023E-2,-1.1862391E0,-3.143753E-1,3.9640343E0,1.5344112E0,5.8592772E0,1.6972595E0,-2.2141163E-1,2.3690863E0,7.1529096E-1,2.9975011E0],"categories":[],"categories_nodes":[],"categories_segments":[],"categories_sizes":[],"default_left":[0,0,0,0,0,0,0,0,0,0,0,0,0,0,0,0,0,0,0,0,0,0,0,0,0,0,0,0,0,0,0],"id":54,"left_children":[1,3,5,7,9,11,13,15,17,19,21,23,25,27,29,-1,-1,-1,-1,-1,-1,-1,-1,-1,-1,-1,-1,-1,-1,-1,-1],"loss_changes":[1.9014878E5,1.2561164E4,9.61861E4,6.0605547E3,4.544495E3,1.770589E4,4.3739836E4,5.3699453E3,9.8634766E2,2.1571777E3,1.8643467E3,6.184082E3,1.0879422E4,2.385841E4,1.8678594E4,0E0,0E0,0E0,0E0,0E0,0E0,0E0,0E0,0E0,0E0,0E0,0E0,0E0,0E0,0E0,0E0],"parents":[2147483647,0,0,1,1,2,2,3,3,4,4,5,5,6,6,7,7,8,8,9,9,10,10,11,11,12,12,13,13,14,14],"right_children":[2,4,6,8,10,12,14,16,18,20,22,24,26,28,30,-1,-1,-1,-1,-1,-1,-1,-1,-1,-1,-1,-1,-1,-1,-1,-1],"split_conditions":[3.21E1,3.478E-1,1.0271904E4,1E0,1E0,9.1254586E-1,1E0,6.958E-1,3.35E-2,2.2720432E1,2.988E-1,8.54E1,1.5687E0,1.0714817E0,3.063E-1,-1.2013808E0,-6.2488555E-3,-1.8572613E0,-6.204907E-1,-5.909495E-1,1.9750023E-2,-1.1862391E0,-3.143753E-1,3.9640343E0,1.5344112E0,5.8592772E0,1.6972595E0,-2.2141163E-1,2.3690863E0,7.1529096E-1,2.9975011E0],"split_indices":[17,0,12,20,20,9,22,1,3,11,7,17,6,9,0,0,0,0,0,0,0,0,0,0,0,0,0,0,0,0,0],"split_type":[0,0,0,0,0,0,0,0,0,0,0,0,0,0,0,0,0,0,0,0,0,0,0,0,0,0,0,0,0,0,0],"sum_hessian":[3.69E2,2.14E2,1.55E2,1.21E2,9.3E1,2.9E1,1.26E2,7.5E1,4.6E1,5.7E1,3.6E1,1.5E1,1.4E1,8.8E1,3.8E1,6.4E1,1.1E1,4.3E1,3E0,2.6E1,3.1E1,2.7E1,9E0,4E0,1.1E1,1.1E1,3E0,7.9E1,9E0,1.6E1,