{"learner":{"attributes":{"scikit_learn":"{\"_estimator_type\": \"regressor\"}"},"feature_names":["C","Si","Mn","P","S","Ni","Cr","Cu","Mo","Carbon_Equiv","A3_Temp_C","Delta_HT_A3","Hollomon_Jaffe","C_x_Cr","HT_Temp_C","Soaking_Time_min","Tempering_Temp_C","Tempering_Time_min","Process_Quench_Temper","Process_Normalizing","Process_Annealing","Process_Stress_Relief","Cooling_Medium_Water","Cooling_Medium_Oil","Cooling_Medium_Polymer","Cooling_Medium_Air","Cooling_Medium_Furnace","Cooling_Medium_Salt Bath"],"feature_types":["float","float","float","float","float","float","float","float","float","float","float","float","float","float","float","float","float","float","float","float","float","float","float","float","float","float","float","float"],"gradient_booster":{"model":{"cats":{"enc":[],"feature_segments":[],"sorted_idx":[]},"gbtree_model_param":{"num_parallel_tree":"1","num_trees":"200"},"iteration_indptr":[0,1,2,3,4,5,6,7,8,9,10,11,12,13,14,15,16,17,18,19,20,21,22,23,24,25,26,27,28,29,30,31,32,33,34,35,36,37,38,39,40,41,42,43,44,45,46,47,48,49,50,51,52,53,54,55,56,57,58,59,60,61,62,63,64,65,66,67,68,69,70,71,72,73,74,75,76,77,78,79,80,81,82,83,84,85,86,87,88,89,90,91,92,93,94,95,96,97,98,99,100,101,102,103,104,105,106,107,108,109,110,111,112,113,114,115,116,117,118,119,120,121,122,123,124,125,126,127,128,129,130,131,132,133,134,135,136,137,138,139,140,141,142,143,144,145,146,147,148,149,150,151,152,153,154,155,156,157,158,159,160,161,162,163,164,165,166,167,168,169,170,171,172,173,174,175,176,177,178,179,180,181,182,183,184,185,186,187,188,189,190,191,192,193,194,195,196,197,198,199,200],"tree_info":[0,0,0,0,0,0,0,0,0,0,0,0,0,0,0,0,0,0,0,0,0,0,0,0,0,0,0,0,0,0,0,0,0,0,0,0,0,0,0,0,0,0,0,0,0,0,0,0,0,0,0,0,0,0,0,0,0,0,0,0,0,0,0,0,0,0,0,0,0,0,0,0,0,0,0,0,0,0,0,0,0,0,0,0,0,0,0,0,0,0,0,0,0,0,0,0,0,0,0,0,0,0,0,0,0,0,0,0,0,0,0,0,0,0,0,0,0,0,0,0,0,0,0,0,0,0,0,0,0,0,0,0,0,0,0,0,0,0,0,0,0,0,0,0,0,0,0,0,0,0,0,0,0,0,0,0,0,0,0,0,0,0,0,0,0,0,0,0,0,0,0,0,0,0,0,0,0,0,0,0,0,0,0,0,0,0,0,0,0,0,0,0,0,0,0,0,0,0,0,0],"trees":[{"base_weights":[-3.559623E-1,-9.263587E1,1.2150312E2,-1.0882043E2,-6.351991E1,2.5072617E2,8.744999E1,-1.17437065E2,-9.0921814E1,-4.8018894E1,-4.1666603E0,7.4469643E0,1.342435E1,1.15084145E2,5.0186813E1,-6.349738E0,-5.0450177E0,-4.874601E0,-3.181719E0,-2.7391605E0,-1.4563843E0,3.9965465E0,7.771465E0,1.0887845E0,3.1162002E0],"categories":[],"categories_nodes":[],"categories_segments":[],"categories_sizes":[],"default_left":[0,0,0,0,0,0,0,0,0,0,0,0,0,0,0,0,0,0,0,0,0,0,0,0,0],"id":0,"left_children":[1,3,5,7,9,11,13,15,17,19,-1,-1,-1,21,23,-1,-1,-1,-1,-1,-1,-1,-1,-1,-1],"loss_changes":[4.0707528E6,9.0161125E4,6.64544E5,9.526E3,1.934E4,1.7862125E4,1.2294131E5,6.20625E2,2.2225E3,4.154664E3,0E0,0E0,0E0,8.8273E4,1.7608578E4,0E0,0E0,0E0,0E0,0E0,0E0,0E0,0E0,0E0,0E0],"parents":[2147483647,0,0,1,1,2,2,3,3,4,4,5,5,6,6,7,7,8,8,9,9,13,13,14,14],"right_children":[2,4,6,8,10,12,14,16,18,20,-1,-1,-1,22,24,-1,-1,-1,-1,-1,-1,-1,-1,-1,-1],"split_conditions":[7.6548076E3,4.055E-1,1.0580706E4,1E0,1E0,2.313E-1,1.4509995E4,2.631E-1,2.962E-1,5.553E-1,-4.1666603E0,7.4469643E0,1.342435E1,3.234E-1,2.728E-1,-6.349738E0,-5.0450177E0,-4.874601E0,-3.181719E0,-2.7391605E0,-1.4563843E0,3.9965465E0,7.771465E0,1.0887845E0,3.1162002E0],"split_indices":[12,0,12,19,20,0,12,0,0,0,0,0,0,0,0,0,0,0,0,0,0,0,0,0,0],"split_type":[0,0,0,0,0,0,0,0,0,0,0,0,0,0,0,0,0,0,0,0,0,0,0,0,0],"sum_hessian":[3.6E2,2.05E2,1.55E2,1.3E2,7.5E1,3.1E1,1.24E2,8.4E1,4.6E1,4.4E1,3.1E1,6E0,2.5E1,7E1,5.4E1,4.9E1,3.5E1,3.5E1,1.1E1,3.1E1,1.3E1,3.9E1,3.1E1,1.7E1,3.7E1],"tree_param":{"num_deleted":"0","num_feature":"28","num_nodes":"25","size_leaf_vector":"1"}},{"base_weights":[-1.2885019E0,-8.8344215E1,1.18421585E2,-9.986138E1,-6.6875206E1,1.9593852E2,7.1162346E1,-1.1068936E2,-8.280296E1,-7.859986E1,-3.6440147E1,6.440927E0,2.2610855E2,4.7292442E1,1.04836494E2,-2.7033994E0,-5.61065E0,-2.5276296E0,-4.356242E0,-2.9383476E0,-4.3441954E0,-1.95945E0,-6.792919E-1,1.2216495E1,7.0123763E0,3.1936657E0,1.4254521E0,7.309172E0,4.168611E0],"categories":[],"categories_nodes":[],"categories_segments":[],"categories_sizes":[],"default_left":[0,0,0,0,0,0,0,0,0,0,0,0,0,0,0,0,0,0,0,0,0,0,0,0,0,0,0,0,0],"id":1,"left_children":[1,3,5,7,9,11,13,15,17,19,21,-1,23,25,27,-1,-1,-1,-1,-1,-1,-1,-1,-1,-1,-1,-1,-1,-1],"loss_changes":[3.7621828E6,4.4999625E4,5.42892E5,1.5585625E4,2.4255688E4,8.629875E4,7.220672E4,7.481875E2,3.401E3,3.7661562E3,9.125156E2,0E0,2.5184625E4,1.6242844E4,2.2424156E4,0E0,0E0,0E0,0E0,0E0,0E0,0E0,0E0,0E0,0E0,0E0,0E0,0E0,0E0],"parents":[2147483647,0,0,1,1,2,2,3,3,4,4,5,5,6,6,7,7,8,8,9,9,10,10,12,12,13,13,14,14],"right_children":[2,4,6,8,10,12,14,16,18,20,22,-1,24,26,28,-1,-1,-1,-1,-1,-1,-1,-1,-1,-1,-1,-1,-1,-1],"split_conditions":[7.6548076E3,9.1254586E-1,1.2035189E4,1E0,1E0,7.742892E-1,8.949817E-1,3.392E-1,8.051E2,6.967E2,7.2671074E-1,6.440927E0,1.1090057E4,1.5049995E4,4.745E2,-2.7033994E0,-5.61065E0,-2.5276296E0,-4.356242E0,-2.9383476E0,-4.3441954E0,-1.95945E0,-6.792919E-1,1.2216495E1,7.0123763E0,3.1936657E0,1.4254521E0,7.309172E0,4.168611E0],"split_indices":[12,9,12,19,19,9,9,2,14,14,13,0,12,12,16,0,0,0,0,0,0,0,0,0,0,0,0,0,0],"split_type":[0,0,0,0,0,0,0,0,0,0,0,0,0,0,0,0,0,0,0,0,0,0,0,0,0,0,0,0,0],"sum_hessian":[3.59E2,2.08E2,1.51E2,1.33E2,7.5E1,5.6E1,9.5E1,7.8E1,5.5E1,5.3E1,2.2E1,1.9E1,3.7E1,5.7E1,3.8E1,3E0,7.5E1,8E0,4.7E1,1.8E1,3.5E1,1.9E1,3E0,2.9E1,8E0,2.9E1,2.8E1,1.1E1,2.7E1],"tree_param":{"num_deleted":"0","num_feature":"28","num_nodes":"29","size_leaf_vector":"1"}},{"base_weights":[5.12155E-1,-8.437998E1,1.12237854E2,-9.54058E1,-6.5345894E1,2.017627E2,7.606526E1,-1.0282649E2,-6.910861E1,-3.8401478E1,-8.138612E1,1.1135569E1,5.9335093E0,9.8260345E1,3.8164772E1,-4.5479016E0,-5.7259936E0,-2.4422243E0,-3.9668121E0,-2.0411434E0,-5.925686E-1,-4.3157954E0,-2.2973855E0,4.193187E0,6.392946E0,1.2205024E0,2.570605E0],"categories":[],"categories_nodes":[],"categories_segments":[],"categories_sizes":[],"default_left":[0,0,0,0,0,0,0,0,0,0,0,0,0,0,0,0,0,0,0,0,0,0,0,0,0,0,0],"id":2,"left_children":[1,3,5,7,9,11,13,15,17,19,21,-1,-1,23,25,-1,-1,-1,-1,-1,-1,-1,-1,-1,-1,-1,-1],"loss_changes":[3.4049695E6,3.657825E4,4.8659638E5,1.7676875E4,3.0585844E4,5.0160625E4,9.046481E4,3.0454375E3,2.54975E3,1.509125E3,4.41975E3,0E0,0E0,1.9105625E4,6.580203E3,0E0,0E0,0E0,0E0,0E0,0E0,0E0,0E0,0E0,0E0,0E0,0E0],"parents":[2147483647,0,0,1,1,2,2,3,3,4,4,5,5,6,6,7,7,8,8,9,9,10,10,13,13,14,14],"right_children":[2,4,6,8,10,12,14,16,18,20,22,-1,-1,24,26,-1,-1,-1,-1,-1,-1,-1,-1,-1,-1,-1,-1],"split_conditions":[7.6548076E3,1E0,1.1090057E4,4.538821E-1,8.04E2,8.487E2,1.4874195E4,7.814E2,6.967E2,1.524E0,3.209705E-1,1.1135569E1,5.9335093E0,4.038427E-1,2.3511492E-1,-4.5479016E0,-5.7259936E0,-2.4422243E0,-3.9668121E0,-2.0411434E0,-5.925686E-1,-4.3157954E0,-2.2973855E0,4.193187E0,6.392946E0,1.2205024E0,2.570605E0],"split_indices":[12,19,12,13,14,14,12,14,14,6,13,0,0,13,13,0,0,0,0,0,0,0,0,0,0,0,0],"split_type":[0,0,0,0,0,0,0,0,0,0,0,0,0,0,0,0,0,0,0,0,0,0,0,0,0,0,0],"sum_hessian":[3.57E2,2.03E2,1.54E2,1.26E2,7.7E1,4.3E1,1.11E2,9.6E1,3E1,3E1,4.7E1,3.3E1,1E1,6.9E1,4.2E1,5.2E1,4.4E1,1.2E1,1.8E1,2.7E1,3E0,4E1,7E0,4.9E1,2E1,2.2E1,2E1],"tree_param":{"num_deleted":"0","num_feature":"28","num_nodes":"27","size_leaf_vector":"1"}},{"base_weights":[-1.7224623E0,-7.9869125E1,1.0599071E2,-9.1597046E1,-5.6284878E1,1.7450888E2,6.1349052E1,-5.002456E0,-7.504444E1,-6.625681E1,-3.408962E1,5.8276334E0,1.9993745E2,7.980389E1,3.6746487E1,-2.6593938E0,-4.0848594E0,-2.429869E0,-3.6940725E0,-1.8332106E0,-5.70347E-1,1.0916415E1,6.496629E0,2.7620466E0,5.2065825E0,9.473382E-1,2.5024242E0],"categories":[],"categories_nodes":[],"categories_segments":[],"categories_sizes":[],"default_left":[0,0,0,0,0,0,0,0,0,0,0,0,0,0,0,0,0,0,0,0,0,0,0,0,0,0,0],"id":3,"left_children":[1,3,5,7,9,11,13,-1,15,17,19,-1,21,23,25,-1,-1,-1,-1,-1,-1,-1,-1,-1,-1,-1,-1],"loss_changes":[3.1229125E6,5.431225E4,4.6646125E5,1.235825E4,1.4119734E4,6.659525E4,4.065497E4,0E0,3.2158125E3,3.1418906E3,1.0417402E3,0E0,2.441725E4,2.6516031E4,9.23293E3,0E0,0E0,0E0,0E0,0E0,0E0,0E0,0E0,0E0,0E0,0E0,0E0],"parents":[2147483647,0,0,1,1,2,2,3,3,4,4,5,5,6,6,8,8,9,9,10,10,12,12,13,13,14,14],"right_children":[2,4,6,8,10,12,14,-1,16,18,20,-1,22,24,26,-1,-1,-1,-1,-1,-1,-1,-1,-1,-1,-1,-1],"split_conditions":[7.6548076E3,9.213675E-1,3.91E2,1E0,1E0,7.675775E-1,1.5207469E4,-5.002456E0,7.6676056E2,-1.5890291E2,1.524E0,5.8276334E0,1.1258729E4,8.4339416E-1,8.026508E-1,-2.6593938E0,-4.0848594E0,-2.429869E0,-3.6940725E0,-1.8332106E0,-5.70347E-1,1.0916415E1,6.496629E0,2.7620466E0,5.2065825E0,9.473382E-1,2.5024242E0],"split_indices":[12,9,16,19,19,9,12,0,10,11,6,0,12,9,9,0,0,0,0,0,0,0,0,0,0,0,0],"split_type":[0,0,0,0,0,0,0,0,0,0,0,0,0,0,0,0,0,0,0,0,0,0,0,0,0,0,0],"sum_hessian":[3.69E2,2.14E2,1.55E2,1.41E2,7.3E1,6E1,9.5E1,9E1,5.1E1,4.9E1,2.4E1,2E1,4E1,5.3E1,4.2E1,1.4E1,3.7E1,1.7E1,3.2E1,2.1E1,3E0,3E1,1E1,2.8E1,2.5E1,1.9E1,2.3E1],"tree_param":{"num_deleted":"0","num_feature":"28","num_nodes":"27","size_leaf_vector":"1"}},{"base_weights":[1.1755906E0,-7.5664215E1,1.0586248E2,-8.722127E1,-5.581575E1,1.9952835E2,7.1914345E1,-3.8759263E0,-5.093627E0,-4.2393192E1,-3.6506298E0,7.244915E0,1.1225589E1,9.293058E1,3.3979145E1,-2.5445526E0,-1.3763369E0,4.089546E0,7.0311737E0,9.185414E-1,2.3715746E0],"categories":[],"categories_nodes":[],"categories_segments":[],"categories_sizes":[],"default_left":[0,0,0,0,0,0,0,0,0,0,0,0,0,0,0,0,0,0,0,0,0],"id":4,"left_children":[1,3,5,7,9,11,13,-1,-1,15,-1,-1,-1,17,19,-1,-1,-1,-1,-1,-1],"loss_changes":[3.0406435E6,4.513875E4,4.9441638E5,1.14364375E4,1.6063281E4,2.4792E4,9.1715625E4,0E0,0E0,4.789461E3,0E0,0E0,0E0,2.887575E4,8.367258E3,0E0,0E0,0E0,0E0,0E0,0E0],"parents":[2147483647,0,0,1,1,2,2,3,3,4,4,5,5,6,6,9,9,13,13,14,14],"right_children":[2,4,6,8,10,12,14,-1,-1,16,-1,-1,-1,18,20,-1,-1,-1,-1,-1,-1],"split_conditions":[7.6548076E3,9.021175E-1,3.083E2,1E0,1E0,8.3232415E-1,5.435E2,-3.8759263E0,-5.093627E0,3.9597343E1,-3.6506298E0,7.244915E0,1.1225589E1,5.497896E-1,7.7254915E-1,-2.5445526E0,-1.3763369E0,4.089546E0,7.0311737E0,9.185414E-1,2.3715746E0],"split_indices":[12,9,16,20,20,9,16,0,0,11,0,0,0,13,9,0,0,0,0,0,0],"split_type":[0,0,0,0,0,0,0,0,0,0,0,0,0,0,0,0,0,0,0,0,0],"sum_hessian":[3.76E2,2.17E2,1.59E2,1.35E2,8.2E1,4.1E1,1.18E2,8.5E1,5E1,4.8E1,3.4E1,1.5E1,2.6E1,7.5E1,4.3E1,2.9E1,1.9E1,6.3E1,1.2E1,2.1E1,2.2E1],"tree_param":{"num_deleted":"0","num_feature":"28","num_nodes":"21","size_leaf_vector":"1"}},{"base_weights":[1.6824921E0,-6.986713E1,1.0067139E2,-5.5028023E1,-8.5595406E1,1.908099E2,6.773503E1,-6.5688675E1,-3.674814E1,-8.696546E1,-2.0400555E0,7.0823717E0,1.0928725E1,8.70632E1,3.3249855E1,-3.4054754E0,-1.3853978E0,-2.4832523E0,-1.356599E0,-4.685066E0,-3.7636096E0,3.5646951E0,6.343205E0,8.117265E-1,2.555631E0],"categories":[],"categories_nodes":[],"categories_segments":[],"categories_sizes":[],"default_left":[0,0,0,0,0,0,0,0,0,0,0,0,0,0,0,0,0,0,0,0,0,0,0,0,0],"id":5,"left_children":[1,3,5,7,9,11,13,15,17,19,-1,-1,-1,21,23,-1,-1,-1,-1,-1,-1,-1,-1,-1,-1],"loss_changes":[2.684263E6,4.6636375E4,4.5912025E5,2.0191594E4,2.8956875E3,2.63685E4,7.575631E4,4.732875E3,4.2419883E3,9.020625E2,0E0,0E0,0E0,3.802775E4,1.2543602E4,0E0,0E0,0E0,0E0,0E0,0E0,0E0,0E0,0E0,0E0],"parents":[2147483647,0,0,1,1,2,2,3,3,4,4,5,5,6,6,7,7,8,8,9,9,13,13,14,14],"right_children":[2,4,6,8,10,12,14,16,18,20,-1,-1,-1,22,24,-1,-1,-1,-1,-1,-1,-1,-1,-1,-1],"split_conditions":[7.6548076E3,7.707921E2,3.083E2,1E0,5.082307E-1,8.4675914E-1,1.4709034E4,7.9936814E-1,8.83105E-1,1E0,-2.0400555E0,7.0823717E0,1.0928725E1,9.89125E-1,8.026508E-1,-3.4054754E0,-1.3853978E0,-2.4832523E0,-1.356599E0,-4.685066E0,-3.7636096E0,3.5646951E0,6.343205E0,8.117265E-1,2.555631E0],"split_indices":[12,10,16,19,13,9,12,13,9,19,0,0,0,9,9,0,0,0,0,0,0,0,0,0,0],"split_type":[0,0,0,0,0,0,0,0,0,0,0,0,0,0,0,0,0,0,0,0,0,0,0,0,0],"sum_hessian":[3.77E2,2.19E2,1.58E2,1.15E2,1.04E2,4.1E1,1.17E2,7.1E1,4.4E1,1E2,4E0,1.7E1,2.4E1,7.4E1,4.3E1,6.6E1,5E0,1.7E1,2.7E1,5.9E1,4.1E1,5.5E1,1.9E1,2.3E1,2E1],"tree_param":{"num_deleted":"0","num_feature":"28","num_nodes":"25","size_leaf_vector":"1"}},{"base_weights":[2.3767028E0,-6.722838E1,9.592135E1,-8.089643E1,-4.260455E1,1.8363953E2,6.246927E1,-4.545339E0,-6.812818E1,-3.2878323E1,-2.9519067E0,6.4944077E0,1.0749747E1,9.442271E1,4.2237335E1,-3.7291806E0,-2.650044E0,-1.8976024E0,-9.2547446E-1,3.133559E0,6.235093E0,1.0638392E0,3.0461671E0],"categories":[],"categories_nodes":[],"categories_segments":[],"categories_sizes":[],"default_left":[0,0,0,0,0,0,0,0,0,0,0,0,0,0,0,0,0,0,0,0,0,0,0],"id":6,"left_children":[1,3,5,7,9,11,13,-1,15,17,-1,-1,-1,19,21,-1,-1,-1,-1,-1,-1,-1,-1],"loss_changes":[2.3504745E6,6.622131E4,4.4041888E5,1.06781875E4,1.0206531E4,4.286125E4,6.906406E4,0E0,2.1015312E3,2.9427031E3,0E0,0E0,0E0,3.3525375E4,2.6512227E4,0E0,0E0,0E0,0E0,0E0,0E0,0E0,0E0],"parents":[2147483647,0,0,1,1,2,2,3,3,4,4,5,5,6,6,8,8,9,9,13,13,14,14],"right_children":[2,4,6,8,10,12,14,-1,16,18,-1,-1,-1,20,22,-1,-1,-1,-1,-1,-1,-1,-1],"split_conditions":[1.513E2,4.055E-1,3.083E2,2.391E-1,1E0,8.561625E-1,4.745E2,-4.545339E0,1E0,5.559E-1,-2.9519067E0,6.4944077E0,1.0749747E1,2.801E-1,3.106E-1,-3.7291806E0,-2.650044E0,-1.8976024E0,-9.2547446E-1,3.133559E0,6.235093E0,1.0638392E0,3.0461671E0],"split_indices":[16,0,16,0,20,9,16,0,19,0,0,0,0,0,0,0,0,0,0,0,0,0,0],"split_type":[0,0,0,0,0,0,0,0,0,0,0,0,0,0,0,0,0,0,0,0,0,0,0],"sum_hessian":[3.59E2,2.06E2,1.53E2,1.31E2,7.5E1,4.1E1,1.12E2,7E1,6.1E1,4.9E1,2.6E1,1.7E1,2.4E1,4.2E1,7E1,4E1,2.1E1,3.5E1,1.4E1,2.2E1,2E1,3.4E1,3.6E1],"tree_param":{"num_deleted":"0","num_feature":"28","num_nodes":"23","size_leaf_vector":"1"}},{"base_weights":[-8.653651E-1,-6.569498E1,8.864691E1,-8.170318E1,-4.6274315E1,4.4742E1,1.1666242E2,-7.2701096E1,-4.6686087E0,-3.573292E1,-3.046477E0,1.9390095E1,5.0438652E1,9.179537E1,1.3338254E2,-3.7144554E0,-2.16904E0,-1.972434E0,-7.797336E-1,1.8763222E0,5.098273E-1,1.1756574E0,2.8291101E0,4.8952394E0,1.9919827E0,2.3546054E0,7.0613313E0],"categories":[],"categories_nodes":[],"categories_segments":[],"categories_sizes":[],"default_left":[0,0,0,0,0,0,0,0,0,0,0,0,0,0,0,0,0,0,0,0,0,0,0,0,0,0,0],"id":7,"left_children":[1,3,5,7,9,11,13,15,-1,17,-1,19,21,23,25,-1,-1,-1,-1,-1,-1,-1,-1,-1,-1,-1,-1],"loss_changes":[2.1413448E6,6.2749688E4,1.8543312E5,5.3970625E3,1.3116969E4,7.9760938E3,2.68395E4,3.65625E1,0E0,3.874539E3,0E0,1.7849463E3,6.9404844E3,9.1136875E3,2.990025E4,0E0,0E0,0E0,0E0,0E0,0E0,0E0,0E0,0E0,0E0,0E0,0E0],"parents":[2147483647,0,0,1,1,2,2,3,3,4,4,5,5,6,6,7,7,9,9,11,11,12,12,13,13,14,14],"right_children":[2,4,6,8,10,12,14,16,-1,18,-1,20,22,24,26,-1,-1,-1,-1,-1,-1,-1,-1,-1,-1,-1,-1],"split_conditions":[3.02E1,3.478E-1,2.728E-1,1E0,1E0,1.145E-1,9.149E-1,3.082E-1,-4.6686087E0,5.652E-1,-3.046477E0,2.086E-1,1E-2,2.74E-2,1.633E-1,-3.7144554E0,-2.16904E0,-1.972434E0,-7.797336E-1,1.8763222E0,5.098273E-1,1.1756574E0,2.8291101E0,4.8952394E0,1.9919827E0,2.3546054E0,7.0613313E0],"split_indices":[17,0,0,20,20,7,9,0,0,0,0,1,3,4,1,0,0,0,0,0,0,0,0,0,0,0,0],"split_type":[0,0,0,0,0,0,0,0,0,0,0,0,0,0,0,0,0,0,0,0,0,0,0,0,0,0,0],"sum_hessian":[3.67E2,2.13E2,1.54E2,1.15E2,9.8E1,6.1E1,9.3E1,6.9E1,4.6E1,5.9E1,3.9E1,1.2E1,4.9E1,4E1,5.3E1,6.4E1,5E0,4.9E1,1E1,3E0,9E0,1E1,3.9E1,3.5E1,5E0,5E0,4.8E1],"tree_param":{"num_deleted":"0","num_feature":"28","num_nodes":"27","size_leaf_vector":"1"}},{"base_weights":[-7.144748E-1,-6.3309143E1,8.446634E1,-7.477393E1,-3.9500263E1,1.7447095E2,5.5502357E1,-4.137401E0,-6.2892918E1,-2.9454748E1,-2.6689825E0,5.82372E0,9.551209E0,9.076259E1,3.417492E1,-2.745711E0,-3.661888E0,-1.855337E0,-1.0765988E0,6.151132E0,3.2349746E0,2.7104595E0,1.1136117E0],"categories":[],"categories_nodes":[],"categories_segments":[],"categories_sizes":[],"default_left":[0,0,0,0,0,0,0,0,0,0,0,0,0,0,0,0,0,0,0,0,0,0,0],"id":8,"left_children":[1,3,5,7,9,11,13,-1,15,17,-1,-1,-1,19,21,-1,-1,-1,-1,-1,-1,-1,-1],"loss_changes":[1.9888011E6,5.5733625E4,4.0220525E5,8.438375E3,8.466359E3,1.4231875E4,8.78915E4,0E0,1.0955781E3,1.8685156E3,0E0,0E0,0E0,2.9876312E4,1.715418E4,0E0,0E0,0E0,0E0,0E0,0E0,0E0,0E0],"parents":[2147483647,0,0,1,1,2,2,3,3,4,4,5,5,6,6,8,8,9,9,13,13,14,14],"right_children":[2,4,6,8,10,12,14,-1,16,18,-1,-1,-1,20,22,-1,-1,-1,-1,-1,-1,-1,-1],"split_conditions":[1.513E2,4.055E-1,3.083E2,2.391E-1,1E0,8.3232415E-1,4.654E2,-4.137401E0,1E0,2.7337517E1,-2.6689825E0,5.82372E0,9.551209E0,7.644365E2,7.5293744E2,-2.745711E0,-3.661888E0,-1.855337E0,-1.0765988E0,6.151132E0,3.2349746E0,2.7104595E0,1.1136117E0],"split_indices":[16,0,16,0,20,9,16,0,20,11,0,0,0,10,10,0,0,0,0,0,0,0,0],"split_type":[0,0,0,0,0,0,0,0,0,0,0,0,0,0,0,0,0,0,0,0,0,0,0],"sum_hessian":[3.71E2,2.14E2,1.57E2,1.43E2,7.1E1,3.7E1,1.2E2,8.2E1,6.1E1,4.3E1,2.8E1,1E1,2.7E1,4.4E1,7.6E1,3.8E1,2.3E1,2E1,2.3E1,1.8E1,2.6E1,2.7E1,4.9E1],"tree_param":{"num_deleted":"0","num_feature":"28","num_nodes":"23","size_leaf_vector":"1"}},{"base_weights":[-3.3162467E0,-5.8379585E1,7.875374E1,-6.956908E1,-3.7628284E1,1.6019467E2,5.637987E1,-6.202213E1,-4.00662E0,-2.8735924E1,-2.552192E0,5.041974E0,9.129535E0,8.8056E1,3.6200115E1,-3.3717601E0,-2.3547246E0,-1.5290129E0,-2.825995E-1,2.9356427E0,5.625376E0,2.9742136E0,1.2038254E0],"categories":[],"categories_nodes":[],"categories_segments":[],"categories_sizes":[],"default_left":[0,0,0,0,0,0,0,0,0,0,0,0,0,0,0,0,0,0,0,0,0,0,0],"id":9,"left_children":[1,3,5,7,9,11,13,15,-1,17,-1,-1,-1,19,21,-1,-1,-1,-1,-1,-1,-1,-1],"loss_changes":[1.6992405E6,4.9626438E4,2.661127E5,6.5895E3,8.19618E3,2.4125938E4,7.351834E4,4.01575E3,0E0,1.9984609E3,0E0,0E0,0E0,2.6398656E4,1.9739422E4,0E0,0E0,0E0,0E0,0E0,0E0,0E0,0E0],"parents":[2147483647,0,0,1,1,2,2,3,3,4,4,5,5,6,6,7,7,9,9,13,13,14,14],"right_children":[2,4,6,8,10,12,14,16,-1,18,-1,-1,-1,20,22,-1,-1,-1,-1,-1,-1,-1,-1],"split_conditions":[1.513E2,4.055E-1,3.083E2,1E0,1E0,2.743E-1,4.66E2,2.781E-1,-4.00662E0,9.293057E-1,-2.552192E0,5.041974E0,9.129535E0,2.801E-1,7.503456E2,-3.3717601E0,-2.3547246E0,-1.5290129E0,-2.825995E-1,2.9356427E0,5.625376E0,2.9742136E0,1.2038254E0],"split_indices":[16,0,16,26,26,0,16,0,0,13,0,0,0,0,10,0,0,0,0,0,0,0,0],"split_type":[0,0,0,0,0,0,0,0,0,0,0,0,0,0,0,0,0,0,0,0,0,0,0],"sum_hessian":[3.74E2,2.24E2,1.5E2,1.44E2,8E1,3.1E1,1.19E2,8.8E1,5.6E1,5E1,3E1,1E1,2.1E1,4.5E1,7.4E1,6.2E1,2.6E1,4.6E1,4E0,2.2E1,2.3E1,2.4E1,5E1],"tree_param":{"num_deleted":"0","num_feature":"28","num_nodes":"23","size_leaf_vector":"1"}},{"base_weights":[1.393121E0,-5.536126E1,7.52338E1,-6.681584E1,-3.4238846E1,4.32986E1,9.9234184E1,-3.7493942E0,-5.7180504E1,-2.6683208E1,-2.3389041E0,5.004709E1,1.9897814E1,8.2905685E1,1.2561078E2,-2.477109E0,-3.3472276E0,-1.5435685E0,-6.0330856E-1,1.9617541E0,3.627158E0,1.7020142E0,4.9949452E-1,3.0499823E0,5.175431E0,6.922901E0,3.7269886E0],"categories":[],"categories_nodes":[],"categories_segments":[],"categories_sizes":[],"default_left":[0,0,0,0,0,0,0,0,0,0,0,0,0,0,0,0,0,0,0,0,0,0,0,0,0,0,0],"id":10,"left_children":[1,3,5,7,9,11,13,-1,15,17,-1,19,21,23,25,-1,-1,-1,-1,-1,-1,-1,-1,-1,-1,-1,-1],"loss_changes":[1.600853E6,4.9973188E4,1.22935125E5,6.657E3,6.1416875E3,1.0532328E4,3.0071062E4,0E0,1.7549219E3,2.7496445E3,0E0,1.0774516E4,2.1821475E3,2.1217062E4,1.19875E4,0E0,0E0,0E0,0E0,0E0,0E0,0E0,0E0,0E0,0E0,0E0,0E0],"parents":[2147483647,0,0,1,1,2,2,3,3,4,4,5,5,6,6,8,8,9,9,11,11,12,12,13,13,14,14],"right_children":[2,4,6,8,10,12,14,-1,16,18,-1,20,22,24,26,-1,-1,-1,-1,-1,-1,-1,-1,-1,-1,-1,-1],"split_conditions":[3.02E1,4.055E-1,3.079E-1,2.391E-1,1E0,2.7973E0,4.85E-1,-3.7493942E0,1E0,5.652E-1,-2.3389041E0,2.56E-2,1.168E-1,2.325E-1,1E0,-2.477109E0,-3.3472276E0,-1.5435685E0,-6.0330856E-1,1.9617541E0,3.627158E0,1.7020142E0,4.9949452E-1,3.0499823E0,5.175431E0,6.922901E0,3.7269886E0],"split_indices":[17,0,0,0,20,5,0,0,20,0,0,3,8,8,27,0,0,0,0,0,0,0,0,0,0,0,0],"split_type":[0,0,0,0,0,0,0,0,0,0,0,0,0,0,0,0,0,0,0,0,0,0,0,0,0,0,0],"sum_hessian":[3.8E2,2.15E2,1.65E2,1.38E2,7.7E1,7.2E1,9.3E1,7.1E1,6.7E1,5E1,2.7E1,5.5E1,1.7E1,6E1,3.3E1,4.1E1,2.6E1,3.8E1,1.2E1,3.9E1,1.6E1,6E0,1.1E1,3.1E1,2.9E1,2.5E1,8E0],"tree_param":{"num_deleted":"0","num_feature":"28","num_nodes":"27","size_leaf_vector":"1"}},{"base_weights":[-3.6209342E0,-5.3283325E1,7.322104E1,-6.717144E1,-3.6640274E1,1.311536E2,3.920103E1,-5.9766014E1,-3.8965547E0,-2.7420774E1,-4.923856E1,3.7313478E0,1.5486214E2,5.5417038E1,2.0564907E1,-3.1909456E0,-2.4416115E0,-1.5286897E0,-6.834783E-1,-2.8089263E0,-2.0345695E0,4.2244363E0,8.188738E0,1.9390343E0,4.1247044E0,6.0226727E-1,1.7832531E0],"categories":[],"categories_nodes":[],"categories_segments":[],"categories_sizes":[],"default_left":[0,0,0,0,0,0,0,0,0,0,0,0,0,0,0,0,0,0,0,0,0,0,0,0,0,0,0],"id":11,"left_children":[1,3,5,7,9,11,13,15,-1,17,19,-1,21,23,25,-1,-1,-1,-1,-1,-1,-1,-1,-1,-1,-1,-1],"loss_changes":[1.3510045E6,4.7234062E4,2.68809E5,4.5852188E3,1.0264844E4,5.6791438E4,2.5756469E4,1.1846875E2,0E0,2.1835352E3,1.4601562E2,0E0,8.11525E3,1.7972594E4,5.102209E3,0E0,0E0,0E0,0E0,0E0,0E0,0E0,0E0,0E0,0E0,0E0,0E0],"parents":[2147483647,0,0,1,1,2,2,3,3,4,4,5,5,6,6,7,7,9,9,10,10,12,12,13,13,14,14],"right_children":[2,4,6,8,10,12,14,16,-1,18,20,-1,22,24,26,-1,-1,-1,-1,-1,-1,-1,-1,-1,-1,-1,-1],"split_conditions":[7.6548076E3,3.433E-1,1.2035189E4,1E0,1E0,2.387E-1,1.4709034E4,2.451E-1,-3.8965547E0,5.652E-1,4.58E-1,3.7313478E0,3.394E-1,3.987E-1,4.242E-1,-3.1909456E0,-2.4416115E0,-1.5286897E0,-6.834783E-1,-2.8089263E0,-2.0345695E0,4.2244363E0,8.188738E0,1.9390343E0,4.1247044E0,6.0226727E-1,1.7832531E0],"split_indices":[12,0,12,26,26,0,12,0,0,0,0,0,6,0,0,0,0,0,0,0,0,0,0,0,0,0,0],"split_type":[0,0,0,0,0,0,0,0,0,0,0,0,0,0,0,0,0,0,0,0,0,0,0,0,0,0,0],"sum_hessian":[3.52E2,2.14E2,1.38E2,1.15E2,9.9E1,5E1,8.8E1,7.2E1,4.3E1,5.9E1,4E1,1.6E1,3.4E1,4.6E1,4.2E1,4.9E1,2.3E1,4.7E1,1.2E1,1.9E1,2.1E1,5E0,2.9E1,3E1,1.6E1,2.8E1,1.4E1],"tree_param":{"num_deleted":"0","num_feature":"28","num_nodes":"27","size_leaf_vector":"1"}},{"base_weights":[2.7102237E0,-5.108859E1,6.9614174E1,-5.9253094E1,-3.6255596E1,1.4095457E2,4.6980125E1,-3.2913682E0,-4.7042015E1,-4.3572132E1,-2.0790894E1,4.2960134E0,7.7300425E0,6.3470108E1,2.148564E1,-2.770369E0,-1.9086832E0,-2.3638842E0,-1.5333297E0,-3.831056E-1,-1.1775966E0,2.678449E0,5.0081725E0,7.03054E-1,1.918359E0],"categories":[],"categories_nodes":[],"categories_segments":[],"categories_sizes":[],"default_left":[0,0,0,0,0,0,0,0,0,0,0,0,0,0,0,0,0,0,0,0,0,0,0,0,0],"id":12,"left_children":[1,3,5,7,9,11,13,-1,15,17,19,-1,-1,21,23,-1,-1,-1,-1,-1,-1,-1,-1,-1,-1],"loss_changes":[1.324519E6,2.2557E4,2.5819231E5,7.3395938E3,7.5801953E3,1.60061875E4,5.1607188E4,0E0,1.5200625E3,9.412578E2,7.6201855E2,0E0,0E0,2.2245562E4,5.852754E3,0E0,0E0,0E0,0E0,0E0,0E0,0E0,0E0,0E0,0E0],"parents":[2147483647,0,0,1,1,2,2,3,3,4,4,5,5,6,6,8,8,9,9,10,10,13,13,14,14],"right_children":[2,4,6,8,10,12,14,-1,16,18,20,-1,-1,22,24,-1,-1,-1,-1,-1,-1,-1,-1,-1,-1],"split_conditions":[1.513E2,9.021175E-1,3.029E2,1E0,1E0,7.742892E-1,5.263E2,-3.2913682E0,7.2652584E-1,1.1015859E0,4.496E-1,4.2960134E0,7.7300425E0,1.0459008E0,1E0,-2.770369E0,-1.9086832E0,-2.3638842E0,-1.5333297E0,-3.831056E-1,-1.1775966E0,2.678449E0,5.0081725E0,7.03054E-1,1.918359E0],"split_indices":[16,9,16,19,19,9,16,0,9,9,6,0,0,9,22,0,0,0,0,0,0,0,0,0,0],"split_type":[0,0,0,0,0,0,0,0,0,0,0,0,0,0,0,0,0,0,0,0,0,0,0,0,0],"sum_hessian":[3.66E2,2.03E2,1.63E2,1.29E2,7.4E1,3.8E1,1.25E2,8.1E1,4.8E1,4.9E1,2.5E1,9E0,2.9E1,7.5E1,5E1,2.2E1,2.6E1,3.6E1,1.3E1,5E0,2E1,6.1E1,1.4E1,3.6E1,1.4E1],"tree_param":{"num_deleted":"0","num_feature":"28","num_nodes":"25","size_leaf_vector":"1"}},{"base_weights":[1.8235068E-1,-4.825472E1,6.56193E1,-5.968483E1,-3.424411E1,1.141732E2,3.579623E1,-3.280047E0,-4.7543716E1,-4.1229256E1,-1.9421978E1,8.1223625E1,7.159289E0,5.3690598E1,1.8617487E1,-2.5761533E0,-1.6982492E0,-1.5698781E0,-2.2698772E0,-1.1174048E0,-1.5087229E-1,4.804866E0,3.2535884E0,1.5755906E0,3.822664E0,4.5424056E-1,1.6846327E0],"categories":[],"categories_nodes":[],"categories_segments":[],"categories_sizes":[],"default_left":[0,0,0,0,0,0,0,0,0,0,0,0,0,0,0,0,0,0,0,0,0,0,0,0,0,0,0],"id":13,"left_children":[1,3,5,7,9,11,13,-1,15,17,19,21,-1,23,25,-1,-1,-1,-1,-1,-1,-1,-1,-1,-1,-1,-1],"loss_changes":[1.1251956E6,3.0625312E4,2.1456512E5,4.854E3,8.9315E3,4.2859188E4,2.8203672E4,0E0,4.1140625E2,1.1564453E3,1.4686162E3,7.136719E2,0E0,2.081386E4,6.879244E3,0E0,0E0,0E0,0E0,0E0,0E0,0E0,0E0,0E0,0E0,0E0,0E0],"parents":[2147483647,0,0,1,1,2,2,3,3,4,4,5,5,6,6,8,8,9,9,10,10,11,11,13,13,14,14],"right_children":[2,4,6,8,10,12,14,-1,16,18,20,22,-1,24,26,-1,-1,-1,-1,-1,-1,-1,-1,-1,-1,-1,-1],"split_conditions":[7.6548076E3,3.478E-1,1.2035189E4,1E0,1E0,3.433E-1,1.4509995E4,-3.280047E0,2.494E-1,6.052E2,5.652E-1,1.0137835E4,7.159289E0,3.234E-1,9.0869E-1,-2.5761533E0,-1.6982492E0,-1.5698781E0,-2.2698772E0,-1.1174048E0,-1.5087229E-1,4.804866E0,3.2535884E0,1.5755906E0,3.822664E0,4.5424056E-1,1.6846327E0],"split_indices":[12,0,12,19,19,0,12,0,0,14,0,12,0,0,9,0,0,0,0,0,0,0,0,0,0,0,0],"split_type":[0,0,0,0,0,0,0,0,0,0,0,0,0,0,0,0,0,0,0,0,0,0,0,0,0,0,0],"sum_hessian":[3.53E2,2.03E2,1.5E2,1.1E2,9.3E1,5.6E1,9.4E1,7.1E1,3.9E1,6.2E1,3.1E1,2.8E1,2.8E1,4.5E1,4.9E1,2.8E1,1.1E1,2.1E1,4.1E1,2.6E1,5E0,1.2E1,1.6E1,2.4E1,2.1E1,3.1E1,1.8E1],"tree_param":{"num_deleted":"0","num_feature":"28","num_nodes":"27","size_leaf_vector":"1"}},{"base_weights":[2.379766E0,-4.684135E1,6.541872E1,-5.8114082E1,-3.346659E1,1.3585481E2,4.4916668E1,-3.1877959E0,-2.3465798E0,-3.9345947E1,-2.2279865E1,7.4525657E0,3.716739E0,6.850798E1,2.3900814E1,-2.3367903E0,-1.7016095E0,-1.285583E0,-3.9562893E-1,2.2046926E0,4.485895E0,5.001954E-1,1.7763312E0],"categories":[],"categories_nodes":[],"categories_segments":[],"categories_sizes":[],"default_left":[0,0,0,0,0,0,0,0,0,0,0,0,0,0,0,0,0,0,0,0,0,0,0],"id":14,"left_children":[1,3,5,7,9,11,13,-1,-1,15,17,-1,-1,19,21,-1,-1,-1,-1,-1,-1,-1,-1],"loss_changes":[1.0828551E6,2.7606062E4,2.1484275E5,3.63225E3,5.1742812E3,1.6523125E4,5.785761E4,0E0,0E0,7.262969E2,1.4729453E3,0E0,0E0,2.5042E4,1.014618E4,0E0,0E0,0E0,0E0,0E0,0E0,0E0,0E0],"parents":[2147483647,0,0,1,1,2,2,3,3,4,4,5,5,6,6,9,9,10,10,13,13,14,14],"right_children":[2,4,6,8,10,12,14,-1,-1,16,18,-1,-1,20,22,-1,-1,-1,-1,-1,-1,-1,-1],"split_conditions":[7.6548076E3,3.234E-1,1.0296888E4,1E0,1E0,7.904937E2,4.745E2,-3.1877959E0,-2.3465798E0,4.41E-1,5.13E-1,7.4525657E0,3.716739E0,2.962E-1,3.106E-1,-2.3367903E0,-1.7016095E0,-1.285583E0,-3.9562893E-1,2.2046926E0,4.485895E0,5.001954E-1,1.7763312E0],"split_indices":[12,0,12,19,19,10,16,0,0,0,0,0,0,0,0,0,0,0,0,0,0,0,0],"split_type":[0,0,0,0,0,0,0,0,0,0,0,0,0,0,0,0,0,0,0,0,0,0,0],"sum_hessian":[3.47E2,1.95E2,1.52E2,1.04E2,9.1E1,3.3E1,1.19E2,6.6E1,3.8E1,5.8E1,3.3E1,2.6E1,7E0,5.5E1,6.4E1,2.1E1,3.7E1,2.6E1,7E0,2.7E1,2.8E1,3E1,3.4E1],"tree_param":{"num_deleted":"0","num_feature":"28","num_nodes":"23","size_leaf_vector":"1"}},{"base_weights":[4.661625E0,-4.3333267E1,6.0296757E1,-5.264725E1,-2.6561302E1,1.0820454E2,3.152585E1,-4.6281883E1,-3.0210652E0,-3.2624928E1,-1.5246932E1,3.0491211E0,1.287501E2,4.536034E1,1.2899685E1,-2.5287473E0,-1.7375109E0,-1.7070166E0,-6.6852635E-1,-9.187526E-1,-1.8422209E-1,7.353158E0,4.893884E0,1.3114378E0,3.2783306E0,3.2943553E-1,1.5378817E0],"categories":[],"categories_nodes":[],"categories_segments":[],"categories_sizes":[],"default_left":[0,0,0,0,0,0,0,0,0,0,0,0,0,0,0,0,0,0,0,0,0,0,0,0,0,0,0],"id":15,"left_children":[1,3,5,7,9,11,13,15,-1,17,19,-1,21,23,25,-1,-1,-1,-1,-1,-1,-1,-1,-1,-1,-1,-1],"loss_changes":[9.745664E5,2.92195E4,2.2952994E5,3.3891875E3,4.442203E3,5.3271438E4,2.6987E4,1.8564531E3,0E0,8.8572656E2,9.088579E2,0E0,9.916625E3,2.1861531E4,5.094298E3,0E0,0E0,0E0,0E0,0E0,0E0,0E0,0E0,0E0,0E0,0E0,0E0],"parents":[2147483647,0,0,1,1,2,2,3,3,4,4,5,5,6,6,7,7,9,9,10,10,12,12,13,13,14,14],"right_children":[2,4,6,8,10,12,14,16,-1,18,20,-1,22,24,26,-1,-1,-1,-1,-1,-1,-1,-1,-1,-1,-1,-1],"split_conditions":[7.6548076E3,4.222E-1,1.2035189E4,1E0,1E0,2.387E-1,1.5207469E4,2.781E-1,-3.0210652E0,3.33E-2,5.652E-1,3.0491211E0,1.009734E4,3.234E-1,4.825E-1,-2.5287473E0,-1.7375109E0,-1.7070166E0,-6.6852635E-1,-9.187526E-1,-1.8422209E-1,7.353158E0,4.893884E0,1.3114378E0,3.2783306E0,3.2943553E-1,1.5378817E0],"split_indices":[12,0,12,20,19,0,12,0,0,3,0,0,12,0,0,0,0,0,0,0,0,0,0,0,0,0,0],"split_type":[0,0,0,0,0,0,0,0,0,0,0,0,0,0,0,0,0,0,0,0,0,0,0,0,0,0,0],"sum_hessian":[3.63E2,1.95E2,1.68E2,1.24E2,7.1E1,6.2E1,1.06E2,7.2E1,5.2E1,4.5E1,2.6E1,2E1,4.2E1,6E1,4.6E1,5E1,2.2E1,4.1E1,4E0,2E1,6E0,2.4E1,1.8E1,3.2E1,2.8E1,3.5E1,1.1E1],"tree_param":{"num_deleted":"0","num_feature":"28","num_nodes":"27","size_leaf_vector":"1"}},{"base_weights":[-3.7156996E-1,-4.1275063E1,5.558926E1,-4.8142044E1,-2.3564198E1,3.1315912E1,7.75032E1,-2.7333314E0,-4.1671516E1,-2.8972338E1,-1.3643416E1,3.6255646E1,1.3782876E1,4.3252087E1,8.835175E1,-2.2642157E0,-1.5454792E0,-1.5408779E0,-7.304989E-1,-8.54616E-1,-3.3812603E-1,1.4700508E0,2.5348916E0,3.851993E-1,1.5806637E0,2.6522987E0,1.6306122E-1,2.4602456E0,4.841377E0],"categories":[],"categories_nodes":[],"categories_segments":[],"categories_sizes":[],"default_left":[0,0,0,0,0,0,0,0,0,0,0,0,0,0,0,0,0,0,0,0,0,0,0,0,0,0,0,0,0],"id":16,"left_children":[1,3,5,7,9,11,13,-1,15,17,19,21,23,25,27,-1,-1,-1,-1,-1,-1,-1,-1,-1,-1,-1,-1,-1,-1],"loss_changes":[7.8055225E5,2.282475E4,7.417003E4,3.674625E3,2.6629395E3,5.5628984E3,2.4046719E4,0E0,1.5163281E3,5.0381836E2,4.0650635E2,3.8552031E3,1.599065E3,7.660328E3,1.38164375E4,0E0,0E0,0E0,0E0,0E0,0E0,0E0,0E0,0E0,0E0,0E0,0E0,0E0,0E0],"parents":[2147483647,0,0,1,1,2,2,3,3,4,4,5,5,6,6,8,8,9,9,10,10,11,11,12,12,13,13,14,14],"right_children":[2,4,6,8,10,12,14,-1,16,18,20,22,24,26,28,-1,-1,-1,-1,-1,-1,-1,-1,-1,-1,-1,-1,-1,-1],"split_conditions":[1E0,4.58E-1,3.106E-1,2.391E-1,1E0,2.7973E0,4.458E-1,-2.7333314E0,1E0,2.96E-2,5.43E-1,2.56E-2,1.99E-1,4.044E-1,7.19E-2,-2.2642157E0,-1.5454792E0,-1.5408779E0,-7.304989E-1,-8.54616E-1,-3.3812603E-1,1.4700508E0,2.5348916E0,3.851993E-1,1.5806637E0,2.6522987E0,1.6306122E-1,2.4602456E0,4.841377E0],"split_indices":[18,0,0,0,19,5,6,0,19,3,0,3,0,6,8,0,0,0,0,0,0,0,0,0,0,0,0,0,0],"split_type":[0,0,0,0,0,0,0,0,0,0,0,0,0,0,0,0,0,0,0,0,0,0,0,0,0,0,0,0,0],"sum_hessian":[3.39E2,1.96E2,1.43E2,1.4E2,5.6E1,6.9E1,7.4E1,6.6E1,7.4E1,3.5E1,2.1E1,5.3E1,1.6E1,1.9E1,5.5E1,5.3E1,2.1E1,3E1,5E0,1.3E1,8E0,3.8E1,1.5E1,1.3E1,3E0,1.5E1,4E0,1.1E1,4.4E1],"tree_param":{"num_deleted":"0","num_feature":"28","num_nodes":"29","size_leaf_vector":"1"}},{"base_weights":[-7.510473E-1,-3.9370056E1,5.3743935E1,-2.4679045E1,-4.4170406E1,9.36153E1,3.0014921E1,-2.6205315E1,2.845459E-2,-3.770247E1,-5.291453E1,6.927464E1,6.1705174E0,4.2554436E1,1.1561381E1,-6.0418893E-2,-1.3887576E0,-2.0667124E0,-1.3157965E0,-2.7546685E0,-1.5524181E0,4.1581416E0,2.7697604E0,2.718007E0,1.1882807E0,-2.8586833E-2,1.048148E0],"categories":[],"categories_nodes":[],"categories_segments":[],"categories_sizes":[],"default_left":[0,0,0,0,0,0,0,0,0,0,0,0,0,0,0,0,0,0,0,0,0,0,0,0,0,0,0],"id":17,"left_children":[1,3,5,7,9,11,13,15,-1,17,19,21,-1,23,25,-1,-1,-1,-1,-1,-1,-1,-1,-1,-1,-1,-1],"loss_changes":[7.408102E5,1.3437469E4,1.3532197E5,2.057295E3,6.7146875E3,3.061325E4,2.1028062E4,1.9284922E3,0E0,2.7167578E3,1.2909219E3,1.5615E3,0E0,1.0907945E4,4.460734E3,0E0,0E0,0E0,0E0,0E0,0E0,0E0,0E0,0E0,0E0,0E0,0E0],"parents":[2147483647,0,0,1,1,2,2,3,3,4,4,5,5,6,6,7,7,9,9,10,10,11,11,13,13,14,14],"right_children":[2,4,6,8,10,12,14,16,-1,18,20,22,-1,24,26,-1,-1,-1,-1,-1,-1,-1,-1,-1,-1,-1,-1],"split_conditions":[1.513E2,7.4115247E2,3.91E2,1.524E0,1E0,9.321125E-1,5.45E2,1.66E1,2.845459E-2,3.1090152E-1,5.526472E-1,3.015E2,6.1705174E0,7.711528E2,8.026508E-1,-6.0418893E-2,-1.3887576E0,-2.0667124E0,-1.3157965E0,-2.7546685E0,-1.5524181E0,4.1581416E0,2.7697604E0,2.718007E0,1.1882807E0,-2.8586833E-2,1.048148E0],"split_indices":[16,10,16,6,26,9,16,15,0,13,13,16,0,10,9,0,0,0,0,0,0,0,0,0,0,0,0],"split_type":[0,0,0,0,0,0,0,0,0,0,0,0,0,0,0,0,0,0,0,0,0,0,0,0,0,0,0],"sum_hessian":[3.5E2,2.05E2,1.45E2,5.2E1,1.53E2,5.3E1,9.2E1,4.9E1,3E0,9.1E1,6.2E1,3.1E1,2.2E1,5.4E1,3.8E1,3E0,4.6E1,6.7E1,2.4E1,5.5E1,7E0,1.3E1,1.8E1,3.2E1,2.2E1,1.7E1,2.1E1],"tree_param":{"num_deleted":"0","num_feature":"28","num_nodes":"27","size_leaf_vector":"1"}},{"base_weights":[1.2701535E0,-3.71261E1,5.079822E1,-4.9756603E1,-2.8411114E1,1.1096024E2,3.3344433E1,-2.7429895E0,-2.0319195E0,-3.382147E1,-1.7920887E1,3.8669286E0,6.848617E0,4.8319843E1,1.3494896E1,-1.9780543E0,-1.3706616E0,-1.2077961E0,-5.729368E-1,1.4961423E0,3.345658E0,4.4223937E-1,1.839802E0],"categories":[],"categories_nodes":[],"categories_segments":[],"categories_sizes":[],"default_left":[0,0,0,0,0,0,0,0,0,0,0,0,0,0,0,0,0,0,0,0,0,0,0],"id":18,"left_children":[1,3,5,7,9,11,13,-1,-1,15,17,-1,-1,19,21,-1,-1,-1,-1,-1,-1,-1,-1],"loss_changes":[7.0551206E5,2.1591938E4,1.6640906E5,1.6792969E3,6.545125E3,2.0891281E4,3.7099297E4,0E0,0E0,1.9315312E3,1.536331E3,0E0,0E0,2.2626172E4,5.7423057E3,0E0,0E0,0E0,0E0,0E0,0E0,0E0,0E0],"parents":[2147483647,0,0,1,1,2,2,3,3,4,4,5,5,6,6,9,9,10,10,13,13,14,14],"right_children":[2,4,6,8,10,12,14,-1,-1,16,18,-1,-1,20,22,-1,-1,-1,-1,-1,-1,-1,-1],"split_conditions":[7.6548076E3,2.631E-1,1.0296888E4,1E0,1E0,3.757E-1,1.4509995E4,-2.7429895E0,-2.0319195E0,4.422E-1,4.257E-1,3.8669286E0,6.848617E0,3.234E-1,4.909E-1,-1.9780543E0,-1.3706616E0,-1.2077961E0,-5.729368E-1,1.4961423E0,3.345658E0,4.4223937E-1,1.839802E0],"split_indices":[12,0,12,19,19,0,12,0,0,0,0,0,0,0,0,0,0,0,0,0,0,0,0],"split_type":[0,0,0,0,0,0,0,0,0,0,0,0,0,0,0,0,0,0,0,0,0,0,0],"sum_hessian":[3.69E2,2.08E2,1.61E2,8.3E1,1.25E2,3.5E1,1.26E2,5E1,3.3E1,8.1E1,4.4E1,1.7E1,1.8E1,7.1E1,5.5E1,4E1,4.1E1,2.1E1,2.3E1,3.7E1,3.4E1,4.7E1,8E0],"tree_param":{"num_deleted":"0","num_feature":"28","num_nodes":"23","size_leaf_vector":"1"}},{"base_weights":[1.288348E-1,-3.618241E1,4.8464397E1,-4.729383E1,-2.65337E1,8.034075E1,2.1643114E1,-2.0808194E0,-2.7282712E0,-2.083019E1,-3.48748E1,5.5778954E1,1.06189476E2,1.2279389E1,3.7558006E1,-1.2346175E0,-5.728418E-1,-1.9626709E0,-1.1896292E0,3.5175037E0,2.2173939E0,6.3353133E0,4.1026454E0,9.0212744E-1,-2.847341E-2,2.4749203E0,7.263756E-1],"categories":[],"categories_nodes":[],"categories_segments":[],"categories_sizes":[],"default_left":[0,0,0,0,0,0,0,0,0,0,0,0,0,0,0,0,0,0,0,0,0,0,0,0,0,0,0],"id":19,"left_children":[1,3,5,7,9,11,13,-1,-1,15,17,19,21,23,25,-1,-1,-1,-1,-1,-1,-1,-1,-1,-1,-1,-1],"loss_changes":[6.300882E5,2.0723312E4,1.2992575E5,1.6098906E3,4.601789E3,3.851925E4,1.2205742E4,0E0,0E0,2.214998E3,1.2011523E3,3.209539E3,5.9451562E3,4.0830244E3,7.805699E3,0E0,0E0,0E0,0E0,0E0,0E0,0E0,0E0,0E0,0E0,0E0,0E0],"parents":[2147483647,0,0,1,1,2,2,3,3,4,4,5,5,6,6,9,9,10,10,11,11,12,12,13,13,14,14],"right_children":[2,4,6,8,10,12,14,-1,-1,16,18,20,22,24,26,-1,-1,-1,-1,-1,-1,-1,-1,-1,-1,-1,-1],"split_conditions":[7.6548076E3,2.88E-1,1.3061065E4,1E0,1E0,3.593E-1,4.283E-1,-2.0808194E0,-2.7282712E0,4.94E-1,4.91E-1,1.0137835E4,1.009734E4,1.578015E4,1.590294E4,-1.2346175E0,-5.728418E-1,-1.9626709E0,-1.1896292E0,3.5175037E0,2.2173939E0,6.3353133E0,4.1026454E0,9.0212744E-1,-2.847341E-2,2.4749203E0,7.263756E-1],"split_indices":[12,0,12,20,20,0,0,0,0,0,0,12,12,12,12,0,0,0,0,0,0,0,0,0,0,0,0],"split_type":[0,0,0,0,0,0,0,0,0,0,0,0,0,0,0,0,0,0,0,0,0,0,0,0,0,0,0],"sum_hessian":[3.57E2,2.04E2,1.53E2,9.3E1,1.11E2,6.9E1,8.4E1,5.6E1,3.7E1,6.8E1,4.3E1,3.7E1,3.2E1,5.4E1,3E1,4.7E1,2.1E1,2.9E1,1.4E1,1.4E1,2.3E1,1.5E1,1.7E1,3.7E1,1.7E1,1.9E1,1.1E1],"tree_param":{"num_deleted":"0","num_feature":"28","num_nodes":"27","size_leaf_vector":"1"}},{"base_weights":[3.125326E-1,-3.438194E1,4.8747593E1,-4.340529E1,-2.3767416E1,1.0010437E2,3.106085E1,-3.8030712E1,-2.6089084E0,-1.817047E1,-3.18485E1,3.2975082E0,1.1870283E2,5.0798714E1,1.8738564E1,-2.2760782E0,-1.7137305E0,-1.0446033E0,-4.1249973E-1,-1.6620264E0,-9.2101204E-1,2.978855E0,6.2156177E0,1.4725624E0,3.2222497E0,1.3406792E-1,1.2169334E0],"categories":[],"categories_nodes":[],"categories_segments":[],"categories_sizes":[],"default_left":[0,0,0,0,0,0,0,0,0,0,0,0,0,0,0,0,0,0,0,0,0,0,0,0,0,0,0],"id":20,"left_children":[1,3,5,7,9,11,13,15,-1,17,19,-1,21,23,25,-1,-1,-1,-1,-1,-1,-1,-1,-1,-1,-1,-1],"loss_changes":[6.200739E5,1.9560766E4,1.3677412E5,3.4379375E3,3.989461E3,1.6944906E4,2.7261125E4,5.499922E2,0E0,1.5016113E3,1.3540234E2,0E0,5.53875E2,1.0919797E4,6.499043E3,0E0,0E0,0E0,0E0,0E0,0E0,0E0,0E0,0E0,0E0,0E0,0E0],"parents":[2147483647,0,0,1,1,2,2,3,3,4,4,5,5,6,6,7,7,9,9,10,10,12,12,13,13,14,14],"right_children":[2,4,6,8,10,12,14,16,-1,18,20,-1,22,24,26,-1,-1,-1,-1,-1,-1,-1,-1,-1,-1,-1,-1],"split_conditions":[1.513E2,3.262E-1,3.029E2,1E0,1E0,3.507E-1,4.66E2,1.639E-1,-2.6089084E0,5.553E-1,5.768E-1,3.2975082E0,1.257E-1,2.065E-1,2.327E-1,-2.2760782E0,-1.7137305E0,-1.0446033E0,-4.1249973E-1,-1.6620264E0,-9.2101204E-1,2.978855E0,6.2156177E0,1.4725624E0,3.2222497E0,1.3406792E-1,1.2169334E0],"split_indices":[16,0,16,26,26,0,16,0,0,0,0,0,6,0,0,0,0,0,0,0,0,0,0,0,0,0,0],"split_type":[0,0,0,0,0,0,0,0,0,0,0,0,0,0,0,0,0,0,0,0,0,0,0,0,0,0,0],"sum_hessian":[3.67E2,2.14E2,1.53E2,1.14E2,1E2,3.8E1,1.15E2,7.4E1,4E1,6.1E1,3.9E1,1.5E1,2.3E1,4.3E1,7.2E1,2.1E1,5.3E1,4.7E1,1.4E1,3.4E1,5E0,3E0,2E1,1.8E1,2.5E1,1.9E1,5.3E1],"tree_param":{"num_deleted":"0","num_feature":"28","num_nodes":"27","size_leaf_vector":"1"}},{"base_weights":[1.5310956E0,-3.1812466E1,4.3715656E1,-4.342988E1,-2.6108454E1,8.116431E1,2.3707806E1,-2.3571506E0,-1.7219123E0,-3.1408283E1,-1.7346746E1,4.588075E1,9.413071E1,3.3728943E1,8.592793E0,-1.6975363E0,-9.5459336E-1,-5.2335656E-1,-1.1576871E0,2.6843176E0,1.5194324E0,5.4399934E0,3.6095562E0,2.1798666E0,8.8145494E-1,8.687889E-2,9.6891403E-1],"categories":[],"categories_nodes":[],"categories_segments":[],"categories_sizes":[],"default_left":[0,0,0,0,0,0,0,0,0,0,0,0,0,0,0,0,0,0,0,0,0,0,0,0,0,0,0],"id":21,"left_children":[1,3,5,7,9,11,13,-1,-1,15,17,19,21,23,25,-1,-1,-1,-1,-1,-1,-1,-1,-1,-1,-1,-1],"loss_changes":[5.1620025E5,1.2450625E4,1.19457E5,5.8003125E2,5.9561406E3,2.1301281E4,1.5917422E4,0E0,0E0,2.0448047E3,1.9548906E3,4.2427344E2,5.019E3,9.399703E3,3.2195496E3,0E0,0E0,0E0,0E0,0E0,0E0,0E0,0E0,0E0,0E0,0E0,0E0],"parents":[2147483647,0,0,1,1,2,2,3,3,4,4,5,5,6,6,9,9,10,10,11,11,12,12,13,13,14,14],"right_children":[2,4,6,8,10,12,14,-1,-1,16,18,20,22,24,26,-1,-1,-1,-1,-1,-1,-1,-1,-1,-1,-1,-1],"split_conditions":[1.513E2,7.276775E-1,3.724E2,1E0,1E0,7.742892E-1,5.435E2,-2.3571506E0,-1.7219123E0,1.1015859E0,7.550435E2,3.099E2,2.717E2,7.711528E2,8.747825E-1,-1.6975363E0,-9.5459336E-1,-5.2335656E-1,-1.1576871E0,2.6843176E0,1.5194324E0,5.4399934E0,3.6095562E0,2.1798666E0,8.8145494E-1,8.687889E-2,9.6891403E-1],"split_indices":[16,9,16,19,19,9,16,0,0,9,10,16,16,10,9,0,0,0,0,0,0,0,0,0,0,0,0],"split_type":[0,0,0,0,0,0,0,0,0,0,0,0,0,0,0,0,0,0,0,0,0,0,0,0,0,0,0],"sum_hessian":[3.65E2,2.04E2,1.61E2,6.5E1,1.39E2,5.5E1,1.06E2,4.3E1,2.2E1,8.5E1,5.4E1,1.6E1,3.9E1,6.3E1,4.3E1,6.9E1,1.6E1,2.6E1,2.8E1,9E0,7E0,2.1E1,1.8E1,3.8E1,2.5E1,2.7E1,1.6E1],"tree_param":{"num_deleted":"0","num_feature":"28","num_nodes":"27","size_leaf_vector":"1"}},{"base_weights":[5.9307843E-1,-3.0951622E1,4.3679676E1,-3.990454E1,-2.1350517E1,7.976195E1,1.8888584E1,-2.358403E0,-1.7432057E0,-2.938146E1,-1.5565839E1,5.3191586E1,1.01499794E2,1.2397034E1,3.579006E1,-1.532924E0,-8.3047974E-1,-3.5156251E-3,-8.316642E-1,1.0318326E0,2.802224E0,6.1718388E0,4.246027E0,9.1278327E-1,7.038548E-3,2.2986562E0,6.2893504E-1],"categories":[],"categories_nodes":[],"categories_segments":[],"categories_sizes":[],"default_left":[0,0,0,0,0,0,0,0,0,0,0,0,0,0,0,0,0,0,0,0,0,0,0,0,0,0,0],"id":22,"left_children":[1,3,5,7,9,11,13,-1,-1,15,17,19,21,23,25,-1,-1,-1,-1,-1,-1,-1,-1,-1,-1,-1,-1],"loss_changes":[4.920065E5,1.7113219E4,1.3535481E5,2.2729375E3,4.32766E3,3.0411188E4,9.650254E3,0E0,0E0,1.7579297E2,1.0243486E3,1.6297031E3,1.51975E3,4.880165E3,5.330783E3,0E0,0E0,0E0,0E0,0E0,0E0,0E0,0E0,0E0,0E0,0E0,0E0],"parents":[2147483647,0,0,1,1,2,2,3,3,4,4,5,5,6,6,9,9,10,10,11,11,12,12,13,13,14,14],"right_children":[2,4,6,8,10,12,14,-1,-1,16,18,20,22,24,26,-1,-1,-1,-1,-1,-1,-1,-1,-1,-1,-1,-1],"split_conditions":[7.6548076E3,3.242E-1,1.2100738E4,1E0,1E0,3.507E-1,9.8194E-1,-2.358403E0,-1.7432057E0,5.768E-1,1.66E1,1.338E-1,2.353E2,5.771E2,1.590294E4,-1.532924E0,-8.3047974E-1,-3.5156251E-3,-8.316642E-1,1.0318326E0,2.802224E0,6.1718388E0,4.246027E0,9.1278327E-1,7.038548E-3,2.2986562E0,6.2893504E-1],"split_indices":[12,0,12,25,25,0,9,0,0,0,15,0,16,16,12,0,0,0,0,0,0,0,0,0,0,0,0],"split_type":[0,0,0,0,0,0,0,0,0,0,0,0,0,0,0,0,0,0,0,0,0,0,0,0,0,0,0],"sum_hessian":[3.6E2,2.08E2,1.52E2,1.06E2,1.02E2,6.1E1,9.1E1,4E1,6.6E1,4.1E1,6.1E1,2.9E1,3.2E1,6.7E1,2.4E1,3.6E1,5E0,4E0,5.7E1,3E0,2.6E1,1.1E1,2.1E1,4.5E1,2.2E1,1.6E1,8E0],"tree_param":{"num_deleted":"0","num_feature":"28","num_nodes":"27","size_leaf_vector":"1"}},{"base_weights":[1.2596378E0,-2.9058409E1,4.130163E1,-3.555873E1,-1.7946041E1,7.859016E1,2.1929676E1,-4.0879494E1,-3.0409197E1,-2.2004951E1,-9.477215E0,2.26909E0,9.225227E1,1.2055776E1,3.402089E1,-2.224065E0,-1.6340755E0,-1.6697005E0,-1.152408E0,-1.2444824E0,-6.4227176E-1,-5.582017E-1,-7.157707E-2,5.2810187E0,3.5765512E0,1.0409042E0,2.2425881E-1,2.2724082E0,6.2252665E-1],"categories":[],"categories_nodes":[],"categories_segments":[],"categories_sizes":[],"default_left":[0,0,0,0,0,0,0,0,0,0,0,0,0,0,0,0,0,0,0,0,0,0,0,0,0,0,0,0,0],"id":23,"left_children":[1,3,5,7,9,11,13,15,17,19,21,-1,23,25,27,-1,-1,-1,-1,-1,-1,-1,-1,-1,-1,-1,-1,-1,-1],"loss_changes":[4.5644825E5,1.48199375E4,1.152975E5,2.4284062E3,2.5757637E3,2.0766719E4,1.2483699E4,4.0651562E2,8.122656E2,1.1070918E3,3.640227E2,0E0,2.971E3,3.9531182E3,1.1265684E4,0E0,0E0,0E0,0E0,0E0,0E0,0E0,0E0,0E0,0E0,0E0,0E0,0E0,0E0],"parents":[2147483647,0,0,1,1,2,2,3,3,4,4,5,5,6,6,7,7,8,8,9,9,10,10,12,12,13,13,14,14],"right_children":[2,4,6,8,10,12,14,16,18,20,22,-1,24,26,28,-1,-1,-1,-1,-1,-1,-1,-1,-1,-1,-1,-1,-1,-1],"split_conditions":[1.513E2,4.101E-1,3.693E2,2.165E-1,1E0,2.393E-1,3.739E-1,1E0,1E0,5.553E-1,5.755E-1,2.26909E0,2.61E2,4.867E2,5.934E2,-2.224065E0,-1.6340755E0,-1.6697005E0,-1.152408E0,-1.2444824E0,-6.4227176E-1,-5.582017E-1,-7.157707E-2,5.2810187E0,3.5765512E0,1.0409042E0,2.2425881E-1,2.2724082E0,6.2252665E-1],"split_indices":[16,0,16,0,19,0,0,19,19,0,0,0,16,16,16,0,0,0,0,0,0,0,0,0,0,0,0,0,0],"split_type":[0,0,0,0,0,0,0,0,0,0,0,0,0,0,0,0,0,0,0,0,0,0,0,0,0,0,0,0,0],"sum_hessian":[3.74E2,2.13E2,1.61E2,1.33E2,8E1,5.4E1,1.07E2,6.2E1,7.1E1,5.3E1,2.7E1,1.7E1,3.7E1,6E1,4.7E1,4E1,2.2E1,4.8E1,2.3E1,3.9E1,1.4E1,2.2E1,5E0,2E1,1.7E1,2.7E1,3.3E1,3E1,1.7E1],"tree_param":{"num_deleted":"0","num_feature":"28","num_nodes":"29","size_leaf_vector":"1"}},{"base_weights":[3.8053492E-1,-2.7685478E1,3.970628E1,-3.3519855E1,-1.663418E1,6.69875E1,1.970338E1,-3.7925095E1,-2.5998764E1,-2.0522917E1,-8.957044E0,4.664151E1,8.8454216E1,2.7093018E1,2.715792E0,-2.140254E0,-1.6483334E0,-1.6302502E0,-1.0203192E0,-1.1385186E0,-7.0917326E-1,-6.0810024E-1,-1.4491431E-1,2.9022253E0,1.8373339E0,3.3102868E0,4.951069E0,6.489897E-1,2.0400312E0,-4.3319032E-1,4.1349006E-1],"categories":[],"categories_nodes":[],"categories_segments":[],"categories_sizes":[],"default_left":[0,0,0,0,0,0,0,0,0,0,0,0,0,0,0,0,0,0,0,0,0,0,0,0,0,0,0,0,0,0,0],"id":24,"left_children":[1,3,5,7,9,11,13,15,17,19,21,23,25,27,29,-1,-1,-1,-1,-1,-1,-1,-1,-1,-1,-1,-1,-1,-1,-1,-1],"loss_changes":[4.1609688E5,1.3627453E4,8.435559E4,3.7518906E3,2.1448145E3,2.4700594E4,1.1475375E4,7.182031E2,1.4035469E3,4.0366797E2,5.0845703E2,1.9289609E3,7.324375E2,1.1851758E4,1.9045175E3,0E0,0E0,0E0,0E0,0E0,0E0,0E0,0E0,0E0,0E0,0E0,0E0,0E0,0E0,0E0,0E0],"parents":[2147483647,0,0,1,1,2,2,3,3,4,4,5,5,6,6,7,7,8,8,9,9,10,10,11,11,12,12,13,13,14,14],"right_children":[2,4,6,8,10,12,14,16,18,20,22,24,26,28,30,-1,-1,-1,-1,-1,-1,-1,-1,-1,-1,-1,-1,-1,-1,-1,-1],"split_conditions":[7.6548076E3,4.222E-1,1.2035189E4,1E0,1E0,3.433E-1,1.590294E4,2.265E-1,2.131E-1,5.553E-1,5.13E-1,1.0137835E4,9.1254586E-1,3.26E-1,7.654833E-1,-2.140254E0,-1.6483334E0,-1.6302502E0,-1.0203192E0,-1.1385186E0,-7.0917326E-1,-6.0810024E-1,-1.4491431E-1,2.9022253E0,1.8373339E0,3.3102868E0,4.951069E0,6.489897E-1,2.0400312E0,-4.3319032E-1,4.1349006E-1],"split_indices":[12,0,12,19,19,0,12,0,0,0,0,12,9,0,9,0,0,0,0,0,0,0,0,0,0,0,0,0,0,0,0],"split_type":[0,0,0,0,0,0,0,0,0,0,0,0,0,0,0,0,0,0,0,0,0,0,0,0,0,0,0,0,0,0,0],"sum_hessian":[3.75E2,2.19E2,1.56E2,1.42E2,7.7E1,6.5E1,9.1E1,8.7E1,5.5E1,5E1,2.7E1,3.5E1,3E1,6.3E1,2.8E1,4E1,4.7E1,2.3E1,3.2E1,3.5E1,1.5E1,1.7E1,1E1,1.4E1,2.1E1,1.2E1,1.8E1,3.2E1,3.1E1,9E0,1.9E1],"tree_param":{"num_deleted":"0","num_feature":"28","num_nodes":"31","size_leaf_vector":"1"}},{"base_weights":[1.6059651E0,-2.6345722E1,3.7509914E1,-3.481534E1,-1.9303696E1,6.669647E1,1.6361645E1,-1.9142771E0,-2.7463339E1,-1.4365372E1,-2.620614E1,5.0038586E1,9.2321495E1,8.810547E0,2.736557E1,-1.4271561E0,-6.1145955E-1,-8.016369E-1,3.846121E-2,-1.4524682E0,-9.007215E-1,2.0346954E0,3.1243188E0,5.6054654E0,3.1954944E0,9.4701177E-1,9.06342E-2,1.7599007E0,4.4965717E-1],"categories":[],"categories_nodes":[],"categories_segments":[],"categories_sizes":[],"default_left":[0,0,0,0,0,0,0,0,0,0,0,0,0,0,0,0,0,0,0,0,0,0,0,0,0,0,0,0,0],"id":25,"left_children":[1,3,5,7,9,11,13,-1,15,17,19,21,23,25,27,-1,-1,-1,-1,-1,-1,-1,-1,-1,-1,-1,-1,-1,-1],"loss_changes":[3.783328E5,1.19723125E4,1.0075419E5,1.3722812E3,3.645746E3,2.4833625E4,7.818795E3,0E0,2.1022656E2,1.8040117E3,5.9465234E2,2.5752969E3,7.4524062E3,4.1479517E3,5.2955957E3,0E0,0E0,0E0,0E0,0E0,0E0,0E0,0E0,0E0,0E0,0E0,0E0,0E0,0E0],"parents":[2147483647,0,0,1,1,2,2,3,3,4,4,5,5,6,6,8,8,9,9,10,10,11,11,12,12,13,13,14,14],"right_children":[2,4,6,8,10,12,14,-1,16,18,20,22,24,26,28,-1,-1,-1,-1,-1,-1,-1,-1,-1,-1,-1,-1,-1,-1],"split_conditions":[7.6548076E3,2.88E-1,1.2428075E4,1E0,1E0,9.321125E-1,3.698E-1,-1.9142771E0,5.278E-1,5.652E-1,5.116E-1,3.437E-1,2.61E2,1.4037689E4,1.590294E4,-1.4271561E0,-6.1145955E-1,-8.016369E-1,3.846121E-2,-1.4524682E0,-9.007215E-1,2.0346954E0,3.1243188E0,5.6054654E0,3.1954944E0,9.4701177E-1,9.06342E-2,1.7599007E0,4.4965717E-1],"split_indices":[12,0,12,19,20,9,0,0,8,0,0,0,16,12,12,0,0,0,0,0,0,0,0,0,0,0,0,0,0],"split_type":[0,0,0,0,0,0,0,0,0,0,0,0,0,0,0,0,0,0,0,0,0,0,0,0,0,0,0,0,0],"sum_hessian":[3.75E2,2.11E2,1.64E2,9.4E1,1.17E2,6.8E1,9.6E1,6.1E1,3.3E1,7E1,4.7E1,4.3E1,2.5E1,5.8E1,3.8E1,3E1,3E0,6.3E1,7E0,3.3E1,1.4E1,2.7E1,1.6E1,1.3E1,1.2E1,2.3E1,3.5E1,2.6E1,1.2E1],"tree_param":{"num_deleted":"0","num_feature":"28","num_nodes":"29","size_leaf_vector":"1"}},{"base_weights":[-2.005557E-1,-2.5736692E1,3.5105785E1,-3.0257544E1,-1.7263586E1,6.475391E1,1.7571548E1,-3.3986824E1,-2.3794876E1,-1.1583308E1,-2.4769024E1,3.6897884E1,7.624481E1,1.0618452E1,3.0928627E1,-1.4510528E0,-1.9620962E0,-1.5947433E0,-1.0283755E0,-6.500687E-1,1.0389389E-1,-5.9990543E-1,-1.3381752E0,9.996773E-1,2.0930793E0,4.4117007E0,2.9010797E0,9.3298906E-1,9.970031E-2,5.2922773E-1,1.8100792E0],"categories":[],"categories_nodes":[],"categories_segments":[],"categories_sizes":[],"default_left":[0,0,0,0,0,0,0,0,0,0,0,0,0,0,0,0,0,0,0,0,0,0,0,0,0,0,0,0,0,0,0],"id":26,"left_children":[1,3,5,7,9,11,13,15,17,19,21,23,25,27,29,-1,-1,-1,-1,-1,-1,-1,-1,-1,-1,-1,-1,-1,-1,-1,-1],"loss_changes":[3.200655E5,7.3686094E3,7.632089E4,2.3967344E3,2.8679316E3,1.4791719E4,8.494529E3,1.001E3,7.033672E2,8.7940283E2,4.685E2,6.7338477E2,3.1828438E3,4.401321E3,3.0495723E3,0E0,0E0,0E0,0E0,0E0,0E0,0E0,0E0,0E0,0E0,0E0,0E0,0E0,0E0,0E0,0E0],"parents":[2147483647,0,0,1,1,2,2,3,3,4,4,5,5,6,6,7,7,8,8,9,9,10,10,11,11,12,12,13,13,14,14],"right_children":[2,4,6,8,10,12,14,16,18,20,22,24,26,28,30,-1,-1,-1,-1,-1,-1,-1,-1,-1,-1,-1,-1,-1,-1,-1,-1],"split_conditions":[7.6548076E3,9.1254586E-1,3.724E2,1E0,1E0,7.742892E-1,1E0,8.088E2,6.2193E-1,9.293057E-1,5.442E-1,6.9E-2,1.009734E4,5.3E2,7.19395E-1,-1.4510528E0,-1.9620962E0,-1.5947433E0,-1.0283755E0,-6.500687E-1,1.0389389E-1,-5.9990543E-1,-1.3381752E0,9.996773E-1,2.0930793E0,4.4117007E0,2.9010797E0,9.3298906E-1,9.970031E-2,5.2922773E-1,1.8100792E0],"split_indices":[12,9,16,19,20,9,22,14,9,13,6,8,12,16,9,0,0,0,0,0,0,0,0,0,0,0,0,0,0,0,0],"split_type":[0,0,0,0,0,0,0,0,0,0,0,0,0,0,0,0,0,0,0,0,0,0,0,0,0,0,0,0,0,0,0],"sum_hessian":[3.53E2,2.05E2,1.48E2,1.32E2,7.3E1,5.4E1,9.4E1,8.1E1,5.1E1,4.3E1,3E1,1.7E1,3.7E1,6.3E1,3.1E1,4.5E1,3.6E1,1.2E1,3.9E1,3.9E1,4E0,5E0,2.5E1,5E0,1.2E1,2E1,1.7E1,3.2E1,3.1E1,7E0,2.4E1],"tree_param":{"num_deleted":"0","num_feature":"28","num_nodes":"31","size_leaf_vector":"1"}},{"base_weights":[1.5268358E0,-2.4361217E1,3.4309116E1,-2.8317387E1,-1.2182353E1,7.4094795E1,2.0984941E1,-3.2869583E1,-2.340674E1,8.167782E-2,-1.304398E1,2.416135E0,8.865602E1,3.5180424E1,1.004687E1,-1.892547E0,-1.4696273E0,-1.3107189E0,-7.715499E-1,-7.578188E-1,-4.3998662E-1,2.0582116E0,4.663054E0,1.0131781E0,2.4673393E0,2.1251057E-1,1.0387291E0],"categories":[],"categories_nodes":[],"categories_segments":[],"categories_sizes":[],"default_left":[0,0,0,0,0,0,0,0,0,0,0,0,0,0,0,0,0,0,0,0,0,0,0,0,0,0,0],"id":27,"left_children":[1,3,5,7,9,11,13,15,17,-1,19,-1,21,23,25,-1,-1,-1,-1,-1,-1,-1,-1,-1,-1,-1,-1],"loss_changes":[3.1738947E5,9.724992E3,8.59135E4,2.74025E3,6.5222754E2,1.1102125E4,1.9055445E4,2.5577344E2,1.3645312E3,0E0,3.149043E2,0E0,1.6285156E3,1.0411211E4,4.389015E3,0E0,0E0,0E0,0E0,0E0,0E0,0E0,0E0,0E0,0E0,0E0,0E0],"parents":[2147483647,0,0,1,1,2,2,3,3,4,4,5,5,6,6,7,7,8,8,10,10,12,12,13,13,14,14],"right_children":[2,4,6,8,10,12,14,16,18,-1,20,-1,22,24,26,-1,-1,-1,-1,-1,-1,-1,-1,-1,-1,-1,-1],"split_conditions":[7.6548076E3,4.679E-1,3.029E2,2.513E-1,1.36E-2,3.507E-1,4.745E2,1E0,1E0,8.167782E-2,1E0,2.416135E0,1.257E-1,2.962E-1,1E0,-1.892547E0,-1.4696273E0,-1.3107189E0,-7.715499E-1,-7.578188E-1,-4.3998662E-1,2.0582116E0,4.663054E0,1.0131781E0,2.4673393E0,2.1251057E-1,1.0387291E0],"split_indices":[12,0,16,0,8,0,16,25,19,0,19,0,6,0,22,0,0,0,0,0,0,0,0,0,0,0,0],"split_type":[0,0,0,0,0,0,0,0,0,0,0,0,0,0,0,0,0,0,0,0,0,0,0,0,0,0,0],"sum_hessian":[3.72E2,2.08E2,1.64E2,1.56E2,5.2E1,4E1,1.24E2,7.8E1,7.8E1,3E0,4.9E1,1.6E1,2.4E1,5.3E1,7.1E1,2.8E1,5E1,5.6E1,2.2E1,3.1E1,1.8E1,3E0,2.1E1,2.7E1,2.6E1,4.7E1,2.4E1],"tree_param":{"num_deleted":"0","num_feature":"28","num_nodes":"27","size_leaf_vector":"1"}},{"base_weights":[7.104406E-1,-2.3059372E1,3.388769E1,-1.7990816E1,-3.047598E1,7.020928E1,2.1261726E1,-2.1759815E1,-1.047223E1,-2.6729849E1,-1.7670971E0,5.1190918E1,8.4766266E1,2.7860752E1,4.619793E0,-1.1411605E0,-4.468789E-1,-7.4607456E-1,-3.2469663E-1,-1.4771358E0,-9.6831554E-1,1.2193485E0,2.7346237E0,4.5112243E0,2.0188642E0,1.1671106E0,2.467653E0,1.0713767E0,7.8130186E-2],"categories":[],"categories_nodes":[],"categories_segments":[],"categories_sizes":[],"default_left":[0,0,0,0,0,0,0,0,0,0,0,0,0,0,0,0,0,0,0,0,0,0,0,0,0,0,0,0,0],"id":28,"left_children":[1,3,5,7,9,11,13,15,17,19,-1,21,23,25,27,-1,-1,-1,-1,-1,-1,-1,-1,-1,-1,-1,-1,-1,-1],"loss_changes":[2.8152906E5,7.2707344E3,6.683791E4,3.3426602E3,5.6828125E2,6.1810312E3,1.21711875E4,9.2773047E2,6.819219E2,4.8421094E2,0E0,4.4947266E2,1.2026719E3,6.6171016E3,1.6622039E3,0E0,0E0,0E0,0E0,0E0,0E0,0E0,0E0,0E0,0E0,0E0,0E0,0E0,0E0],"parents":[2147483647,0,0,1,1,2,2,3,3,4,4,5,5,6,6,7,7,8,8,9,9,11,11,12,12,13,13,14,14],"right_children":[2,4,6,8,10,12,14,16,18,20,-1,22,24,26,28,-1,-1,-1,-1,-1,-1,-1,-1,-1,-1,-1,-1,-1,-1],"split_conditions":[7.6548076E3,7.831776E2,3.029E2,1E0,1E0,9.1254586E-1,1.5207469E4,7.452836E-1,9.08425E-1,2.3971164E-1,-1.7670971E0,5.02845E-1,1.563E0,5.497896E-1,7.875E2,-1.1411605E0,-4.468789E-1,-7.4607456E-1,-3.2469663E-1,-1.4771358E0,-9.6831554E-1,1.2193485E0,2.7346237E0,4.5112243E0,2.0188642E0,1.1671106E0,2.467653E0,1.0713767E0,7.8130186E-2],"split_indices":[12,10,16,19,20,9,12,13,9,13,0,9,2,13,14,0,0,0,0,0,0,0,0,0,0,0,0,0,0],"split_type":[0,0,0,0,0,0,0,0,0,0,0,0,0,0,0,0,0,0,0,0,0,0,0,0,0,0,0,0,0],"sum_hessian":[3.55E2,2.07E2,1.48E2,1.25E2,8.2E1,3.7E1,1.11E2,8.2E1,4.3E1,5E1,3.2E1,1.8E1,1.9E1,7.9E1,3.2E1,7.5E1,7E0,1.9E1,2.4E1,3.4E1,1.6E1,3E0,1.5E1,1.6E1,3E0,6.7E1,1.2E1,4E0,2.8E1],"tree_param":{"num_deleted":"0","num_feature":"28","num_nodes":"29","size_leaf_vector":"1"}},{"base_weights":[9.4156206E-1,-2.2011528E1,3.1922348E1,-1.7488224E1,-2.8392149E1,5.9029335E1,1.59298525E1,-2.0742462E1,-1.1165521E1,-3.1307926E1,-2.284039E1,3.373208E1,7.020223E1,2.1709213E1,1.3357463E0,-6.54133E-1,-1.1544036E0,-3.97409E-1,-7.864354E-1,-8.533784E-1,-1.604508E0,-1.3840208E0,-7.432164E-1,8.332812E-1,1.9154927E0,3.7937381E0,1.9013888E0,7.1686393E-1,1.96404E0,-3.6420307E-1,3.3547664E-1],"categories":[],"categories_nodes":[],"categories_segments":[],"categories_sizes":[],"default_left":[0,0,0,0,0,0,0,0,0,0,0,0,0,0,0,0,0,0,0,0,0,0,0,0,0,0,0,0,0,0,0],"id":29,"left_children":[1,3,5,7,9,11,13,15,17,19,21,23,25,27,29,-1,-1,-1,-1,-1,-1,-1,-1,-1,-1,-1,-1,-1,-1,-1,-1],"loss_changes":[2.6736697E5,5.737547E3,6.8421016E4,2.4226523E3,7.094297E2,1.4307922E4,8.57415E3,1.2071641E3,5.503262E2,6.495703E1,9.0109766E2,9.2407227E2,4.4150625E3,8.892992E3,1.4385029E3,0E0,0E0,0E0,0E0,0E0,0E0,0E0,0E0,0E0,0E0,0E0,0E0,0E0,0E0,0E0,0E0],"parents":[2147483647,0,0,1,1,2,2,3,3,4,4,5,5,6,6,7,7,8,8,9,9,10,10,11,11,12,12,13,13,14,14],"right_children":[2,4,6,8,10,12,14,16,18,20,22,24,26,28,30,-1,-1,-1,-1,-1,-1,-1,-1,-1,-1,-1,-1,-1,-1,-1,-1],"split_conditions":[7.6548076E3,7.831776E2,1.1777025E4,1E0,1E0,7.742892E-1,1.590294E4,7.319486E2,7.550435E2,7.852592E2,1.682032E-1,6.9E-2,1.563E0,9.89125E-1,8.026508E-1,-6.54133E-1,-1.1544036E0,-3.97409E-1,-7.864354E-1,-8.533784E-1,-1.604508E0,-1.3840208E0,-7.432164E-1,8.332812E-1,1.9154927E0,3.7937381E0,1.9013888E0,7.1686393E-1,1.96404E0,-3.6420307E-1,3.3547664E-1],"split_indices":[12,10,12,19,19,9,12,10,10,10,13,8,2,9,9,0,0,0,0,0,0,0,0,0,0,0,0,0,0,0,0],"split_type":[0,0,0,0,0,0,0,0,0,0,0,0,0,0,0,0,0,0,0,0,0,0,0,0,0,0,0,0,0,0,0],"sum_hessian":[3.74E2,2.15E2,1.59E2,1.28E2,8.7E1,5.8E1,1.01E2,8.3E1,4.5E1,5.4E1,3.3E1,1.9E1,3.9E1,7.2E1,2.9E1,2.1E1,6.2E1,2.8E1,1.7E1,4E0,5E1,1.9E1,1.4E1,5E0,1.4E1,3.2E1,7E0,5.2E1,2E1,1.1E1,1.8E1],"tree_param":{"num_deleted":"0","num_feature":"28","num_nodes":"31","size_leaf_vector":"1"}},{"base_weights":[1.3011413E0,-2.0952744E1,2.890957E1,-2.9410425E1,-1.5349372E1,5.354688E1,1.4086498E1,-2.545212E1,-1.6714852E0,-1.8574408E1,-9.721723E0,3.4048798E1,7.194661E1,5.9857717E0,2.1921442E1,-1.5024334E0,-1.1076112E0,-7.588411E-1,-1.1425266E0,-5.467297E-1,1.4479415E-1,1.050008E0,2.0413985E0,4.4026585E0,2.8569837E0,4.3172628E-1,-3.1336603E-1,1.5031478E0,5.800213E-1],"categories":[],"categories_nodes":[],"categories_segments":[],"categories_sizes":[],"default_left":[0,0,0,0,0,0,0,0,0,0,0,0,0,0,0,0,0,0,0,0,0,0,0,0,0,0,0,0,0],"id":30,"left_children":[1,3,5,7,9,11,13,15,-1,17,19,21,23,25,27,-1,-1,-1,-1,-1,-1,-1,-1,-1,-1,-1,-1,-1,-1],"loss_changes":[2.2854622E5,9.311227E3,5.9869E4,4.378125E2,2.1062441E3,1.9793406E4,6.532998E3,1.6921875E1,0E0,8.009531E2,7.662344E2,1.973293E3,2.3618125E3,1.7742523E3,4.1047793E3,0E0,0E0,0E0,0E0,0E0,0E0,0E0,0E0,0E0,0E0,0E0,0E0,0E0,0E0],"parents":[2147483647,0,0,1,1,2,2,3,3,4,4,5,5,6,6,7,7,9,9,10,10,11,11,12,12,13,13,14,14],"right_children":[2,4,6,8,10,12,14,16,-1,18,20,22,24,26,28,-1,-1,-1,-1,-1,-1,-1,-1,-1,-1,-1,-1,-1,-1],"split_conditions":[7.6548076E3,2.522E-1,1.2035189E4,1E0,4.843E-1,3.507E-1,2.27457E-1,1.527E-1,-1.6714852E0,1E0,9.293057E-1,1.0974627E-1,1.37E-2,1.6302719E4,1.4605512E4,-1.5024334E0,-1.1076112E0,-7.588411E-1,-1.1425266E0,-5.467297E-1,1.4479415E-1,1.050008E0,2.0413985E0,4.4026585E0,2.8569837E0,4.3172628E-1,-3.1336603E-1,1.5031478E0,5.800213E-1],"split_indices":[12,0,12,20,0,0,13,0,0,20,13,13,4,12,12,0,0,0,0,0,0,0,0,0,0,0,0,0,0],"split_type":[0,0,0,0,0,0,0,0,0,0,0,0,0,0,0,0,0,0,0,0,0,0,0,0,0,0,0,0,0],"sum_hessian":[3.7E2,2.05E2,1.65E2,8E1,1.25E2,6.1E1,1.04E2,4.4E1,3.6E1,7.8E1,4.7E1,3.1E1,3E1,5.2E1,5.2E1,1.5E1,2.9E1,4.6E1,3.2E1,4.3E1,4E0,1.2E1,1.9E1,1.2E1,1.8E1,4.3E1,9E0,2.8E1,2.4E1],"tree_param":{"num_deleted":"0","num_feature":"28","num_nodes":"29","size_leaf_vector":"1"}},{"base_weights":[-4.9231145E-1,-1.9645195E1,2.7051E1,-2.600626E1,-1.4027768E1,6.17635E1,1.7360394E1,-2.2419847E1,-1.5502353E0,-1.0521628E1,-1.865581E1,3.645659E1,7.639017E1,2.942631E1,7.8407717E0,-1.5378593E0,-1.0133221E0,-6.1325353E-1,-5.36452E-2,-1.000056E0,-5.152413E-1,1.0402093E0,2.2797685E0,4.890261E0,2.8667753E0,8.280488E-1,2.0160875E0,1.6283767E-1,9.0817225E-1],"categories":[],"categories_nodes":[],"categories_segments":[],"categories_sizes":[],"default_left":[0,0,0,0,0,0,0,0,0,0,0,0,0,0,0,0,0,0,0,0,0,0,0,0,0,0,0,0,0],"id":31,"left_children":[1,3,5,7,9,11,13,15,-1,17,19,21,23,25,27,-1,-1,-1,-1,-1,-1,-1,-1,-1,-1,-1,-1,-1,-1],"loss_changes":[1.9677403E5,7.4964062E3,5.0394695E4,1.1333828E3,1.7346719E3,9.430211E3,1.3667691E4,5.077422E2,0E0,1.1399722E3,3.5562305E2,1.0540391E3,2.5534297E3,6.7614297E3,3.2058794E3,0E0,0E0,0E0,0E0,0E0,0E0,0E0,0E0,0E0,0E0,0E0,0E0,0E0,0E0],"parents":[2147483647,0,0,1,1,2,2,3,3,4,4,5,5,6,6,7,7,9,9,10,10,11,11,12,12,13,13,14,14],"right_children":[2,4,6,8,10,12,14,16,-1,18,20,22,24,26,28,-1,-1,-1,-1,-1,-1,-1,-1,-1,-1,-1,-1,-1,-1],"split_conditions":[1.513E2,2.88E-1,3.024E2,1E0,1E0,3.369E-1,4.745E2,1.132E-1,-1.5502353E0,5.652E-1,5.553E-1,2.59E-2,1.3E-2,2.393E-1,1E0,-1.5378593E0,-1.0133221E0,-6.1325353E-1,-5.36452E-2,-1.000056E0,-5.152413E-1,1.0402093E0,2.2797685E0,4.890261E0,2.8667753E0,8.280488E-1,2.0160875E0,1.6283767E-1,9.0817225E-1],"split_indices":[16,0,16,20,20,0,16,0,0,0,0,3,4,0,22,0,0,0,0,0,0,0,0,0,0,0,0,0,0],"split_type":[0,0,0,0,0,0,0,0,0,0,0,0,0,0,0,0,0,0,0,0,0,0,0,0,0,0,0,0,0],"sum_hessian":[3.71E2,2.19E2,1.52E2,1.01E2,1.18E2,3.2E1,1.2E2,6.2E1,3.9E1,6.9E1,4.9E1,1.3E1,1.9E1,5.2E1,6.8E1,1E1,5.2E1,5.8E1,1.1E1,4.1E1,8E0,6E0,7E0,7E0,1.2E1,2.5E1,2.7E1,4.8E1,2E1],"tree_param":{"num_deleted":"0","num_feature":"28","num_nodes":"29","size_leaf_vector":"1"}},{"base_weights":[-1.6746494E-1,-1.8959679E1,2.5415276E1,-2.5267464E1,-1.4059116E1,4.558236E1,1.1843205E1,-1.4019867E0,-2.025317E1,-1.726877E1,-8.254618E0,2.2380398E1,5.6098045E1,6.826967E0,2.4700026E1,-1.397766E0,-8.715027E-1,-9.482986E-1,-5.3260297E-1,-4.9133754E-1,1.2242126E-2,6.4695567E-1,1.3597552E0,1.585873E0,3.0450895E0,5.329575E-1,-1.2199427E-1,1.5789264E0,6.224737E-1],"categories":[],"categories_nodes":[],"categories_segments":[],"categories_sizes":[],"default_left":[0,0,0,0,0,0,0,0,0,0,0,0,0,0,0,0,0,0,0,0,0,0,0,0,0,0,0,0,0],"id":32,"left_children":[1,3,5,7,9,11,13,-1,15,17,19,21,23,25,27,-1,-1,-1,-1,-1,-1,-1,-1,-1,-1,-1,-1,-1,-1],"loss_changes":[1.7595794E5,6.167133E3,4.1885055E4,6.9709375E2,2.1117363E3,1.38715625E4,5.893705E3,0E0,2.955244E2,6.626719E2,6.0370874E2,6.027158E2,2.9872812E3,2.4763528E3,1.7977637E3,0E0,0E0,0E0,0E0,0E0,0E0,0E0,0E0,0E0,0E0,0E0,0E0,0E0,0E0],"parents":[2147483647,0,0,1,1,2,2,3,3,4,4,5,5,6,6,8,8,9,9,10,10,11,11,12,12,13,13,14,14],"right_children":[2,4,6,8,10,12,14,-1,16,18,20,22,24,26,28,-1,-1,-1,-1,-1,-1,-1,-1,-1,-1,-1,-1,-1,-1],"split_conditions":[1.513E2,2.88E-1,4.006E2,1E0,1E0,2.393E-1,4.472E-1,-1.4019867E0,1.132E-1,5.265E-1,5.652E-1,9.122319E-2,1.4266098E-1,5.874E2,5.934E2,-1.397766E0,-8.715027E-1,-9.482986E-1,-5.3260297E-1,-4.9133754E-1,1.2242126E-2,6.4695567E-1,1.3597552E0,1.585873E0,3.0450895E0,5.329575E-1,-1.2199427E-1,1.5789264E0,6.224737E-1],"split_indices":[16,0,16,19,19,0,0,0,0,0,0,13,13,16,16,0,0,0,0,0,0,0,0,0,0,0,0,0,0],"split_type":[0,0,0,0,0,0,0,0,0,0,0,0,0,0,0,0,0,0,0,0,0,0,0,0,0,0,0,0,0],"sum_hessian":[3.64E2,2.1E2,1.54E2,9E1,1.2E2,6.1E1,9.3E1,5.5E1,3.5E1,7.6E1,4.4E1,2E1,4.1E1,6.8E1,2.5E1,7E0,2.8E1,5.9E1,1.7E1,3.7E1,7E0,8E0,1.2E1,8E0,3.3E1,4.8E1,2E1,1.5E1,1E1],"tree_param":{"num_deleted":"0","num_feature":"28","num_nodes":"29","size_leaf_vector":"1"}},{"base_weights":[1.2437931E0,-1.7814167E1,2.526567E1,-1.2662491E0,-1.4173758E1,4.7790264E1,1.2460939E1,-1.0996259E1,-1.9278492E1,3.245804E1,6.6730484E1,1.7174288E1,8.077535E-1,-3.4106636E-1,-6.94569E-1,-5.1965445E-1,-1.0448264E0,1.7117293E0,5.2876395E-1,3.9921196E0,2.4242728E0,5.756866E-1,1.6477063E0,-3.7319177E-1,2.8651595E-1],"categories":[],"categories_nodes":[],"categories_segments":[],"categories_sizes":[],"default_left":[0,0,0,0,0,0,0,0,0,0,0,0,0,0,0,0,0,0,0,0,0,0,0,0,0],"id":33,"left_children":[1,3,5,-1,7,9,11,13,15,17,19,21,23,-1,-1,-1,-1,-1,-1,-1,-1,-1,-1,-1,-1],"loss_changes":[1.666344E5,5.1915664E3,4.5840312E4,0E0,2.042627E3,1.4677016E4,5.698382E3,9.688926E2,5.3041797E2,9.597383E2,2.1094922E3,6.230453E3,1.3050107E3,0E0,0E0,0E0,0E0,0E0,0E0,0E0,0E0,0E0,0E0,0E0,0E0],"parents":[2147483647,0,0,1,1,2,2,4,4,5,5,6,6,7,7,8,8,9,9,10,10,11,11,12,12],"right_children":[2,4,6,-1,8,10,12,14,16,18,20,22,24,-1,-1,-1,-1,-1,-1,-1,-1,-1,-1,-1,-1],"split_conditions":[7.6548076E3,7.276775E-1,1.2035189E4,-1.2662491E0,1E0,9.321125E-1,1.590294E4,7.446007E2,7.227326E2,2.345E2,2.61E2,9.8194E-1,7.7254915E-1,-3.4106636E-1,-6.94569E-1,-5.1965445E-1,-1.0448264E0,1.7117293E0,5.2876395E-1,3.9921196E0,2.4242728E0,5.756866E-1,1.6477063E0,-3.7319177E-1,2.8651595E-1],"split_indices":[12,9,12,0,20,9,12,10,10,17,16,9,9,0,0,0,0,0,0,0,0,0,0,0,0],"split_type":[0,0,0,0,0,0,0,0,0,0,0,0,0,0,0,0,0,0,0,0,0,0,0,0,0],"sum_hessian":[3.62E2,2.02E2,1.6E2,6.4E1,1.38E2,5.7E1,1.03E2,8.7E1,5.1E1,3.3E1,2.4E1,7.3E1,3E1,3.7E1,5E1,9E0,4.2E1,3E1,3E0,1.2E1,1.2E1,5.5E1,1.8E1,1.1E1,1.9E1],"tree_param":{"num_deleted":"0","num_feature":"28","num_nodes":"25","size_leaf_vector":"1"}},{"base_weights":[6.4628434E-1,-1.6947107E1,2.3984928E1,-2.0097109E1,-7.8832703E0,5.470621E1,1.440907E1,-2.2787983E1,-1.5173358E1,2.6235446E-1,-8.758529E0,3.549785E1,3.5971239E0,2.124461E1,5.914272E0,-1.3129704E0,-9.4209045E-1,-1.0030642E0,-5.950293E-1,-5.292683E-1,-2.8223476E-1,1.9883047E0,4.7752E-1,6.6681707E-1,1.5300949E0,1.4198396E-1,1.5018867E0],"categories":[],"categories_nodes":[],"categories_segments":[],"categories_sizes":[],"default_left":[0,0,0,0,0,0,0,0,0,0,0,0,0,0,0,0,0,0,0,0,0,0,0,0,0,0,0],"id":34,"left_children":[1,3,5,7,9,11,13,15,17,-1,19,21,-1,23,25,-1,-1,-1,-1,-1,-1,-1,-1,-1,-1,-1,-1],"loss_changes":[1.4617156E5,5.6374414E3,4.422167E4,1.6416133E3,6.665493E2,9.365094E3,6.726205E3,8.066133E2,6.570957E2,0E0,2.303606E2,1.7244688E3,0E0,4.401877E3,3.919873E3,0E0,0E0,0E0,0E0,0E0,0E0,0E0,0E0,0E0,0E0,0E0,0E0],"parents":[2147483647,0,0,1,1,2,2,3,3,4,4,5,5,6,6,7,7,8,8,10,10,11,11,13,13,14,14],"right_children":[2,4,6,8,10,12,14,16,18,-1,20,22,-1,24,26,-1,-1,-1,-1,-1,-1,-1,-1,-1,-1,-1,-1],"split_conditions":[7.6548076E3,4.58E-1,1.0443051E4,1E0,1.66E1,4.159E-1,1.4248917E4,2.513E-1,1.876E-1,2.6235446E-1,1E0,9.79105E3,3.5971239E0,3.4E-1,5.011E-1,-1.3129704E0,-9.4209045E-1,-1.0030642E0,-5.950293E-1,-5.292683E-1,-2.8223476E-1,1.9883047E0,4.7752E-1,6.6681707E-1,1.5300949E0,1.4198396E-1,1.5018867E0],"split_indices":[12,0,12,19,15,0,12,0,0,0,19,12,0,0,0,0,0,0,0,0,0,0,0,0,0,0,0],"split_type":[0,0,0,0,0,0,0,0,0,0,0,0,0,0,0,0,0,0,0,0,0,0,0,0,0,0,0],"sum_hessian":[3.54E2,2.02E2,1.52E2,1.49E2,5.3E1,3.5E1,1.17E2,9.4E1,5.5E1,3E0,5E1,1.8E1,1.7E1,6.4E1,5.3E1,4.7E1,4.7E1,2E1,3.5E1,3E1,2E1,1.5E1,3E0,3.6E1,2.8E1,4.8E1,5E0],"tree_param":{"num_deleted":"0","num_feature":"28","num_nodes":"27","size_leaf_vector":"1"}},{"base_weights":[8.4183204E-1,-1.606266E1,2.2822878E1,-1.238859E1,-2.151376E1,3.7781277E1,9.321504E0,-9.385324E0,-1.7100344E1,-2.4194292E1,-1.6637955E1,4.80177E1,2.5417093E1,1.3806218E1,1.1819568E0,-5.680284E-1,-2.1103822E-1,-4.7572675E-1,-9.17422E-1,-8.3789724E-1,-1.2890341E0,-1.0135144E0,-5.755855E-1,3.299612E0,1.7554806E0,1.4834931E0,3.14604E-1,5.107221E-1,1.3785629E0,-1.8169254E-1,3.8166353E-1],"categories":[],"categories_nodes":[],"categories_segments":[],"categories_sizes":[],"default_left":[0,0,0,0,0,0,0,0,0,0,0,0,0,0,0,0,0,0,0,0,0,0,0,0,0,0,0,0,0,0,0],"id":35,"left_children":[1,3,5,7,9,11,13,15,17,19,21,23,25,27,29,-1,-1,-1,-1,-1,-1,-1,-1,-1,-1,-1,-1,-1,-1,-1,-1],"loss_changes":[1.3933692E5,3.9793516E3,3.2567133E4,1.6649414E3,6.953164E2,8.525039E3,3.1594893E3,7.7835205E2,2.8934668E2,1.8141016E2,3.8112207E2,7.1957344E3,2.8226816E3,2.4870684E3,1.0219232E3,0E0,0E0,0E0,0E0,0E0,0E0,0E0,0E0,0E0,0E0,0E0,0E0,0E0,0E0,0E0,0E0],"parents":[2147483647,0,0,1,1,2,2,3,3,4,4,5,5,6,6,7,7,8,8,9,9,10,10,11,11,12,12,13,13,14,14],"right_children":[2,4,6,8,10,12,14,16,18,20,22,24,26,28,30,-1,-1,-1,-1,-1,-1,-1,-1,-1,-1,-1,-1,-1,-1,-1,-1],"split_conditions":[7.6548076E3,7.831776E2,1.3061065E4,1E0,1E0,7.724391E2,1.590294E4,4.767334E-1,6.621E-1,7.8889154E2,1.466759E-1,1.009734E4,1.1492056E4,5.497896E-1,2.681532E-1,-5.680284E-1,-2.1103822E-1,-4.7572675E-1,-9.17422E-1,-8.3789724E-1,-1.2890341E0,-1.0135144E0,-5.755855E-1,3.299612E0,1.7554806E0,1.4834931E0,3.14604E-1,5.107221E-1,1.3785629E0,-1.8169254E-1,3.8166353E-1],"split_indices":[12,10,12,20,19,10,12,13,2,10,13,12,12,13,13,0,0,0,0,0,0,0,0,0,0,0,0,0,0,0,0],"split_type":[0,0,0,0,0,0,0,0,0,0,0,0,0,0,0,0,0,0,0,0,0,0,0,0,0,0,0,0,0,0,0],"sum_hessian":[3.73E2,2.11E2,1.62E2,1.28E2,8.3E1,7.6E1,8.6E1,8E1,4.8E1,5.1E1,3.2E1,4E1,3.6E1,5.5E1,3.1E1,5.7E1,2.3E1,8E0,4E1,1.1E1,4E1,1.7E1,1.5E1,1.5E1,2.5E1,2.9E1,7E0,4.5E1,1E1,1.8E1,1.3E1],"tree_param":{"num_deleted":"0","num_feature":"28","num_nodes":"31","size_leaf_vector":"1"}},{"base_weights":[9.4643265E-1,-1.5301873E1,2.2433455E1,-2.078056E1,-1.29562235E1,5.1942757E1,1.36142E1,-4.9109006E-1,-2.1583632E1,-1.5788286E1,-7.828912E0,8.643223E-1,5.45695E1,9.650229E0,3.776306E1,-1.140151E0,-6.3410205E-1,-8.871878E-1,-4.026322E-1,-1.6883837E-1,-5.713237E-1,2.8859372E0,1.2694995E0,8.418202E-1,1.14267424E-1,2.4551876E0,1.3556626E0],"categories":[],"categories_nodes":[],"categories_segments":[],"categories_sizes":[],"default_left":[0,0,0,0,0,0,0,0,0,0,0,0,0,0,0,0,0,0,0,0,0,0,0,0,0,0,0],"id":36,"left_children":[1,3,5,7,9,11,13,-1,15,17,19,-1,21,23,25,-1,-1,-1,-1,-1,-1,-1,-1,-1,-1,-1,-1],"loss_changes":[1.28124016E5,2.4166406E3,4.0412344E4,3.2485156E2,2.040002E3,2.3338828E3,1.1409799E4,0E0,3.186621E2,1.2941621E3,8.42343E2,0E0,1.5670078E3,5.6245312E3,7.2183203E2,0E0,0E0,0E0,0E0,0E0,0E0,0E0,0E0,0E0,0E0,0E0,0E0],"parents":[2147483647,0,0,1,1,2,2,3,3,4,4,5,5,6,6,8,8,9,9,10,10,12,12,13,13,14,14],"right_children":[2,4,6,8,10,12,14,-1,16,18,20,-1,22,24,26,-1,-1,-1,-1,-1,-1,-1,-1,-1,-1,-1,-1],"split_conditions":[7.6548076E3,7.256592E-1,1.0443051E4,4.7E-3,1E0,6.696655E-2,1.0540276E0,-4.9109006E-1,2.095132E-1,1.04857E0,7.997E2,8.643223E-1,1.5687E0,1.4028596E4,1.2667872E4,-1.140151E0,-6.3410205E-1,-8.871878E-1,-4.026322E-1,-1.6883837E-1,-5.713237E-1,2.8859372E0,1.2694995E0,8.418202E-1,1.14267424E-1,2.4551876E0,1.3556626E0],"split_indices":[12,9,12,4,19,13,9,0,13,9,14,0,6,12,12,0,0,0,0,0,0,0,0,0,0,0,0],"split_type":[0,0,0,0,0,0,0,0,0,0,0,0,0,0,0,0,0,0,0,0,0,0,0,0,0,0,0],"sum_hessian":[3.65E2,2.08E2,1.57E2,6E1,1.48E2,3.5E1,1.22E2,5E0,5.5E1,9.4E1,5.4E1,3E0,3.2E1,1.06E2,1.6E1,4.7E1,8E0,7.4E1,2E1,2.5E1,2.9E1,2.8E1,4E0,5.3E1,5.3E1,6E0,1E1],"tree_param":{"num_deleted":"0","num_feature":"28","num_nodes":"27","size_leaf_vector":"1"}},{"base_weights":[5.442664E-1,-1.4788978E1,1.977887E1,-1.0784518E1,-1.8313917E1,3.6900276E1,9.513542E0,-7.4387E0,-1.4988833E1,-1.5561323E1,-2.2137838E1,2.6346369E1,5.393219E1,4.166902E0,1.8408754E1,2.5086346E-1,-4.1192102E-1,-5.1334316E-1,-8.2676965E-1,-1.4354591E-1,-8.064535E-1,-1.1500883E0,-4.0900403E-1,1.6594725E0,9.7749615E-1,4.054827E0,2.1695154E0,-3.0741116E-1,3.309203E-1,1.1454473E0,2.6401007E-1],"categories":[],"categories_nodes":[],"categories_segments":[],"categories_sizes":[],"default_left":[0,0,0,0,0,0,0,0,0,0,0,0,0,0,0,0,0,0,0,0,0,0,0,0,0,0,0,0,0,0,0],"id":37,"left_children":[1,3,5,7,9,11,13,15,17,19,21,23,25,27,29,-1,-1,-1,-1,-1,-1,-1,-1,-1,-1,-1,-1,-1,-1,-1,-1],"loss_changes":[1.0705675E5,2.6538203E3,2.7945805E4,1.2529893E3,7.7123047E2,9.364273E3,4.7743613E3,5.991665E2,1.3695117E2,4.2201465E2,3.1829883E2,1.1649883E3,2.7811914E3,1.6843837E3,2.1241133E3,0E0,0E0,0E0,0E0,0E0,0E0,0E0,0E0,0E0,0E0,0E0,0E0,0E0,0E0,0E0,0E0],"parents":[2147483647,0,0,1,1,2,2,3,3,4,4,5,5,6,6,7,7,8,8,9,9,10,10,11,11,12,12,13,13,14,14],"right_children":[2,4,6,8,10,12,14,16,18,20,22,24,26,28,30,-1,-1,-1,-1,-1,-1,-1,-1,-1,-1,-1,-1,-1,-1,-1,-1],"split_conditions":[7.6548076E3,7.651197E2,1.2100738E4,1E0,1E0,9.321125E-1,9.0869E-1,1.66E1,7.227326E2,3.243E-1,7.622E-1,1.009734E4,8.9E-3,8.1E-3,1.590294E4,2.5086346E-1,-4.1192102E-1,-5.1334316E-1,-8.2676965E-1,-1.4354591E-1,-8.064535E-1,-1.1500883E0,-4.0900403E-1,1.6594725E0,9.7749615E-1,4.054827E0,2.1695154E0,-3.0741116E-1,3.309203E-1,1.1454473E0,2.6401007E-1],"split_indices":[12,10,12,26,26,9,9,15,10,2,1,12,4,4,12,0,0,0,0,0,0,0,0,0,0,0,0,0,0,0,0],"split_type":[0,0,0,0,0,0,0,0,0,0,0,0,0,0,0,0,0,0,0,0,0,0,0,0,0,0,0,0,0,0,0],"sum_hessian":[3.61E2,2.01E2,1.6E2,9.6E1,1.05E2,5.9E1,1.01E2,5.5E1,4.1E1,6.4E1,4.1E1,3.8E1,2.1E1,6.4E1,3.7E1,3E0,5.2E1,1.2E1,2.9E1,3E0,6.1E1,3.8E1,3E0,1.7E1,2.1E1,4E0,1.7E1,1.2E1,5.2E1,2.7E1,1E1],"tree_param":{"num_deleted":"0","num_feature":"28","num_nodes":"31","size_leaf_vector":"1"}},{"base_weights":[7.76064E-1,-1.4022946E1,2.0037819E1,-1.7372955E1,-7.8952904E0,3.2952747E1,7.508524E0,-2.0793604E1,-1.4093043E1,-1.0471567E1,-3.196841E0,2.0113813E1,4.6636055E1,2.431368E0,1.8350422E1,-1.249312E0,-9.207639E-1,-7.2876483E-1,-2.4061227E-1,-5.550871E-1,-3.821049E-2,-2.8423056E-2,-3.6036023E-1,7.3652893E-1,1.6172179E0,3.5542285E0,1.8720223E0,1.994769E-2,6.6132915E-1,4.416336E-1,1.7673495E0],"categories":[],"categories_nodes":[],"categories_segments":[],"categories_sizes":[],"default_left":[0,0,0,0,0,0,0,0,0,0,0,0,0,0,0,0,0,0,0,0,0,0,0,0,0,0,0,0,0,0,0],"id":38,"left_children":[1,3,5,7,9,11,13,15,17,19,21,23,25,27,29,-1,-1,-1,-1,-1,-1,-1,-1,-1,-1,-1,-1,-1,-1,-1,-1],"loss_changes":[1.0432603E5,4.1120703E3,2.5481152E4,1.1991367E3,8.743618E2,1.27649375E4,4.4691562E3,1.6807422E2,2.4763379E2,2.8514795E2,2.9104422E2,2.2888242E3,5.656867E3,1.2453231E3,3.893788E3,0E0,0E0,0E0,0E0,0E0,0E0,0E0,0E0,0E0,0E0,0E0,0E0,0E0,0E0,0E0,0E0],"parents":[2147483647,0,0,1,1,2,2,3,3,4,4,5,5,6,6,7,7,8,8,9,9,10,10,11,11,12,12,13,13,14,14],"right_children":[2,4,6,8,10,12,14,16,18,20,22,24,26,28,30,-1,-1,-1,-1,-1,-1,-1,-1,-1,-1,-1,-1,-1,-1,-1,-1],"split_conditions":[7.6548076E3,4.101E-1,1.3061065E4,2.165E-1,1E0,3.593E-1,1E0,1.338E-1,8.107363E2,7.7552405E2,2.49E-2,6.456E-1,9.213715E3,5.011E-1,4.283E-1,-1.249312E0,-9.207639E-1,-7.2876483E-1,-2.4061227E-1,-5.550871E-1,-3.821049E-2,-2.8423056E-2,-3.6036023E-1,7.3652893E-1,1.6172179E0,3.5542285E0,1.8720223E0,1.994769E-2,6.6132915E-1,4.416336E-1,1.7673495E0],"split_indices":[12,0,12,0,19,0,22,0,10,10,3,1,12,0,0,0,0,0,0,0,0,0,0,0,0,0,0,0,0,0,0],"split_type":[0,0,0,0,0,0,0,0,0,0,0,0,0,0,0,0,0,0,0,0,0,0,0,0,0,0,0,0,0,0,0],"sum_hessian":[3.64E2,2.06E2,1.58E2,1.32E2,7.4E1,7.7E1,8.1E1,6.2E1,7E1,4.7E1,2.7E1,4.1E1,3.6E1,5.6E1,2.5E1,1.9E1,4.3E1,6.6E1,4E0,4.4E1,3E0,1.7E1,1E1,3E1,1.1E1,8E0,2.8E1,4.8E1,8E0,1.7E1,8E0],"tree_param":{"num_deleted":"0","num_feature":"28","num_nodes":"31","size_leaf_vector":"1"}},{"base_weights":[3.0854416E-1,-1.3293195E1,1.8114054E1,-1.7871162E1,-8.93956E0,3.390176E1,8.551415E0,-8.589517E0,-1.9094856E1,-5.961557E0,-1.3193718E1,1.569597E1,4.1901974E1,4.729496E0,2.0476225E1,-5.996381E-1,-1.979599E-1,-1.0246142E0,-7.488618E-1,-4.0099874E-1,-3.8629472E-2,-8.341343E-1,-5.318762E-1,-6.596184E-2,9.4843864E-1,1.0818732E0,2.2829332E0,4.1187498E-1,-1.4610364E-1,1.3901193E0,4.085988E-1],"categories":[],"categories_nodes":[],"categories_segments":[],"categories_sizes":[],"default_left":[0,0,0,0,0,0,0,0,0,0,0,0,0,0,0,0,0,0,0,0,0,0,0,0,0,0,0,0,0,0,0],"id":39,"left_children":[1,3,5,7,9,11,13,15,17,19,21,23,25,27,29,-1,-1,-1,-1,-1,-1,-1,-1,-1,-1,-1,-1,-1,-1,-1,-1],"loss_changes":[8.500586E4,3.8064688E3,2.2657855E4,9.2633984E2,1.2389111E3,7.6443633E3,4.2784214E3,1.5737372E2,1.7642578E2,6.6671094E2,1.9711328E2,1.083085E3,1.9810391E3,2.0103583E3,1.8460859E3,0E0,0E0,0E0,0E0,0E0,0E0,0E0,0E0,0E0,0E0,0E0,0E0,0E0,0E0,0E0,0E0],"parents":[2147483647,0,0,1,1,2,2,3,3,4,4,5,5,6,6,7,7,8,8,9,9,10,10,11,11,12,12,13,13,14,14],"right_children":[2,4,6,8,10,12,14,16,18,20,22,24,26,28,30,-1,-1,-1,-1,-1,-1,-1,-1,-1,-1,-1,-1,-1,-1,-1,-1],"split_conditions":[1.513E2,3.015E-1,4.006E2,2.54E1,1E0,2.387E-1,4.744E-1,1.838E-1,2.357E-1,5.176E-1,4.222E-1,4.9623084E-1,1.4266098E-1,5.771E2,5.934E2,-5.996381E-1,-1.979599E-1,-1.0246142E0,-7.488618E-1,-4.0099874E-1,-3.8629472E-2,-8.341343E-1,-5.318762E-1,-6.596184E-2,9.4843864E-1,1.0818732E0,2.2829332E0,4.1187498E-1,-1.4610364E-1,1.3901193E0,4.085988E-1],"split_indices":[16,0,16,15,20,0,0,0,0,0,0,9,13,16,16,0,0,0,0,0,0,0,0,0,0,0,0,0,0,0,0],"split_type":[0,0,0,0,0,0,0,0,0,0,0,0,0,0,0,0,0,0,0,0,0,0,0,0,0,0,0,0,0,0,0],"sum_hessian":[3.49E2,1.98E2,1.51E2,9.5E1,1.03E2,5.6E1,9.5E1,1.2E1,8.3E1,6.2E1,4.1E1,1.8E1,3.8E1,7.3E1,2.2E1,6E0,6E0,5.9E1,2.4E1,4.4E1,1.8E1,1.5E1,2.6E1,3E0,1.5E1,7E0,3.1E1,5E1,2.3E1,1.3E1,9E0],"tree_param":{"num_deleted":"0","num_feature":"28","num_nodes":"31","size_leaf_vector":"1"}},{"base_weights":[6.410625E-1,-1.223687E1,1.7752113E1,-1.6540472E1,-7.3253436E0,9.358831E0,2.9229599E1,-1.0657004E0,-1.3464306E1,-1.103562E1,-4.345572E0,4.028747E0,1.605397E1,2.065986E1,4.3008743E1,-7.225013E-1,-3.1017786E-1,-6.0100234E-1,-2.6131222E-1,-3.2094768E-1,-1.4626885E-2,-6.341981E-2,5.6548893E-1,5.82318E-1,1.4056082E0,6.3337266E-1,1.979263E0,1.1465557E0,2.3542717E0],"categories":[],"categories_nodes":[],"categories_segments":[],"categories_sizes":[],"default_left":[0,0,0,0,0,0,0,0,0,0,0,0,0,0,0,0,0,0,0,0,0,0,0,0,0,0,0,0,0],"id":40,"left_children":[1,3,5,7,9,11,13,-1,15,17,19,21,23,25,27,-1,-1,-1,-1,-1,-1,-1,-1,-1,-1,-1,-1,-1,-1],"loss_changes":[7.9545016E4,4.2331133E3,1.465818E4,1.3135977E3,1.0355098E3,3.1827173E3,6.786883E3,0E0,4.0419434E2,1.8309277E2,4.6871753E2,2.019916E3,1.7985088E3,5.851453E3,8.846836E2,0E0,0E0,0E0,0E0,0E0,0E0,0E0,0E0,0E0,0E0,0E0,0E0,0E0,0E0],"parents":[2147483647,0,0,1,1,2,2,3,3,4,4,5,5,6,6,8,8,9,9,10,10,11,11,12,12,13,13,14,14],"right_children":[2,4,6,8,10,12,14,-1,16,18,20,22,24,26,28,-1,-1,-1,-1,-1,-1,-1,-1,-1,-1,-1,-1,-1,-1],"split_conditions":[3.02E1,3.478E-1,3.757E-1,1E0,1E0,5.04E-1,1E0,-1.0657004E0,7.289E-1,5.553E-1,5.176E-1,2.1795204E-1,3.106E-1,5.533E-1,3.899E-1,-7.225013E-1,-3.1017786E-1,-6.0100234E-1,-2.6131222E-1,-3.2094768E-1,-1.4626885E-2,-6.341981E-2,5.6548893E-1,5.82318E-1,1.4056082E0,6.3337266E-1,1.979263E0,1.1465557E0,2.3542717E0],"split_indices":[17,0,0,25,25,1,22,0,1,0,0,13,0,0,0,0,0,0,0,0,0,0,0,0,0,0,0,0,0],"split_type":[0,0,0,0,0,0,0,0,0,0,0,0,0,0,0,0,0,0,0,0,0,0,0,0,0,0,0,0,0],"sum_hessian":[3.59E2,2.05E2,1.54E2,1.08E2,9.7E1,9E1,6.4E1,4E1,6.8E1,4.2E1,5.5E1,5.1E1,3.9E1,4.1E1,2.3E1,5.9E1,9E0,3.5E1,7E0,3.6E1,1.9E1,3E1,2.1E1,3E1,9E0,3E1,1.1E1,5E0,1.8E1],"tree_param":{"num_deleted":"0","num_feature":"28","num_nodes":"29","size_leaf_vector":"1"}},{"base_weights":[5.6356746E-1,-1.2283527E1,1.6313198E1,-8.874503E0,-1.53547325E1,4.520481E1,1.1650046E1,-1.4348836E0,-1.0274491E1,-1.7451199E1,-1.1694698E1,1.4036158E0,6.1342773E1,2.0134447E1,5.664827E0,-2.803956E-1,1.980381E-1,-5.5248207E-1,-1.29359E-1,-5.8194214E-1,-9.0823746E-1,-3.7525544E-1,-6.872141E-1,3.5279586E0,1.378714E0,6.4182097E-1,1.527332E0,5.942163E-2,7.065181E-1],"categories":[],"categories_nodes":[],"categories_segments":[],"categories_sizes":[],"default_left":[0,0,0,0,0,0,0,0,0,0,0,0,0,0,0,0,0,0,0,0,0,0,0,0,0,0,0,0,0],"id":41,"left_children":[1,3,5,7,9,11,13,15,17,19,21,-1,23,25,27,-1,-1,-1,-1,-1,-1,-1,-1,-1,-1,-1,-1,-1,-1],"loss_changes":[7.5672086E4,2.0205156E3,2.2107336E4,1.0267949E3,6.1693945E2,4.637086E3,7.2999688E3,4.049867E2,4.7195215E2,6.23125E1,2.5749805E2,0E0,1.4778438E3,4.1671973E3,3.2800781E3,0E0,0E0,0E0,0E0,0E0,0E0,0E0,0E0,0E0,0E0,0E0,0E0,0E0,0E0],"parents":[2147483647,0,0,1,1,2,2,3,3,4,4,5,5,6,6,7,7,8,8,9,9,10,10,12,12,13,13,14,14],"right_children":[2,4,6,8,10,12,14,16,18,20,22,-1,24,26,28,-1,-1,-1,-1,-1,-1,-1,-1,-1,-1,-1,-1,-1,-1],"split_conditions":[1.513E2,7.696586E2,2.61E2,2.96E1,2.1795204E-1,8.8151336E-1,4.654E2,4.989E-1,7.452836E-1,2.54E1,5.695E-1,1.4036158E0,1.49E-2,9.2164665E-1,1E0,-2.803956E-1,1.980381E-1,-5.5248207E-1,-1.29359E-1,-5.8194214E-1,-9.0823746E-1,-3.7525544E-1,-6.872141E-1,3.5279586E0,1.378714E0,6.4182097E-1,1.527332E0,5.942163E-2,7.065181E-1],"split_indices":[16,10,16,15,13,9,16,1,13,15,2,0,4,9,22,0,0,0,0,0,0,0,0,0,0,0,0,0,0],"split_type":[0,0,0,0,0,0,0,0,0,0,0,0,0,0,0,0,0,0,0,0,0,0,0,0,0,0,0,0,0],"sum_hessian":[3.72E2,2.05E2,1.67E2,9.9E1,1.06E2,2.2E1,1.45E2,1.6E1,8.3E1,6.5E1,4.1E1,1.2E1,1E1,5.9E1,8.6E1,9E0,7E0,7.5E1,8E0,9E0,5.6E1,1.5E1,2.6E1,7E0,3E0,3.6E1,2.3E1,5.7E1,2.9E1],"tree_param":{"num_deleted":"0","num_feature":"28","num_nodes":"29","size_leaf_vector":"1"}},{"base_weights":[3.3028334E-2,-1.1300802E1,1.6848364E1,-1.5929323E1,-7.7246795E0,3.96399E1,1.0967177E1,-1.8282366E1,-1.1555865E1,-1.1312303E1,-5.414731E0,2.6993689E1,5.7413593E1,7.4464087E0,2.7713463E1,-1.0063089E0,-7.140425E-1,-8.622015E-1,-4.5558342E-1,-6.6680616E-1,-3.8048837E-1,-3.4296665E-1,-1.6987449E-2,4.6954498E-1,1.4773829E0,1.3307709E0,3.236119E0,1.24451995E-1,9.1838944E-1,1.6312697E0,7.8267E-1],"categories":[],"categories_nodes":[],"categories_segments":[],"categories_sizes":[],"default_left":[0,0,0,0,0,0,0,0,0,0,0,0,0,0,0,0,0,0,0,0,0,0,0,0,0,0,0,0,0,0,0],"id":42,"left_children":[1,3,5,7,9,11,13,15,17,19,21,23,25,27,29,-1,-1,-1,-1,-1,-1,-1,-1,-1,-1,-1,-1,-1,-1,-1,-1],"loss_changes":[7.242104E4,3.634291E3,2.0073578E4,7.972422E2,1.01608594E3,5.4180586E3,7.0456904E3,1.7001953E2,3.5728857E2,2.731787E2,5.9150684E2,6.2166016E2,9.785625E2,5.5308374E3,7.3330273E2,0E0,0E0,0E0,0E0,0E0,0E0,0E0,0E0,0E0,0E0,0E0,0E0,0E0,0E0,0E0,0E0],"parents":[2147483647,0,0,1,1,2,2,3,3,4,4,5,5,6,6,7,7,8,8,9,9,10,10,11,11,12,12,13,13,14,14],"right_children":[2,4,6,8,10,12,14,16,18,20,22,24,26,28,30,-1,-1,-1,-1,-1,-1,-1,-1,-1,-1,-1,-1,-1,-1,-1,-1],"split_conditions":[7.6548076E3,2.801E-1,1.0137835E4,1E0,1E0,4.159E-1,5.011E-1,2.165E-1,6.058883E-1,4.91E-1,5.197E-1,2.023E-1,8.7622666E-1,1E0,1E0,-1.0063089E0,-7.140425E-1,-8.622015E-1,-4.5558342E-1,-6.6680616E-1,-3.8048837E-1,-3.4296665E-1,-1.6987449E-2,4.6954498E-1,1.4773829E0,1.3307709E0,3.236119E0,1.24451995E-1,9.1838944E-1,1.6312697E0,7.8267E-1],"split_indices":[12,0,12,19,25,0,0,0,9,0,0,1,9,22,27,0,0,0,0,0,0,0,0,0,0,0,0,0,0,0,0],"split_type":[0,0,0,0,0,0,0,0,0,0,0,0,0,0,0,0,0,0,0,0,0,0,0,0,0,0,0,0,0,0,0],"sum_hessian":[3.78E2,2.26E2,1.52E2,9.7E1,1.29E2,3E1,1.22E2,6.1E1,3.6E1,4.9E1,8E1,1.9E1,1.1E1,1.02E2,2E1,3.9E1,2.2E1,9E0,2.7E1,3E1,1.9E1,6.2E1,1.8E1,3E0,1.6E1,3E0,8E0,7.1E1,3.1E1,1.3E1,7E0],"tree_param":{"num_deleted":"0","num_feature":"28","num_nodes":"31","size_leaf_vector":"1"}},{"base_weights":[4.9317947E-1,-1.0740175E1,1.5714087E1,-8.294047E0,-1.448915E1,2.5575687E1,5.2485013E0,-8.752867E0,2.325856E-1,-1.8773232E-1,-1.4858616E1,1.6863674E1,3.3026436E1,8.009599E-1,1.2685411E1,-5.6144434E-1,-3.4807992E-1,-6.50703E-1,-8.731457E-1,2.0976882E-1,1.0325273E0,2.4114242E0,1.3621861E0,-1.1636813E-1,2.8491303E-1,1.0583012E0,2.9764482E-1],"categories":[],"categories_nodes":[],"categories_segments":[],"categories_sizes":[],"default_left":[0,0,0,0,0,0,0,0,0,0,0,0,0,0,0,0,0,0,0,0,0,0,0,0,0,0,0],"id":43,"left_children":[1,3,5,7,9,11,13,15,-1,-1,17,19,21,23,25,-1,-1,-1,-1,-1,-1,-1,-1,-1,-1,-1,-1],"loss_changes":[6.1209293E4,1.7689434E3,1.5553293E4,7.950654E2,2.6149414E2,4.5061133E3,2.470537E3,4.6736035E2,0E0,0E0,1.4262695E2,1.7363457E3,2.2903477E3,7.486381E2,1.4726846E3,0E0,0E0,0E0,0E0,0E0,0E0,0E0,0E0,0E0,0E0,0E0,0E0],"parents":[2147483647,0,0,1,1,2,2,3,3,4,4,5,5,6,6,7,7,10,10,11,11,12,12,13,13,14,14],"right_children":[2,4,6,8,10,12,14,16,-1,-1,18,20,22,24,26,-1,-1,-1,-1,-1,-1,-1,-1,-1,-1,-1,-1],"split_conditions":[1.513E2,7.831776E2,4.623E2,8.7798107E-1,6.4E-2,2.6676077E-1,1E0,1E0,2.325856E-1,-1.8773232E-1,1.189E0,6.9E-2,1.0149E0,5.007E-1,7.517252E2,-5.6144434E-1,-3.4807992E-1,-6.50703E-1,-8.731457E-1,2.0976882E-1,1.0325273E0,2.4114242E0,1.3621861E0,-1.1636813E-1,2.8491303E-1,1.0583012E0,2.9764482E-1],"split_indices":[16,10,16,13,5,13,22,25,0,0,6,8,6,1,10,0,0,0,0,0,0,0,0,0,0,0,0],"split_type":[0,0,0,0,0,0,0,0,0,0,0,0,0,0,0,0,0,0,0,0,0,0,0,0,0,0,0],"sum_hessian":[3.56E2,2.05E2,1.51E2,1.26E2,7.9E1,7.7E1,7.4E1,1.22E2,4E0,3E0,7.6E1,3.7E1,4E1,4.7E1,2.7E1,4.9E1,7.3E1,4.8E1,2.8E1,9E0,2.8E1,9E0,3.1E1,2.9E1,1.8E1,1.1E1,1.6E1],"tree_param":{"num_deleted":"0","num_feature":"28","num_nodes":"27","size_leaf_vector":"1"}},{"base_weights":[5.085053E-1,-1.0093537E1,1.57778225E1,-1.3039392E1,-4.6625605E0,5.896627E0,2.37082E1,-1.0029704E1,-8.62836E-1,-6.8346977E0,-1.0563233E0,-8.245657E0,7.745621E0,1.5228665E1,3.3933083E1,-5.626298E-1,-1.7304431E-1,-4.060257E-1,1.4399624E-2,2.530683E-2,-3.5650548E-1,-8.513661E-2,-5.915433E-1,2.754147E-1,7.1918845E-1,5.356293E-1,1.9107077E0,1.3681489E0,2.3811023E0],"categories":[],"categories_nodes":[],"categories_segments":[],"categories_sizes":[],"default_left":[0,0,0,0,0,0,0,0,0,0,0,0,0,0,0,0,0,0,0,0,0,0,0,0,0,0,0,0,0],"id":44,"left_children":[1,3,5,7,9,11,13,15,-1,17,19,21,23,25,27,-1,-1,-1,-1,-1,-1,-1,-1,-1,-1,-1,-1,-1,-1],"loss_changes":[5.649557E4,3.2349688E3,1.106591E4,1.5150703E3,5.7244006E2,1.7635525E3,6.3327227E3,6.036924E2,0E0,4.2362842E2,2.7882016E2,1.6751715E2,7.8216895E2,4.2618203E3,1.8447422E3,0E0,0E0,0E0,0E0,0E0,0E0,0E0,0E0,0E0,0E0,0E0,0E0,0E0,0E0],"parents":[2147483647,0,0,1,1,2,2,3,3,4,4,5,5,6,6,7,7,9,9,10,10,11,11,12,12,13,13,14,14],"right_children":[2,4,6,8,10,12,14,16,-1,18,20,22,24,26,28,-1,-1,-1,-1,-1,-1,-1,-1,-1,-1,-1,-1,-1,-1],"split_conditions":[3.02E1,4.222E-1,3.106E-1,1E0,1E0,7.7E-3,1E0,3.262E-1,-8.62836E-1,5.768E-1,1.5031E0,2.6E-1,1E0,5.709E-1,4.85E-1,-5.626298E-1,-1.7304431E-1,-4.060257E-1,1.4399624E-2,2.530683E-2,-3.5650548E-1,-8.513661E-2,-5.915433E-1,2.754147E-1,7.1918845E-1,5.356293E-1,1.9107077E0,1.3681489E0,2.3811023E0],"split_indices":[17,0,0,20,19,4,22,0,0,0,2,7,22,0,0,0,0,0,0,0,0,0,0,0,0,0,0,0,0],"split_type":[0,0,0,0,0,0,0,0,0,0,0,0,0,0,0,0,0,0,0,0,0,0,0,0,0,0,0,0,0],"sum_hessian":[3.47E2,2.05E2,1.42E2,1.32E2,7.3E1,6.4E1,7.8E1,7.9E1,5.3E1,4.5E1,2.8E1,7E0,5.7E1,4.4E1,3.4E1,6.6E1,1.3E1,3.8E1,7E0,2.3E1,5E0,3E0,4E0,4.4E1,1.3E1,3.8E1,6E0,2.5E1,9E0],"tree_param":{"num_deleted":"0","num_feature":"28","num_nodes":"29","size_leaf_vector":"1"}},{"base_weights":[6.662156E-1,-9.731033E0,1.4914986E1,-1.3049994E1,-5.522306E0,2.6373594E1,4.4157996E0,-9.622032E-1,-1.1461489E1,-3.1711414E0,-9.509E0,1.5579468E1,3.73394E1,-1.23658076E-1,1.3331166E1,-6.769213E-1,-3.9479885E-1,1.3908096E-1,-2.2086631E-1,2.4123002E-2,-5.24574E-1,1.2466167E0,5.151912E-1,2.6187465E0,1.5060186E0,-4.1431642E-1,1.3333057E-1,1.0068299E0,8.0087975E-2],"categories":[],"categories_nodes":[],"categories_segments":[],"categories_sizes":[],"default_left":[0,0,0,0,0,0,0,0,0,0,0,0,0,0,0,0,0,0,0,0,0,0,0,0,0,0,0,0,0],"id":45,"left_children":[1,3,5,7,9,11,13,-1,15,17,19,21,23,25,27,-1,-1,-1,-1,-1,-1,-1,-1,-1,-1,-1,-1,-1,-1],"loss_changes":[5.303397E4,2.8194336E3,1.8049758E4,9.1095703E2,8.4156934E2,7.9406406E3,3.2393228E3,0E0,5.8920215E2,4.5738153E2,3.388191E2,1.6181133E3,2.221414E3,1.2520029E3,2.1229854E3,0E0,0E0,0E0,0E0,0E0,0E0,0E0,0E0,0E0,0E0,0E0,0E0,0E0,0E0],"parents":[2147483647,0,0,1,1,2,2,3,3,4,4,5,5,6,6,8,8,9,9,10,10,11,11,12,12,13,13,14,14],"right_children":[2,4,6,8,10,12,14,-1,16,18,20,22,24,26,28,-1,-1,-1,-1,-1,-1,-1,-1,-1,-1,-1,-1,-1,-1],"split_conditions":[7.6548076E3,3.478E-1,1.3061065E4,1.36E-1,1E0,3.593E-1,4.242E-1,-9.622032E-1,1E0,2.48E1,7.753825E-1,1.0137835E4,2.353E2,8.1E-3,1.5747845E4,-6.769213E-1,-3.9479885E-1,1.3908096E-1,-2.2086631E-1,2.4123002E-2,-5.24574E-1,1.2466167E0,5.151912E-1,2.6187465E0,1.5060186E0,-4.1431642E-1,1.3333057E-1,1.0068299E0,8.0087975E-2],"split_indices":[12,0,12,0,20,0,0,0,19,15,9,12,16,4,12,0,0,0,0,0,0,0,0,0,0,0,0,0,0],"split_type":[0,0,0,0,0,0,0,0,0,0,0,0,0,0,0,0,0,0,0,0,0,0,0,0,0,0,0,0,0],"sum_hessian":[3.56E2,2.06E2,1.5E2,1.14E2,9.2E1,7.1E1,7.9E1,2.1E1,9.3E1,5.9E1,3.3E1,3.7E1,3.4E1,5.3E1,2.6E1,5.7E1,3.6E1,1E1,4.9E1,3E0,3E1,1.2E1,2.5E1,9E0,2.5E1,1.3E1,4E1,1.6E1,1E1],"tree_param":{"num_deleted":"0","num_feature":"28","num_nodes":"29","size_leaf_vector":"1"}},{"base_weights":[3.7489262E-1,-8.969159E0,1.3045421E1,-1.0793025E1,-2.9743352E0,2.3691816E1,4.2860274E0,-8.2940483E-1,-9.839338E0,-4.304853E0,2.3762167E0,1.4884765E1,3.699987E1,-1.3824305E-1,1.217108E1,-6.285827E-1,-3.9366463E-1,-3.3554873E-1,-1.2830241E-1,4.2816302E-1,-1.1912798E-1,2.5281325E-1,9.152772E-1,2.3221643E0,1.1265533E0,-3.404024E-1,9.699397E-2,1.6134644E-2,7.446456E-1],"categories":[],"categories_nodes":[],"categories_segments":[],"categories_sizes":[],"default_left":[0,0,0,0,0,0,0,0,0,0,0,0,0,0,0,0,0,0,0,0,0,0,0,0,0,0,0,0,0],"id":46,"left_children":[1,3,5,7,9,11,13,-1,15,17,19,21,23,25,27,-1,-1,-1,-1,-1,-1,-1,-1,-1,-1,-1,-1,-1,-1],"loss_changes":[4.4633176E4,2.3405254E3,1.4819414E4,7.542129E2,3.8041748E2,7.888E3,3.106501E3,0E0,6.799385E2,1.5849786E2,3.4427277E2,1.4203936E3,2.7793633E3,8.171257E2,1.0271724E3,0E0,0E0,0E0,0E0,0E0,0E0,0E0,0E0,0E0,0E0,0E0,0E0,0E0,0E0],"parents":[2147483647,0,0,1,1,2,2,3,3,4,4,5,5,6,6,8,8,9,9,10,10,11,11,12,12,13,13,14,14],"right_children":[2,4,6,8,10,12,14,-1,16,18,20,22,24,26,28,-1,-1,-1,-1,-1,-1,-1,-1,-1,-1,-1,-1,-1,-1],"split_conditions":[7.6548076E3,4.843E-1,1.3061065E4,1.466E-1,3.622E-1,3.939E-1,4.242E-1,-8.2940483E-1,1E0,4.083E-1,3.945E-1,2.946E-1,1.56E-2,8.1E-3,7.697E2,-6.285827E-1,-3.9366463E-1,-3.3554873E-1,-1.2830241E-1,4.2816302E-1,-1.1912798E-1,2.5281325E-1,9.152772E-1,2.3221643E0,1.1265533E0,-3.404024E-1,9.699397E-2,1.6134644E-2,7.446456E-1],"split_indices":[12,0,12,0,7,0,0,0,25,1,7,1,4,4,14,0,0,0,0,0,0,0,0,0,0,0,0,0,0],"split_type":[0,0,0,0,0,0,0,0,0,0,0,0,0,0,0,0,0,0,0,0,0,0,0,0,0,0,0,0,0],"sum_hessian":[3.75E2,2.16E2,1.59E2,1.65E2,5.1E1,7.1E1,8.8E1,2.1E1,1.44E2,4.1E1,1E1,4.4E1,2.7E1,5.7E1,3.1E1,5.8E1,8.6E1,1.6E1,2.5E1,4E0,6E0,1.2E1,3.2E1,1.5E1,1.2E1,1.3E1,4.4E1,6E0,2.5E1],"tree_param":{"num_deleted":"0","num_feature":"28","num_nodes":"29","size_leaf_vector":"1"}},{"base_weights":[-7.844166E-2,-9.166673E0,1.2821488E1,-1.1634228E1,-4.525299E0,2.2524443E1,4.352033E0,-8.689036E-1,-1.0446273E1,-2.3057494E0,-7.9997196E0,1.3057994E1,3.331637E1,4.446264E-1,1.2584536E1,-4.3273053E-1,-6.5415233E-1,-2.504325E-1,1.3895916E-2,-4.4314763E-1,-8.648491E-3,4.0239492E-1,1.1422255E0,2.2579112E0,1.2671398E0,9.997205E-2,-4.1213176E-1,-5.267639E-1,7.9567415E-1],"categories":[],"categories_nodes":[],"categories_segments":[],"categories_sizes":[],"default_left":[0,0,0,0,0,0,0,0,0,0,0,0,0,0,0,0,0,0,0,0,0,0,0,0,0,0,0,0,0],"id":47,"left_children":[1,3,5,7,9,11,13,-1,15,17,19,21,23,25,27,-1,-1,-1,-1,-1,-1,-1,-1,-1,-1,-1,-1,-1,-1],"loss_changes":[4.396437E4,2.4669785E3,1.2639676E4,7.942129E2,5.8306335E2,6.9205625E3,2.6964944E3,0E0,4.5840137E2,3.435784E2,2.01156E2,1.7774053E3,1.9714883E3,7.998913E2,2.2456982E3,0E0,0E0,0E0,0E0,0E0,0E0,0E0,0E0,0E0,0E0,0E0,0E0,0E0,0E0],"parents":[2147483647,0,0,1,1,2,2,3,3,4,4,5,5,6,6,8,8,9,9,10,10,11,11,12,12,13,13,14,14],"right_children":[2,4,6,8,10,12,14,-1,16,18,20,22,24,26,28,-1,-1,-1,-1,-1,-1,-1,-1,-1,-1,-1,-1,-1,-1],"split_conditions":[7.6548076E3,4.101E-1,1.3061065E4,1.36E-1,1E0,3.507E-1,1E0,-8.689036E-1,1E0,4.96E-1,7.724391E2,5.976E-1,9.392452E3,1.672403E4,1.533E-1,-4.3273053E-1,-6.5415233E-1,-2.504325E-1,1.3895916E-2,-4.4314763E-1,-8.648491E-3,4.0239492E-1,1.1422255E0,2.2579112E0,1.2671398E0,9.997205E-2,-4.1213176E-1,-5.267639E-1,7.9567415E-1],"split_indices":[12,0,12,0,20,0,22,0,20,1,10,1,12,12,0,0,0,0,0,0,0,0,0,0,0,0,0,0,0],"split_type":[0,0,0,0,0,0,0,0,0,0,0,0,0,0,0,0,0,0,0,0,0,0,0,0,0,0,0,0,0],"sum_hessian":[3.73E2,2.19E2,1.54E2,1.42E2,7.7E1,7.1E1,8.3E1,2.2E1,1.2E2,4.8E1,2.9E1,3.9E1,3.2E1,5.7E1,2.6E1,7.4E1,4.6E1,2.3E1,2.5E1,2.6E1,3E0,2.7E1,1.2E1,1.1E1,2.1E1,4.9E1,8E0,3E0,2.3E1],"tree_param":{"num_deleted":"0","num_feature":"28","num_nodes":"29","size_leaf_vector":"1"}},{"base_weights":[-5.034804E-3,-8.681796E0,1.1811378E1,-1.2067451E1,-5.1461124E0,2.2560244E1,2.360391E0,-1.3842554E1,-8.70849E0,-6.9408736E0,-2.374176E0,5.452216E0,2.7845137E1,-5.390469E0,4.624546E0,-6.001839E-1,-7.919098E-1,-7.892021E-1,-3.601866E-1,-3.951042E-1,-1.5404303E-1,-1.889601E-1,7.26661E-2,-2.2126134E-1,4.7958174E-1,1.0572969E0,1.868275E0,-1.5641081E-1,-4.885324E-1,3.6763793E-1,-2.3888981E-1],"categories":[],"categories_nodes":[],"categories_segments":[],"categories_sizes":[],"default_left":[0,0,0,0,0,0,0,0,0,0,0,0,0,0,0,0,0,0,0,0,0,0,0,0,0,0,0,0,0,0,0],"id":48,"left_children":[1,3,5,7,9,11,13,15,17,19,21,23,25,27,29,-1,-1,-1,-1,-1,-1,-1,-1,-1,-1,-1,-1,-1,-1,-1,-1],"loss_changes":[3.6807637E4,2.4158145E3,1.5388031E4,5.0551465E2,4.9594263E2,6.267586E3,1.463959E3,5.575586E1,3.0152905E2,2.0569238E2,2.3135721E2,7.78409E2,2.6539258E3,1.5770764E2,1.6768313E3,0E0,0E0,0E0,0E0,0E0,0E0,0E0,0E0,0E0,0E0,0E0,0E0,0E0,0E0,0E0,0E0],"parents":[2147483647,0,0,1,1,2,2,3,3,4,4,5,5,6,6,7,7,8,8,9,9,10,10,11,11,12,12,13,13,14,14],"right_children":[2,4,6,8,10,12,14,16,18,20,22,24,26,28,30,-1,-1,-1,-1,-1,-1,-1,-1,-1,-1,-1,-1,-1,-1,-1,-1],"split_conditions":[7.6548076E3,2.962E-1,1.3061065E4,1E0,1E0,1.876E-1,1.798E-1,8.337E2,1.132E-1,5.43E-1,5.13E-1,6.9E-2,1E0,3.872E-1,1.6327595E4,-6.001839E-1,-7.919098E-1,-7.892021E-1,-3.601866E-1,-3.951042E-1,-1.5404303E-1,-1.889601E-1,7.26661E-2,-2.2126134E-1,4.7958174E-1,1.0572969E0,1.868275E0,-1.5641081E-1,-4.885324E-1,3.6763793E-1,-2.3888981E-1],"split_indices":[12,0,12,19,19,0,0,14,0,0,0,8,22,7,12,0,0,0,0,0,0,0,0,0,0,0,0,0,0,0,0],"split_type":[0,0,0,0,0,0,0,0,0,0,0,0,0,0,0,0,0,0,0,0,0,0,0,0,0,0,0,0,0,0,0],"sum_hessian":[3.57E2,2.06E2,1.51E2,1.04E2,1.02E2,7E1,8.1E1,6.6E1,3.8E1,6.1E1,4.1E1,1.7E1,5.3E1,1.8E1,6.3E1,3.8E1,2.8E1,5E0,3.3E1,4.8E1,1.3E1,3E1,1.1E1,5E0,1.2E1,3.3E1,2E1,1.3E1,5E0,4.9E1,1.4E1],"tree_param":{"num_deleted":"0","num_feature":"28","num_nodes":"31","size_leaf_vector":"1"}},{"base_weights":[3.2008106E-1,-7.886423E0,1.1733487E1,-1.3122208E1,-6.6290584E0,9.46248E0,3.2450123E1,-9.6058846E-2,-6.977971E-1,-8.308116E0,-3.8154492E0,3.5984817E0,1.4093282E1,2.6164436E-1,3.881836E1,-3.3188638E-1,-6.0861295E-1,4.5441184E-2,-2.3715477E-1,2.9586086E-1,-1.8637748E-1,8.6105865E-1,-2.0023296E-2,2.1819146E0,9.1344607E-1],"categories":[],"categories_nodes":[],"categories_segments":[],"categories_sizes":[],"default_left":[0,0,0,0,0,0,0,0,0,0,0,0,0,0,0,0,0,0,0,0,0,0,0,0,0],"id":49,"left_children":[1,3,5,7,9,11,13,-1,-1,15,17,19,21,-1,23,-1,-1,-1,-1,-1,-1,-1,-1,-1,-1],"loss_changes":[3.49356E4,1.3415869E3,7.032373E3,3.5607373E2,8.0448535E2,3.8052988E3,2.3967559E3,0E0,0E0,6.292119E2,3.0231738E2,1.1092328E3,3.5883516E3,0E0,3.913379E2,0E0,0E0,0E0,0E0,0E0,0E0,0E0,0E0,0E0,0E0],"parents":[2147483647,0,0,1,1,2,2,3,3,4,4,5,5,6,6,9,9,10,10,11,11,12,12,14,14],"right_children":[2,4,6,8,10,12,14,-1,-1,16,18,20,22,-1,24,-1,-1,-1,-1,-1,-1,-1,-1,-1,-1],"split_conditions":[3.02E1,6.733958E-1,1.0714817E0,4.7E-3,1E0,8.0776E-1,3.7196198E1,-9.6058846E-2,-6.977971E-1,7.838558E2,5.349E-1,2.6208E0,1E0,2.6164436E-1,1E0,-3.3188638E-1,-6.0861295E-1,4.5441184E-2,-2.3715477E-1,2.9586086E-1,-1.8637748E-1,8.6105865E-1,-2.0023296E-2,2.1819146E0,9.1344607E-1],"split_indices":[17,9,9,4,19,9,11,0,0,10,2,5,27,0,27,0,0,0,0,0,0,0,0,0,0],"split_type":[0,0,0,0,0,0,0,0,0,0,0,0,0,0,0,0,0,0,0,0,0,0,0,0,0],"sum_hessian":[3.71E2,2.16E2,1.55E2,4E1,1.76E2,1.41E2,1.4E1,3E0,3.7E1,1.09E2,6.7E1,6.3E1,7.8E1,3E0,1.1E1,7.8E1,3.1E1,1.1E1,5.6E1,4.8E1,1.5E1,6.4E1,1.4E1,8E0,3E0],"tree_param":{"num_deleted":"0","num_feature":"28","num_nodes":"25","size_leaf_vector":"1"}},{"base_weights":[4.3945274E-1,-7.396675E0,1.1223996E1,-9.248542E0,-2.9697247E0,3.2390617E1,6.6714745E0,-1.0930448E1,-6.342125E0,-4.0407095E0,2.0079346E0,2.2334589E1,4.498715E1,1.3381613E1,1.7512219E0,-6.2319547E-1,-4.243803E-1,-4.8247075E-1,-1.9937797E-1,3.032053E-1,-2.3841403E-1,-2.8345574E-2,3.6496773E-1,2.718025E-1,1.2783707E0,2.7717378E0,1.0681534E0,3.5894826E-1,1.0417899E0,-1.0853604E-1,5.087899E-1],"categories":[],"categories_nodes":[],"categories_segments":[],"categories_sizes":[],"default_left":[0,0,0,0,0,0,0,0,0,0,0,0,0,0,0,0,0,0,0,0,0,0,0,0,0,0,0,0,0,0,0],"id":50,"left_children":[1,3,5,7,9,11,13,15,17,19,21,23,25,27,29,-1,-1,-1,-1,-1,-1,-1,-1,-1,-1,-1,-1,-1,-1,-1,-1],"loss_changes":[3.0928828E4,1.7105352E3,1.4623578E4,6.590371E2,3.4929718E2,2.4153477E3,4.20256E3,2.4259082E2,4.0539453E2,4.1856982E2,1.676332E2,7.897246E2,1.5307129E3,2.3471475E3,2.5001416E3,0E0,0E0,0E0,0E0,0E0,0E0,0E0,0E0,0E0,0E0,0E0,0E0,0E0,0E0,0E0,0E0],"parents":[2147483647,0,0,1,1,2,2,3,3,4,4,5,5,6,6,7,7,8,8,9,9,10,10,11,11,12,12,13,13,14,14],"right_children":[2,4,6,8,10,12,14,16,18,20,22,24,26,28,30,-1,-1,-1,-1,-1,-1,-1,-1,-1,-1,-1,-1,-1,-1,-1,-1],"split_conditions":[7.6548076E3,4.422E-1,9.797057E3,1E0,5.784E-1,4.159E-1,4.745E2,2.88E-1,1.876E-1,1.66E1,5.693E-1,2.023E-1,1.49E-2,3.593E-1,1E0,-6.2319547E-1,-4.243803E-1,-4.8247075E-1,-1.9937797E-1,3.032053E-1,-2.3841403E-1,-2.8345574E-2,3.6496773E-1,2.718025E-1,1.2783707E0,2.7717378E0,1.0681534E0,3.5894826E-1,1.0417899E0,-1.0853604E-1,5.087899E-1],"split_indices":[12,0,12,19,0,0,16,0,0,15,1,1,4,0,22,0,0,0,0,0,0,0,0,0,0,0,0,0,0,0,0],"split_type":[0,0,0,0,0,0,0,0,0,0,0,0,0,0,0,0,0,0,0,0,0,0,0,0,0,0,0,0,0,0,0],"sum_hessian":[3.64E2,2.11E2,1.53E2,1.48E2,6.3E1,2.6E1,1.27E2,9.2E1,5.6E1,5.2E1,1.1E1,1.6E1,1E1,5.3E1,7.4E1,5.4E1,3.8E1,2.2E1,3.4E1,3E0,4.9E1,8E0,3E0,3E0,1.3E1,6E0,4E0,3E1,2.3E1,5.1E1,2.3E1],"tree_param":{"num_deleted":"0","num_feature":"28","num_nodes":"31","size_leaf_vector":"1"}},{"base_weights":[9.834983E-4,-7.5076933E0,9.981455E0,-9.906152E0,-4.5676184E0,2.8068443E1,6.916835E0,-1.1546391E1,-6.5840917E0,-2.6371014E0,-7.30094E0,1.6469238E1,2.387915E0,1.1009128E1,6.8791226E-2,-7.313283E-1,-5.024191E-1,-6.714812E-1,-2.6301393E-1,-1.592802E-1,2.8506032E-1,-5.4337806E-1,-3.034837E-1,1.24540105E-1,1.0460576E0,2.4048005E-1,8.479223E-1,-3.4460416E-1,1.4989378E-1],"categories":[],"categories_nodes":[],"categories_segments":[],"categories_sizes":[],"default_left":[0,0,0,0,0,0,0,0,0,0,0,0,0,0,0,0,0,0,0,0,0,0,0,0,0,0,0,0,0],"id":51,"left_children":[1,3,5,7,9,11,13,15,17,19,21,23,-1,25,27,-1,-1,-1,-1,-1,-1,-1,-1,-1,-1,-1,-1,-1,-1],"loss_changes":[2.8102549E4,1.4638047E3,8.730043E3,5.6150684E2,4.9786548E2,4.4663516E3,3.8946064E3,2.0831348E2,3.0090698E2,2.880031E2,1.09696045E2,9.4358203E2,0E0,3.127254E3,1.1012778E3,0E0,0E0,0E0,0E0,0E0,0E0,0E0,0E0,0E0,0E0,0E0,0E0,0E0,0E0],"parents":[2147483647,0,0,1,1,2,2,3,3,4,4,5,5,6,6,7,7,8,8,9,9,10,10,11,11,13,13,14,14],"right_children":[2,4,6,8,10,12,14,16,18,20,22,24,-1,26,28,-1,-1,-1,-1,-1,-1,-1,-1,-1,-1,-1,-1,-1,-1],"split_conditions":[7.6548076E3,3.341E-1,9.797057E3,1E0,1E0,4.159E-1,1.4509995E4,1.727E-1,1.132E-1,9.299816E-1,3.862E-1,2.946E-1,2.387915E0,3.234E-1,2.431E-1,-7.313283E-1,-5.024191E-1,-6.714812E-1,-2.6301393E-1,-1.592802E-1,2.8506032E-1,-5.4337806E-1,-3.034837E-1,1.24540105E-1,1.0460576E0,2.4048005E-1,8.479223E-1,-3.4460416E-1,1.4989378E-1],"split_indices":[12,0,12,19,20,0,12,0,0,13,0,1,0,0,0,0,0,0,0,0,0,0,0,0,0,0,0,0,0],"split_type":[0,0,0,0,0,0,0,0,0,0,0,0,0,0,0,0,0,0,0,0,0,0,0,0,0,0,0,0,0],"sum_hessian":[3.73E2,2.13E2,1.6E2,1.16E2,9.7E1,2.2E1,1.38E2,7.6E1,4E1,5.8E1,3.9E1,1.5E1,7E0,8.6E1,5.2E1,2.2E1,5.4E1,5E0,3.5E1,5.5E1,3E0,8E0,3.1E1,4E0,1.1E1,4.3E1,4.3E1,1.5E1,3.7E1],"tree_param":{"num_deleted":"0","num_feature":"28","num_nodes":"29","size_leaf_vector":"1"}},{"base_weights":[3.6688602E-1,-6.735641E0,9.579867E0,-1.0534341E1,-5.014985E0,1.2926285E0,1.375064E1,-1.2076914E1,-7.3265233E0,-6.154771E0,-2.0293043E0,-1.7169594E0,9.232021E0,1.6715519E1,1.8051605E0,-6.4979094E-1,-2.8785586E-1,-4.5177442E-1,-4.892718E-2,-2.4446977E-2,-3.4838682E-1,-3.818713E-1,-5.1912393E-2,1.4844309E-1,-2.654737E-1,-8.8568114E-2,6.0652405E-1,9.8269004E-1,3.165165E-1,-3.7182122E-1,1.8278745E-1],"categories":[],"categories_nodes":[],"categories_segments":[],"categories_sizes":[],"default_left":[0,0,0,0,0,0,0,0,0,0,0,0,0,0,0,0,0,0,0,0,0,0,0,0,0,0,0,0,0,0,0],"id":52,"left_children":[1,3,5,7,9,11,13,15,17,19,21,23,25,27,29,-1,-1,-1,-1,-1,-1,-1,-1,-1,-1,-1,-1,-1,-1,-1,-1],"loss_changes":[2.375216E4,1.2871025E3,5.443368E3,2.2326074E2,4.7414404E2,1.3061432E3,3.6886016E3,1.6328027E2,2.4067322E2,4.7102368E2,2.1994705E2,6.891183E2,4.9988037E2,2.4388105E3,4.0343784E2,0E0,0E0,0E0,0E0,0E0,0E0,0E0,0E0,0E0,0E0,0E0,0E0,0E0,0E0,0E0,0E0],"parents":[2147483647,0,0,1,1,2,2,3,3,4,4,5,5,6,6,7,7,8,8,9,9,10,10,11,11,12,12,13,13,14,14],"right_children":[2,4,6,8,10,12,14,16,18,20,22,24,26,28,30,-1,-1,-1,-1,-1,-1,-1,-1,-1,-1,-1,-1,-1,-1,-1,-1],"split_conditions":[3.02E1,2.165E-1,7.7296084E-1,1E0,4.94E-1,5.615E-1,1E0,5.197E-1,6.566E-1,3.02E1,7.012377E2,8.407E2,1.08E-2,1.563E0,3.274E-1,-6.4979094E-1,-2.8785586E-1,-4.5177442E-1,-4.892718E-2,-2.4446977E-2,-3.4838682E-1,-3.818713E-1,-5.1912393E-2,1.4844309E-1,-2.654737E-1,-8.8568114E-2,6.0652405E-1,9.8269004E-1,3.165165E-1,-3.7182122E-1,1.8278745E-1],"split_indices":[17,0,9,19,0,1,27,8,1,15,10,14,4,2,5,0,0,0,0,0,0,0,0,0,0,0,0,0,0,0,0],"split_type":[0,0,0,0,0,0,0,0,0,0,0,0,0,0,0,0,0,0,0,0,0,0,0,0,0,0,0,0,0,0,0],"sum_hessian":[3.61E2,2.04E2,1.57E2,6.2E1,1.42E2,5.3E1,1.04E2,4E1,2.2E1,1.02E2,4E1,3.9E1,1.4E1,8.3E1,2.1E1,3.4E1,6E0,1.7E1,5E0,1.3E1,8.9E1,5E0,3.5E1,1.7E1,2.2E1,3E0,1.1E1,6.4E1,1.9E1,3E0,1.8E1],"tree_param":{"num_deleted":"0","num_feature":"28","num_nodes":"31","size_leaf_vector":"1"}},{"base_weights":[-2.2792889E-1,-6.946929E0,8.904481E0,-8.453455E0,-3.0790794E0,2.0653322E1,3.167733E0,-1.00875435E1,-5.8503466E0,8.062706E-1,-4.8559346E0,4.1846457E0,2.5613308E1,1.1222094E0,1.6529587E1,-3.870504E-1,-6.038632E-1,-4.5593843E-1,-1.8864033E-1,-1.14061356E-1,1.3221243E-1,-2.685561E-1,6.905613E-2,-2.9662916E-2,5.9739715E-1,1.0172523E0,2.0456812E0,-8.5430756E-2,3.714232E-1,1.0214262E0,2.7128968E-1],"categories":[],"categories_nodes":[],"categories_segments":[],"categories_sizes":[],"default_left":[0,0,0,0,0,0,0,0,0,0,0,0,0,0,0,0,0,0,0,0,0,0,0,0,0,0,0,0,0,0,0],"id":53,"left_children":[1,3,5,7,9,11,13,15,17,19,21,23,25,27,29,-1,-1,-1,-1,-1,-1,-1,-1,-1,-1,-1,-1,-1,-1,-1,-1],"loss_changes":[2.2581223E4,1.2092979E3,1.0448998E4,5.875488E2,4.250412E2,4.0587227E3,2.8786409E3,3.360537E2,3.798037E2,1.1952718E2,1.423747E2,4.8928796E2,2.311248E3,1.6729192E3,4.95261E2,0E0,0E0,0E0,0E0,0E0,0E0,0E0,0E0,0E0,0E0,0E0,0E0,0E0,0E0,0E0,0E0],"parents":[2147483647,0,0,1,1,2,2,3,3,4,4,5,5,6,6,7,7,8,8,9,9,10,10,11,11,12,12,13,13,14,14],"right_children":[2,4,6,8,10,12,14,16,18,20,22,24,26,28,30,-1,-1,-1,-1,-1,-1,-1,-1,-1,-1,-1,-1,-1,-1,-1,-1],"split_conditions":[1.513E2,4.422E-1,3.693E2,1E0,2.5194675E-1,1.876E-1,5.011E-1,3.1417229E1,1.876E-1,5.054E-1,3.263E0,1E0,3.06E-2,1E0,1E0,-3.870504E-1,-6.038632E-1,-4.5593843E-1,-1.8864033E-1,-1.14061356E-1,1.3221243E-1,-2.685561E-1,6.905613E-2,-2.9662916E-2,5.9739715E-1,1.0172523E0,2.0456812E0,-8.5430756E-2,3.714232E-1,1.0214262E0,2.7128968E-1],"split_indices":[16,0,16,19,13,0,0,11,0,0,5,22,3,22,27,0,0,0,0,0,0,0,0,0,0,0,0,0,0,0,0],"split_type":[0,0,0,0,0,0,0,0,0,0,0,0,0,0,0,0,0,0,0,0,0,0,0,0,0,0,0,0,0,0,0],"sum_hessian":[3.66E2,2.11E2,1.55E2,1.51E2,6E1,5E1,1.05E2,9.1E1,6E1,1.9E1,4.1E1,1.2E1,3.8E1,9.2E1,1.3E1,4.4E1,4.7E1,2.2E1,3.8E1,7E0,1.2E1,3.8E1,3E0,8E0,4E0,3E1,8E0,6.4E1,2.8E1,9E0,4E0],"tree_param":{"num_deleted":"0","num_feature":"28","num_nodes":"31","size_leaf_vector":"1"}},{"base_weights":[-2.7506614E-1,-6.0733523E0,7.717925E0,-7.671876E0,-2.5797834E0,2.2550356E1,4.15343E0,-6.2675387E-1,-6.7156715E0,2.931169E-1,-3.1894884E0,1.5858615E1,3.4347977E1,8.8571286E-1,1.150403E1,-2.5519463E-1,-4.6409732E-1,-2.2277537E-1,4.8308183E-2,4.1733775E-1,1.2473506E0,9.0093917E-1,1.9386046E0,-3.522779E-2,9.8076123E-1,-1.0142678E-1,7.530871E-1],"categories":[],"categories_nodes":[],"categories_segments":[],"categories_sizes":[],"default_left":[0,0,0,0,0,0,0,0,0,0,0,0,0,0,0,0,0,0,0,0,0,0,0,0,0,0,0],"id":54,"left_children":[1,3,5,7,9,11,13,-1,15,-1,17,19,21,23,25,-1,-1,-1,-1,-1,-1,-1,-1,-1,-1,-1,-1],"loss_changes":[1.7194766E4,1.1808867E3,8.154078E3,5.994004E2,3.7385486E2,1.8236875E3,3.0403103E3,0E0,4.6966016E2,0E0,3.4627844E2,1.2254595E3,2.3795898E1,2.6646814E3,1.908207E3,0E0,0E0,0E0,0E0,0E0,0E0,0E0,0E0,0E0,0E0,0E0,0E0],"parents":[2147483647,0,0,1,1,2,2,3,3,4,4,5,5,6,6,8,8,10,10,11,11,12,12,13,13,14,14],"right_children":[2,4,6,8,10,12,14,-1,16,-1,18,20,22,24,26,-1,-1,-1,-1,-1,-1,-1,-1,-1,-1,-1,-1],"split_conditions":[3.21E1,4.222E-1,1.0271904E4,1.36E-1,1.66E1,7.495443E1,1E0,-6.2675387E-1,1E0,2.931169E-1,3.374E-1,2.47E-2,7.23E-1,5.46E-1,1.533E-1,-2.5519463E-1,-4.6409732E-1,-2.2277537E-1,4.8308183E-2,4.1733775E-1,1.2473506E0,9.0093917E-1,1.9386046E0,-3.522779E-2,9.8076123E-1,-1.0142678E-1,7.530871E-1],"split_indices":[17,0,12,0,15,11,22,0,20,0,7,3,6,0,0,0,0,0,0,0,0,0,0,0,0,0,0],"split_type":[0,0,0,0,0,0,0,0,0,0,0,0,0,0,0,0,0,0,0,0,0,0,0,0,0,0,0],"sum_hessian":[3.69E2,2.14E2,1.55E2,1.46E2,6.8E1,2.9E1,1.26E2,2.2E1,1.24E2,4E0,6.4E1,2E1,9E0,8.8E1,3.8E1,7.8E1,4.6E1,4.9E1,1.5E1,1.2E1,8E0,3E0,6E0,8.2E1,6E0,8E0,3E1],"tree_param":{"num_deleted":"0","num_feature":"28","num_nodes":"27","size_leaf_vector":"1"}},{"base_weights":[-1.22616544E-1,-6.2387342E0,7.891048E0,-9.787157E0,-4.105396E0,2.3216412E1,4.97295E0,-7.5976686E0,-1.0951689E1,-5.4975476E0,-1.1284918E0,1.4473901E1,3.1481306E1,7.62142E0,-1.6738727E0,-5.776977E-1,-3.0635914E-1,